svm_type epsilon_svr
kernel_type rbf
gamma 0.019607843137254902
nr_class 2
total_sv 760
rho -50.716136419467531
probA 4.695470132643889
SV
1024 1:-0.910674 2:0.418745 3:-0.958884 4:-0.6506 5:-0.732479 6:-0.552454 7:0.228933 8:-0.851395 9:-0.869459 10:-0.85455 11:-0.177704 12:-0.717526 13:-0.973197 14:-0.913336 15:-0.463365 16:-0.243277 17:-0.616446 18:0.515663 19:-0.784868 20:-0.313548 21:-0.629772 22:0.519752 23:-0.77264 24:-0.371091 25:-0.500582 26:-0.160159 27:-0.617576 28:-0.744622 29:-0.496514 30:-0.23669 31:-0.611597 32:-0.754339 33:0.876737 34:0.350445 35:0.199872 36:0.164932 37:0.140296 38:-0.367033 39:0.193028 40:0.162562 41:0.126946 42:-0.354961 43:0.0929601 44:0.271972 45:-0.170238 46:-0.187477 47:-0.296388 48:0.285813 49:-0.322548 50:-0.184655 51:-0.317585 
-1024 1:-0.806341 2:0.537323 3:-0.974536 4:-0.425411 5:-0.537296 6:-0.706088 7:0.558527 8:-0.900586 9:-0.66185 10:-0.503325 11:0.13596 12:-0.848574 13:-0.811515 14:-0.779308 15:-0.762614 16:-0.58068 17:-0.812914 18:0.552901 19:-0.921168 20:-0.622677 21:-0.837407 22:0.386183 23:-0.893089 24:-0.755844 25:-0.753393 26:0.0767955 27:-0.857924 28:-0.901792 29:-0.751356 30:0.0659596 31:-0.857157 32:-0.905922 33:0.989154 34:-0.517653 35:-0.160816 36:-0.240548 37:0.408281 38:-0.690461 39:-0.167824 40:-0.232622 41:-0.0481169 42:-0.577705 43:-0.437451 44:-0.114187 45:0.114827 46:-0.566377 47:-0.587893 48:-0.104498 49:-0.1937 50:-0.540799 51:-0.628826 
1024 1:-0.868361 2:0.629765 3:-0.970023 4:-0.208721 5:-0.382529 6:-0.749008 7:0.745503 8:-0.843451 9:-0.479948 10:-0.22996 11:0.383915 12:-0.608626 13:-0.499897 14:-0.307741 15:-0.796938 16:-0.675784 17:-0.845475 18:0.654195 19:-0.968561 20:-0.693501 21:-0.868717 22:0.478128 23:-0.937462 24:-0.794434 25:-0.775882 26:0.181032 27:-0.920697 28:-0.939243 29:-0.775368 30:0.23669 31:-0.921674 32:-0.937416 33:0.881415 34:-0.590781 35:-0.255455 36:-0.338082 37:0.471006 38:-0.747478 39:-0.227522 40:-0.355227 41:0.142845 42:-0.665277 43:-0.445739 44:-0.168166 45:-0.263683 46:-0.621994 47:-0.749029 48:-0.188927 49:-0.128421 50:-0.6477 51:-0.715129 
1024 1:-0.524266 2:0.629012 3:-0.990225 4:-0.0435152 5:-0.218246 6:-0.857808 7:0.873882 8:-0.896859 9:-0.196337 10:0.145948 11:0.598109 12:-0.698449 13:-0.211082 14:0.0143187 15:-0.851814 16:-0.801925 17:-0.904525 18:0.59235 19:-0.990018 20:-0.817139 21:-0.904422 22:0.655032 23:-0.990685 24:-0.848946 25:-0.815432 26:0.472995 27:-0.979889 28:-0.963685 29:-0.814872 30:0.540465 31:-0.980055 32:-0.963502 33:0.91761 34:-0.839288 35:-0.504294 36:-0.62411 37:0.403069 38:-0.84898 39:-0.489859 40:-0.638752 41:0.323555 42:-0.813032 43:-0.581012 44:-0.496194 45:-0.184196 46:-0.752802 47:-0.857866 48:-0.503114 49:-0.241781 50:-0.754865 51:-0.851951 
1024 1:-0.845924 2:0.566761 3:-0.964329 4:-0.194414 5:-0.302094 6:-0.953779 7:0.730375 8:-0.880016 9:-0.427985 10:-0.0904098 11:0.454768 12:-0.739166 13:-0.406488 14:-0.227813 15:-0.816052 16:-0.646083 17:-0.859272 18:0.556199 19:-0.932208 20:-0.636235 21:-0.87476 22:0.403263 23:-0.892189 24:-0.739248 25:-0.794494 26:-0.132144 27:-0.845252 28:-0.926637 29:-0.793958 30:-0.127719 31:-0.844844 32:-0.92587 33:0.920269 34:-0.774123 35:-0.355405 36:-0.496986 37:0.353531 38:-0.759404 39:-0.3471 40:-0.510673 41:0.111684 42:-0.679578 43:-0.498319 44:-0.35917 45:-0.399799 46:-0.614417 47:-0.78721 48:-0.367474 49:-0.427499 50:-0.619685 51:-0.775121 
1024 1:-0.855766 2:-0.0596453 3:-0.9632 4:-0.902576 5:-0.967799 6:-0.342319 7:-0.13614 8:-0.928115 9:-0.920466 10:-0.913948 11:0.0657829 12:-0.880188 13:-0.737067 14:-0.665225 15:0.159388 16:-0.229843 17:-0.501104 18:0.417405 19:-0.768946 20:-0.380527 21:-0.475968 22:0.129199 23:-0.71476 24:-0.574836 25:-0.350136 26:-0.17355 27:-0.599236 28:-0.727986 29:-0.353989 30:0.208579 31:-0.640984 32:-0.688685 33:0.968067 34:-0.495652 35:-0.21256 36:-0.312877 37:0.488537 38:-0.737463 39:-0.1899 40:-0.312534 41:-0.104676 42:-0.597059 43:-0.512224 44:-0.208304 45:-0.24401 46:-0.523757 47:-0.658725 48:-0.220761 49:-9.50209e-05 50:-0.56992 51:-0.602456 
-1024 1:-0.762051 2:0.513333 3:-0.975966 4:-0.325812 5:-0.404135 6:-0.592922 7:0.701191 8:-0.918047 9:-0.424421 10:-0.130164 11:0.467051 12:-0.65327 13:-0.319598 14:-0.105807 15:-0.835166 16:-0.758727 17:-0.903422 18:0.379623 19:-0.94589 20:-0.817679 21:-0.903323 22:0.480238 23:-0.954758 24:-0.833834 25:-0.855758 26:0.00988373 27:-0.911291 28:-0.956722 29:-0.8567 30:0.256729 31:-0.930329 32:-0.94359 33:0.953735 34:-0.818753 35:-0.506885 36:-0.627397 37:0.187544 38:-0.800267 39:-0.570712 40:-0.594964 41:0.192221 42:-0.797014 43:-0.646669 44:-0.512803 45:-0.155109 46:-0.743436 47:-0.844923 48:-0.526644 49:0.00826682 50:-0.774138 51:-0.812542 
-1024 1:-0.92906 2:0.581043 3:-0.940675 4:-0.347355 5:-0.476992 6:-0.984054 7:0.682466 8:-0.678923 9:-0.55871 10:-0.349212 11:0.445976 12:0.258935 13:-0.676735 14:-0.576098 15:-0.757887 16:-0.547395 17:-0.822848 18:0.360283 19:-0.864135 20:-0.640687 21:-0.815435 22:0.668249 23:-0.90256 24:-0.548254 25:-0.723924 26:-0.319744 27:-0.793813 28:-0.914434 29:-0.724245 30:-0.201305 31:-0.806605 32:-0.904571 33:0.950826 34:-0.528339 35:-0.150057 36:-0.260274 37:0.025506 38:-0.541856 39:-0.240583 40:-0.275315 41:0.41168 42:-0.591652 43:-0.0801602 44:-0.015917 45:-0.928101 46:-0.414733 47:-0.742381 48:-0.0422145 49:-0.643149 50:-0.464915 51:-0.684374 
1024 1:-0.811131 2:0.531031 3:-0.974164 4:-0.344094 5:-0.459221 6:-0.427416 7:0.601632 8:-0.854152 9:-0.610346 10:-0.400873 11:0.258383 12:-0.668538 13:-0.687225 14:-0.646013 15:-0.819751 16:-0.663995 17:-0.883554 18:0.446434 19:-0.936686 20:-0.741931 21:-0.879154 22:0.438675 23:-0.90728 24:-0.745927 25:-0.831718 26:0.212405 27:-0.895509 28:-0.913628 29:-0.829589 30:0.00105592 31:-0.867975 32:-0.927441 33:0.977897 34:-0.679832 35:-0.248077 36:-0.435616 37:-0.0563028 38:-0.604106 39:-0.426666 40:-0.43514 41:0.12127 42:-0.598373 43:-0.348681 44:-0.339792 45:-0.14012 46:-0.562484 47:-0.670314 48:-0.355017 49:-0.121579 50:-0.570184 51:-0.644906 
1024 1:-0.772788 2:0.43285 3:-0.946337 4:-0.606989 5:-0.681101 6:-0.248032 7:0.2472 8:-0.874814 9:-0.797755 10:-0.724975 11:-0.0886722 12:-0.982457 13:-0.934992 14:-0.880928 15:-0.58812 16:-0.323026 17:-0.687638 18:0.344953 19:-0.777529 20:-0.461738 21:-0.689096 22:0.424004 23:-0.780124 24:-0.47411 25:-0.611477 26:0.0960529 27:-0.654099 28:-0.7215 29:-0.605732 30:-0.0616421 31:-0.642125 32:-0.749406 33:0.999575 34:0.00303824 35:0.0849847 36:0.0213699 37:0.00771235 38:-0.409657 39:-0.0214782 40:0.0191571 41:-0.0203733 42:-0.382097 43:-0.0895529 44:0.0989619 45:0.446076 46:-0.358642 47:-0.239028 48:0.121107 49:-0.307345 50:-0.254957 51:-0.384944 
-530.71709698287975 1:-0.869414 2:0.161302 3:-0.930183 4:-0.833025 5:-0.890909 6:-0.300877 7:0.190776 8:-0.677396 9:-0.817258 10:-0.699808 11:0.0962089 12:-0.717557 13:-0.743459 14:-0.545025 15:-0.246326 16:-0.325407 17:-0.580022 18:0.743757 19:-0.866685 20:-0.323396 21:-0.566053 22:-0.0310432 23:-0.726498 24:-0.710845 25:-0.443971 26:-0.261717 27:-0.655083 28:-0.791711 29:-0.446166 30:-0.356923 31:-0.646374 32:-0.799532 33:0.98332 34:-0.514301 35:-0.212368 36:-0.251507 37:0.663684 38:-0.780037 39:-0.133514 40:-0.254516 41:-0.478229 42:-0.516764 43:-0.638934 44:-0.122491 45:-0.317783 46:-0.526861 47:-0.678315 48:-0.123875 49:-0.486982 50:-0.518049 51:-0.691215 
1024 1:-0.829396 2:0.459011 3:-0.972773 4:-0.456646 5:-0.5309 6:-0.80911 7:0.585816 8:-0.872627 9:-0.491072 10:-0.182778 11:0.347815 12:-0.796131 13:-0.478545 14:-0.247631 15:-0.812147 16:-0.627152 17:-0.856512 18:0.315811 19:-0.89091 20:-0.739503 21:-0.852238 22:0.570432 23:-0.919856 24:-0.676438 25:-0.785964 26:-0.139626 27:-0.828998 28:-0.916047 29:-0.790085 30:0.0785367 31:-0.849092 32:-0.899456 33:0.991971 34:-0.8022 35:-0.339944 36:-0.528767 37:0.0408781 38:-0.673855 39:-0.463919 40:-0.524904 41:0.370151 42:-0.734506 43:-0.391777 44:-0.443599 45:-0.156702 46:-0.597316 47:-0.713672 48:-0.449135 49:-0.0522615 50:-0.624108 51:-0.680164 
1024 1:-0.860342 2:0.211272 3:-0.930077 4:-0.78293 5:-0.818855 6:-0.510969 7:0.0959207 8:-0.783757 9:-0.827955 10:-0.662975 11:-0.106571 12:-0.485095 13:-0.837789 14:-0.565317 15:-0.629637 16:-0.291679 17:-0.656181 18:0.669431 19:-0.821501 20:-0.241982 21:-0.645152 22:-0.0651618 23:-0.662283 24:-0.647765 25:-0.547111 26:-0.448084 27:-0.556456 28:-0.762395 29:-0.546088 30:-0.371331 31:-0.572061 32:-0.753096 33:0.993613 34:-0.611734 35:-0.0612822 36:-0.201096 37:0.552947 38:-0.645271 39:0.0815435 40:-0.182266 41:-0.654682 42:-0.326208 43:-0.518394 44:-0.0809689 45:-0.608469 46:-0.30834 47:-0.575891 48:-0.0809689 49:-0.47805 50:-0.356908 51:-0.546148 
-1024 1:-0.692861 2:0.104947 3:-0.978257 4:-0.838721 5:-0.889183 6:-0.365498 7:0.0256584 8:-0.935938 9:-0.839592 10:-0.735771 11:0.0474043 12:-0.926389 13:-0.724273 14:-0.519211 15:-0.157949 16:-0.257252 17:-0.540839 18:0.254397 19:-0.760985 20:-0.509157 21:-0.547377 22:0.351288 23:-0.755469 24:-0.483893 25:-0.429236 26:0.0194911 27:-0.634933 28:-0.718201 29:-0.429125 30:0.0236291 31:-0.634257 32:-0.720507 33:0.995103 34:-0.321949 35:-0.104134 36:-0.14411 37:-0.0175831 38:-0.582719 39:-0.34664 40:-0.171319 41:0.201489 42:-0.585538 43:-0.255767 44:-0.0311419 45:-0.0836788 46:-0.487503 47:-0.569067 48:-0.0380623 49:-0.113597 50:-0.496143 51:-0.559421 
-1024 1:-0.69741 2:0.50408 3:-0.967396 4:-0.37021 5:-0.444115 6:-0.56088 7:0.520138 8:-0.893234 9:-0.655377 10:-0.419994 11:0.116662 12:-0.652403 13:-0.752409 14:-0.591139 15:-0.809886 16:-0.603106 17:-0.871965 18:0.336294 19:-0.883447 20:-0.703349 21:-0.86652 22:0.461348 23:-0.88778 24:-0.680756 25:-0.811555 26:0.0309265 27:-0.839702 28:-0.897871 29:-0.810999 30:0.0869841 31:-0.844529 32:-0.895583 33:0.914947 34:-0.671241 35:-0.179987 36:-0.386301 37:0.028033 38:-0.600483 39:-0.343513 40:-0.380405 41:0.165028 42:-0.589681 43:-0.295087 44:-0.296886 45:-0.0419916 46:-0.522073 47:-0.598894 48:-0.29827 49:-0.117778 50:-0.522578 51:-0.595147 
-8.0014965629630534 1:-0.953341 2:0.292222 3:-0.959411 4:-0.830238 5:-0.91584 6:-0.354936 7:-0.000621939 8:-0.87612 9:-0.908957 10:-0.925972 11:-0.165381 12:-0.455036 13:-0.974099 14:-0.89972 15:0.112733 16:-0.0797 17:-0.44702 18:0.36508 19:-0.691824 20:-0.252706 21:-0.452348 22:0.602659 23:-0.716779 24:-0.163434 25:-0.319891 26:-0.070674 27:-0.479515 28:-0.605555 29:-0.319132 30:-0.344581 31:-0.445819 32:-0.640605 33:0.925008 34:0.931692 35:0.25151 36:0.259178 37:-0.072096 38:-0.292454 39:0.104263 40:0.215107 41:0.18698 42:-0.295637 43:0.256964 44:0.368858 45:-0.00840769 46:-0.158169 47:-0.20173 48:0.392388 49:-0.482136 50:-0.0980805 51:-0.29063 
1024 1:-0.922698 2:0.495774 3:-0.825636 4:-0.621228 5:-0.664929 6:-0.657245 7:0.555135 8:-0.584079 9:-0.705038 10:-0.546808 11:0.45881 12:0.191875 13:-0.619756 14:-0.450165 15:-0.524818 16:-0.345134 17:-0.609823 18:0.908489 19:-0.895171 20:-0.243398 21:-0.625927 22:-0.0502324 23:-0.70824 24:-0.703289 25:-0.478092 26:-0.913023 27:-0.588925 28:-0.862252 29:-0.486445 30:-0.710538 31:-0.614981 32:-0.836981 33:0.904285 34:-0.220953 35:-0.132283 36:-0.00712329 37:0.805322 38:-0.772186 39:-0.00630088 40:-0.00930487 41:-0.455814 42:-0.492559 43:-0.573093 44:0.176471 45:-0.810019 46:-0.442936 47:-0.723673 48:0.170934 49:-0.611174 50:-0.486874 51:-0.684841 
1024 1:-0.684543 2:0.678053 3:-0.995242 4:-0.0761736 5:-0.2772 6:-0.817796 7:0.924683 8:-0.918262 9:-0.188148 10:0.0918877 11:0.644485 12:-0.803435 13:-0.190877 14:-0.0806902 15:-0.851608 16:-0.896887 17:-0.929912 18:0.473365 19:-0.997419 20:-0.928771 21:-0.930239 22:0.554408 23:-0.996957 24:-0.932602 25:-0.848003 26:0.493358 27:-0.994215 28:-0.981165 29:-0.84818 30:0.556421 31:-0.994138 32:-0.981184 33:0.919997 34:-0.837821 35:-0.633981 36:-0.672329 37:0.398015 38:-0.934127 39:-0.709148 40:-0.672687 41:0.511475 42:-0.933955 43:-0.72402 44:-0.56955 45:0.393569 46:-0.91155 47:-0.891811 48:-0.566782 49:0.287201 50:-0.910056 51:-0.893583 
1024 1:-0.758921 2:0.640431 3:-0.928228 4:-0.202845 5:-0.366339 6:-0.956376 7:0.792966 8:-0.791554 9:-0.417615 10:-0.154833 11:0.570842 12:0.171509 13:-0.447889 14:-0.191132 15:-0.820573 16:-0.679271 17:-0.880243 18:0.346489 19:-0.919582 20:-0.780109 21:-0.860478 22:0.8477 23:-0.979258 24:-0.66308 25:-0.796045 26:0.0438923 27:-0.904916 28:-0.94474 29:-0.795507 30:0.135556 31:-0.909322 32:-0.939608 33:0.955285 34:-0.702881 35:-0.293403 36:-0.432329 37:0.00473796 38:-0.625846 39:-0.409465 40:-0.439518 41:0.568961 42:-0.730463 43:-0.216723 44:-0.222145 45:-0.721258 46:-0.551539 47:-0.805154 48:-0.242907 49:-0.481756 50:-0.596725 51:-0.761789 
1024 1:-0.893022 2:0.667636 3:-0.985027 4:-0.131319 5:-0.320066 6:-0.930226 7:0.795946 8:-0.830955 9:-0.346561 10:-0.0385134 11:0.24537 12:-0.493097 13:-0.613815 14:-0.400933 15:-0.843798 16:-0.763214 17:-0.89128 18:0.481123 19:-0.978512 20:-0.849988 21:-0.892337 22:0.806794 23:-0.993914 24:-0.769135 25:-0.799922 26:0.479584 27:-0.973277 28:-0.955073 29:-0.798606 30:0.527841 31:-0.972855 32:-0.956195 33:0.944146 34:-0.721111 35:-0.321178 36:-0.484932 37:0.150193 38:-0.720051 39:-0.452146 40:-0.480022 41:0.769653 42:-0.826827 43:-0.267462 44:-0.323183 45:0.0894869 46:-0.716338 47:-0.75203 48:-0.316263 49:-0.144527 50:-0.699676 51:-0.77208 
1024 1:-0.713534 2:0.664161 3:-0.995056 4:-0.0460623 5:-0.261966 6:-0.82915 7:0.877177 8:-0.95788 9:-0.238422 10:0.0555367 11:0.549047 12:-0.654753 13:-0.332922 14:-0.218696 15:-0.853047 16:-0.878594 17:-0.92936 18:0.537646 19:-0.998103 20:-0.896597 21:-0.923098 22:0.554726 23:-0.996025 24:-0.929229 25:-0.838697 26:0.558909 27:-0.994529 28:-0.976437 29:-0.83811 30:0.620809 31:-0.994296 32:-0.976837 33:0.993237 34:-0.835726 35:-0.584188 36:-0.647123 37:0.52473 38:-0.927937 39:-0.597756 40:-0.662835 41:0.341191 42:-0.886809 43:-0.720521 44:-0.559862 45:0.331975 46:-0.878927 47:-0.867043 48:-0.56263 49:0.212134 50:-0.877564 51:-0.872124 
1024 1:-0.897534 2:0.584662 3:-0.934049 4:-0.329761 5:-0.454143 6:-0.986262 7:0.685971 8:-0.67828 9:-0.544962 10:-0.304544 11:0.446369 12:0.155518 13:-0.66103 14:-0.51282 15:-0.764053 16:-0.552829 17:-0.827263 18:0.3508 19:-0.863265 20:-0.646825 21:-0.81983 22:0.681586 23:-0.907746 24:-0.550211 25:-0.730128 26:-0.307629 27:-0.798339 28:-0.916083 29:-0.730442 30:-0.192951 31:-0.8105 32:-0.906507 33:0.951654 34:-0.550131 35:-0.15364 36:-0.273425 37:0.00642257 38:-0.532396 39:-0.242331 40:-0.289546 41:0.398763 42:-0.587761 43:-0.0836595 44:-0.0269896 45:-0.962247 46:-0.410155 47:-0.748147 48:-0.0560554 49:-0.668187 50:-0.461808 51:-0.689227 
1024 1:-0.879017 2:0.376138 3:-0.97031 4:-0.727913 5:-0.80108 6:-0.426055 7:0.130062 8:-0.861706 9:-0.890309 10:-0.896798 11:-0.182411 12:-0.668911 13:-0.973462 14:-0.929387 15:-0.306546 16:-0.170998 17:-0.545806 18:0.503781 19:-0.757222 20:-0.26188 21:-0.553419 22:0.523653 23:-0.74724 24:-0.310643 25:-0.433889 26:-0.107531 27:-0.556732 28:-0.681557 29:-0.432223 30:-0.18807 31:-0.548536 32:-0.692814 33:0.872856 34:0.575065 35:0.228884 36:0.212055 37:0.121897 38:-0.342375 39:0.218783 40:0.20416 41:0.11345 42:-0.32924 43:0.125835 44:0.309343 45:-0.183166 46:-0.150645 47:-0.264031 48:0.325952 49:-0.336184 50:-0.149425 51:-0.287414 
-1024 1:-0.910211 2:0.152636 3:-0.955133 4:-0.852008 5:-0.926472 6:0.078124 7:0.0676294 8:-0.902509 9:-0.844565 10:-0.78208 11:0.089663 12:-0.75928 13:-0.787947 14:-0.715733 15:-0.430274 16:-0.293635 17:-0.605408 18:0.276811 19:-0.767205 20:-0.503356 21:-0.604504 22:0.349298 23:-0.756556 24:-0.48821 25:-0.494378 26:-0.138309 27:-0.622102 28:-0.74334 29:-0.508908 30:0.0279935 31:-0.630402 32:-0.718205 33:0.921798 34:-0.408277 35:-0.0509396 36:-0.152877 37:-0.169251 38:-0.463755 39:-0.283723 40:-0.157088 41:0.0620756 42:-0.4774 43:-0.183019 44:-0.0519031 45:-0.227617 46:-0.373165 47:-0.507413 48:-0.0851211 49:0.107896 50:-0.422681 51:-0.409677 
-1024 1:-0.857695 2:0.442636 3:-0.853085 4:-0.698848 5:-0.732319 6:-0.648182 7:0.489729 8:-0.633851 9:-0.734546 10:-0.593203 11:0.452815 12:0.290008 13:-0.622766 14:-0.455894 15:-0.386497 16:-0.305945 17:-0.568433 18:0.896045 19:-0.884318 20:-0.228154 21:-0.570448 22:-0.0289331 23:-0.704451 24:-0.676168 25:-0.410624 26:-0.820095 27:-0.582313 28:-0.839056 29:-0.420604 30:-0.609123 31:-0.608332 32:-0.812977 33:0.910023 34:-0.143635 35:-0.125576 36:0.0235616 37:0.849385 38:-0.781446 39:0.00749667 40:0.0103996 41:-0.431865 42:-0.497663 43:-0.563608 44:0.201384 45:-0.772313 46:-0.448356 47:-0.717555 48:0.198616 49:-0.589557 50:-0.48719 51:-0.678643 
-1024 1:-0.905484 2:0.487234 3:-0.875802 4:-0.35409 5:-0.409583 6:-0.652534 7:0.542173 8:-0.637428 9:-0.536404 10:-0.201561 11:0.25937 12:-0.626724 13:-0.583326 14:-0.371062 15:-0.814408 16:-0.622506 17:-0.832781 18:0.823855 19:-0.964269 20:-0.515497 21:-0.862126 22:-0.00466792 23:-0.815305 24:-0.880654 25:-0.785188 26:-0.341127 27:-0.800858 28:-0.92792 29:-0.785438 30:-0.428022 31:-0.79319 32:-0.931972 33:0.985746 34:-0.778523 35:-0.369255 36:-0.467397 37:0.749151 38:-0.86307 39:-0.239387 40:-0.471264 41:-0.552483 42:-0.55441 43:-0.755514 44:-0.357785 45:-0.426731 46:-0.610418 47:-0.790505 48:-0.361938 49:-0.584521 50:-0.599831 51:-0.797047 
1024 1:-0.458502 2:0.558813 3:-0.991277 4:-0.100024 5:-0.245015 6:-0.580669 7:0.837052 8:-0.942012 9:-0.16817 10:0.172892 11:0.624744 12:-0.798224 13:-0.114281 14:0.134304 15:-0.86024 16:-0.878001 17:-0.944812 18:0.390868 19:-0.983767 20:-0.911436 21:-0.941225 22:0.519433 23:-0.990995 24:-0.917423 25:-0.900737 26:0.262185 27:-0.976071 28:-0.979479 29:-0.891557 30:0.456273 31:-0.984539 32:-0.974572 33:0.949836 34:-0.895443 35:-0.669455 36:-0.767671 37:0.211182 38:-0.883803 39:-0.711355 40:-0.759168 41:0.2758 42:-0.89171 43:-0.766195 44:-0.692734 45:0.126396 46:-0.872139 47:-0.906107 48:-0.702422 49:0.170515 50:-0.885674 51:-0.890893 
-1024 1:-0.845408 2:0.468075 3:-0.970348 4:-0.468727 5:-0.525144 6:-0.524678 7:0.563081 8:-0.759341 9:-0.650562 10:-0.510121 11:0.243506 12:-0.739456 13:-0.746507 14:-0.705246 15:-0.795293 16:-0.605478 17:-0.842715 18:0.383802 19:-0.882638 20:-0.661799 21:-0.864872 22:0.36367 23:-0.881942 24:-0.748086 25:-0.799922 26:-0.0974132 27:-0.82703 28:-0.909267 29:-0.79938 30:-0.12373 31:-0.823561 32:-0.91133 33:0.94009 34:-0.622839 35:-0.283188 36:-0.350137 37:0.260035 38:-0.706363 39:-0.333211 40:-0.361795 41:-0.0469874 42:-0.621769 43:-0.512869 44:-0.223529 45:-0.274362 46:-0.595054 47:-0.730968 48:-0.212457 49:-0.412391 50:-0.593354 51:-0.740155 
1024 1:-0.965855 2:0.586408 3:-0.983155 4:-0.16708 5:-0.319677 6:-0.705259 7:0.739149 8:-0.882888 9:-0.385731 10:-0.0491343 11:0.416215 12:-0.706706 13:-0.461859 14:-0.310529 15:-0.86209 16:-0.782711 17:-0.9266 18:0.466655 19:-0.971857 20:-0.821052 21:-0.930239 22:0.425398 23:-0.943051 24:-0.837207 25:-0.884451 26:0.214658 27:-0.937621 28:-0.951079 29:-0.88536 30:0.106413 31:-0.922146 32:-0.956852 33:0.979868 34:-0.810791 35:-0.436226 36:-0.628493 37:-0.0148456 38:-0.711345 39:-0.580647 40:-0.623426 41:0.131811 42:-0.701963 43:-0.525761 44:-0.552941 45:0.0036769 46:-0.71397 47:-0.78168 48:-0.561246 49:-0.0801976 50:-0.707786 51:-0.774302 
1024 1:-0.944827 2:0.528825 3:-0.962966 4:-0.45692 5:-0.569176 6:-0.760038 7:0.463858 8:-0.788461 9:-0.76105 10:-0.664774 11:-0.054848 12:-0.209383 13:-0.944021 14:-0.904972 15:-0.679375 16:-0.422501 17:-0.756623 18:0.410133 19:-0.844979 20:-0.555091 21:-0.739083 22:0.834921 23:-0.908739 24:-0.440985 25:-0.633967 26:0.0180883 27:-0.788539 28:-0.851515 29:-0.633617 30:-0.064364 31:-0.780641 32:-0.860765 33:0.932564 34:-0.247145 35:0.100904 36:-0.0345205 37:0.0679635 38:-0.437788 39:-0.0116359 40:-0.058566 41:0.384312 42:-0.462998 43:0.140844 44:0.0975779 45:-0.046254 46:-0.317758 47:-0.384633 48:0.103114 49:-0.419565 50:-0.274441 51:-0.443181 
1024 1:-0.774744 2:0.57252 3:-0.983914 4:-0.138486 5:-0.283974 6:-0.837626 7:0.750476 8:-0.911966 9:-0.293415 10:0.0662092 11:0.44374 12:-0.603406 13:-0.276031 14:-0.0509485 15:-0.850992 16:-0.837042 17:-0.927704 18:0.471847 19:-0.986348 20:-0.874068 21:-0.928591 22:0.507589 23:-0.980531 24:-0.888615 25:-0.871268 26:0.355283 27:-0.974222 28:-0.968156 29:-0.869868 30:0.361429 31:-0.972147 32:-0.97048 33:0.999663 34:-0.884756 35:-0.591598 36:-0.729315 37:0.119476 38:-0.836852 39:-0.693235 40:-0.730706 41:0.103923 42:-0.794133 43:-0.708182 44:-0.683045 45:0.190707 46:-0.81568 47:-0.835804 48:-0.681661 49:0.038531 50:-0.809842 51:-0.845929 
1024 1:-0.565241 2:0.483871 3:-0.974698 4:-0.209384 5:-0.296889 6:-0.812285 7:0.687756 8:-0.839114 9:-0.312396 10:0.0556658 11:0.343655 12:-0.310308 13:-0.302766 14:0.0811562 15:-0.863734 16:-0.795783 17:-0.919426 18:0.59488 19:-0.982772 20:-0.762369 21:-0.927492 22:0.377524 23:-0.960968 24:-0.911081 25:-0.868166 26:0.155015 27:-0.951238 28:-0.969328 29:-0.865995 30:0.223878 31:-0.953461 32:-0.967192 33:0.990871 34:-0.866108 35:-0.500712 36:-0.638356 37:0.655708 38:-0.896988 39:-0.377915 40:-0.669403 41:-0.190136 42:-0.692413 43:-0.74741 44:-0.56955 45:-0.352163 46:-0.700395 47:-0.860689 48:-0.56955 49:-0.282402 50:-0.728271 51:-0.844175 
1024 1:-0.712446 2:0.61804 3:-0.982613 4:-0.0713146 5:-0.171792 6:-0.837826 7:0.72499 8:-0.852446 9:-0.330928 10:0.126172 11:0.190273 12:-0.562359 13:-0.514034 14:-0.119736 15:-0.836605 16:-0.698281 17:-0.869757 18:0.715252 19:-0.985353 20:-0.711376 21:-0.881351 22:0.690126 23:-0.976028 24:-0.7634 25:-0.775882 26:0.498544 27:-0.963635 28:-0.941698 29:-0.775368 30:0.553887 31:-0.962666 32:-0.9418 33:0.906396 34:-0.760922 35:-0.246243 36:-0.467397 37:0.402358 38:-0.702086 39:-0.173343 40:-0.484401 41:0.335081 42:-0.682104 43:-0.319214 44:-0.350865 45:-0.169301 46:-0.579269 47:-0.694964 48:-0.346713 49:-0.262923 50:-0.577872 51:-0.693787 
1024 1:-0.585464 2:0.628353 3:-0.990668 4:-0.0174894 5:-0.206614 6:-0.847597 7:0.869176 8:-0.934771 9:-0.184188 10:0.141356 11:0.618509 12:-0.623464 13:-0.174171 14:0.00949032 15:-0.856746 16:-0.812996 17:-0.9117 18:0.57717 19:-0.990235 20:-0.825368 21:-0.911013 22:0.641038 23:-0.991523 24:-0.859403 25:-0.822412 26:0.465556 27:-0.981699 28:-0.966543 29:-0.821844 30:0.52939 31:-0.981707 32:-0.966461 33:0.91846 34:-0.846831 35:-0.518902 36:-0.640548 37:0.385907 38:-0.849433 39:-0.503104 40:-0.657362 41:0.28915 42:-0.808939 43:-0.597956 44:-0.516955 45:-0.193986 46:-0.757117 47:-0.864866 48:-0.518339 49:-0.270667 50:-0.758498 51:-0.862067 
1024 1:-0.884389 2:0.667643 3:-0.992009 4:-0.0255322 5:-0.251043 6:-0.930683 7:0.856263 8:-0.890703 9:-0.279498 10:0.0365562 11:0.498797 12:-0.80933 13:-0.298432 14:-0.0537485 15:-0.838454 16:-0.807341 17:-0.897903 18:0.512945 19:-0.987219 20:-0.862871 21:-0.900027 22:0.660128 23:-0.98848 24:-0.835723 25:-0.818534 26:0.413778 27:-0.975481 28:-0.964455 29:-0.817196 30:0.457306 31:-0.975098 32:-0.965365 33:0.982772 34:-0.78858 35:-0.48379 36:-0.583562 37:0.181174 38:-0.807413 39:-0.592513 40:-0.581828 41:0.5314 42:-0.848556 43:-0.50541 44:-0.432526 45:-0.0584323 46:-0.777322 47:-0.848276 48:-0.425606 49:-0.228525 50:-0.770347 51:-0.857916 
1024 1:-0.907522 2:0.666687 3:-0.992447 4:-0.0104723 5:-0.243198 6:-0.951929 7:0.859656 8:-0.883281 9:-0.258796 10:0.0630697 11:0.521118 12:-0.806703 13:-0.257041 14:-0.0186576 15:-0.841743 16:-0.81197 17:-0.901766 18:0.51242 19:-0.987468 20:-0.862737 21:-0.904422 22:0.65332 23:-0.98879 24:-0.839636 25:-0.824738 26:0.412162 27:-0.975953 28:-0.965004 29:-0.823393 30:0.454021 31:-0.975531 32:-0.965986 33:0.983828 34:-0.804715 35:-0.500616 36:-0.608767 37:0.15938 38:-0.80384 39:-0.601895 40:-0.608101 41:0.494505 42:-0.848556 43:-0.529997 44:-0.468512 45:-0.0869575 46:-0.776743 47:-0.855512 48:-0.461592 49:-0.269289 50:-0.767872 51:-0.865926 
-1024 1:-0.924405 2:0.40964 3:-0.949466 4:-0.428676 5:-0.465659 6:-0.37076 7:0.605382 8:-0.804779 9:-0.495507 10:-0.226255 11:0.456403 12:-0.511758 13:-0.298001 14:-0.12951 15:-0.863529 16:-0.722867 17:-0.905629 18:0.46405 19:-0.942314 20:-0.734377 21:-0.911013 22:0.165169 23:-0.86741 24:-0.870872 25:-0.879023 26:0.500372 27:-0.911016 28:-0.871963 29:-0.870643 30:-0.392637 31:-0.812349 32:-0.951153 33:0.999921 34:-0.868832 35:-0.542839 36:-0.687671 37:0.17641 38:-0.81476 39:-0.605298 40:-0.689108 41:-0.259785 42:-0.672149 43:-0.770524 44:-0.649827 45:0.438863 46:-0.793002 47:-0.736969 48:-0.63045 49:-0.435576 50:-0.685352 51:-0.853764 
1024 1:-0.82388 2:0.0498283 3:-0.98009 4:-0.722344 5:-0.726004 6:-0.343179 7:0.340668 8:-0.906726 9:-0.448095 10:-0.069696 11:0.587325 12:-0.837308 13:0.0511456 14:0.246038 15:-0.368205 16:-0.509162 17:-0.622517 18:0.22994 19:-0.877507 20:-0.770193 21:-0.624828 22:0.330367 23:-0.877626 24:-0.757936 25:-0.516092 26:0.349076 27:-0.846787 28:-0.845506 29:-0.507359 30:0.16897 31:-0.831075 32:-0.86493 33:0.984419 34:-0.751702 35:-0.562276 36:-0.619726 37:0.136848 38:-0.860353 39:-0.727177 40:-0.62671 41:0.331171 42:-0.86412 43:-0.681661 44:-0.572318 45:0.397176 46:-0.835306 47:-0.801153 48:-0.565398 49:-0.0315469 50:-0.797309 51:-0.84552 
-1024 1:-0.968415 2:0.529606 3:-0.826945 4:-0.357214 5:-0.410438 6:-0.765324 7:0.735011 8:0.106666 9:-0.539894 10:-0.233375 11:0.450636 12:0.07759 13:-0.473261 14:-0.265085 15:-0.80187 16:-0.568653 17:-0.841611 18:0.392236 19:-0.866965 20:-0.614785 21:-0.848943 22:0.442318 23:-0.855455 24:-0.621724 25:-0.758821 26:-0.25517 27:-0.773938 28:-0.894939 29:-0.756778 30:-0.407795 31:-0.759555 32:-0.906105 33:0.99509 34:-0.769722 35:-0.295343 36:-0.486027 37:-0.0372983 38:-0.595853 39:-0.399439 40:-0.513957 41:0.0260784 42:-0.577857 43:-0.398867 44:-0.384083 45:-0.430478 46:-0.507603 47:-0.711731 48:-0.378547 49:-0.752185 50:-0.472129 51:-0.745417 
1024 1:-0.778293 2:0.526745 3:-0.973708 4:-0.301863 5:-0.392918 6:-0.744465 7:0.678713 8:-0.901829 9:-0.513516 10:-0.283236 11:0.387005 12:-0.525153 13:-0.552141 14:-0.463209 15:-0.844826 16:-0.744691 17:-0.906733 18:0.39291 19:-0.941039 20:-0.793059 21:-0.912112 22:0.489893 23:-0.95215 24:-0.817305 25:-0.855758 26:0.0829171 27:-0.917588 28:-0.951922 29:-0.855151 30:0.0732337 31:-0.914908 32:-0.953747 33:0.935955 34:-0.783552 35:-0.449884 36:-0.568219 37:0.156695 38:-0.76182 39:-0.524261 40:-0.586207 41:0.0879368 42:-0.734304 43:-0.611308 44:-0.487889 45:-0.139418 46:-0.707814 47:-0.809389 48:-0.483737 49:-0.278934 50:-0.7041 51:-0.816869 
1024 1:-0.53599 2:-0.0682144 3:-0.991924 4:-0.503958 5:-0.377072 6:-0.721556 7:0.191391 8:-0.954687 9:-0.560543 10:-0.140105 11:0.187076 12:-0.844551 13:-0.55617 14:-0.353433 15:-0.930942 16:-0.902533 17:-0.971854 18:0.322314 19:-0.977548 20:-0.93039 21:-0.974732 22:0.41443 23:-0.982456 24:-0.939079 25:-0.941062 26:0.157013 27:-0.967571 28:-0.983913 29:-0.941131 30:0.201117 31:-0.969197 32:-0.983815 33:0.338873 34:-0.954112 35:-0.751982 36:-0.838904 37:0.188281 38:-0.916111 39:-0.790093 40:-0.845649 41:0.243944 42:-0.910255 43:-0.819052 44:-0.804844 45:0.18888 46:-0.893817 47:-0.918285 48:-0.802076 49:0.05687 50:-0.890676 51:-0.923754 
-1024 1:-0.924726 2:0.320611 3:-0.975202 4:-0.784567 5:-0.86395 6:-0.266216 7:0.240776 8:-0.982965 9:-0.786541 10:-0.721053 11:0.240763 12:-0.949169 13:-0.687343 14:-0.58028 15:-0.445689 16:-0.336806 17:-0.629139 18:0.345121 19:-0.814131 20:-0.547671 21:-0.630871 22:0.491545 23:-0.826111 24:-0.526733 25:-0.537805 26:0.0540948 27:-0.68641 28:-0.756862 29:-0.537568 30:0.00710984 31:-0.67879 32:-0.763509 33:0.905402 34:-0.380409 35:-0.116215 36:-0.189041 37:0.0430628 38:-0.59837 39:-0.322817 40:-0.184455 41:0.151764 42:-0.606357 43:-0.332934 44:-0.0878893 45:0.106817 46:-0.513233 47:-0.534945 48:-0.0892734 49:-0.0150133 50:-0.508255 51:-0.541471 
-1024 1:-0.546402 2:0.456909 3:-0.985038 4:-0.332338 5:-0.382486 6:-0.722214 7:0.764504 8:-0.918969 9:-0.18695 10:0.171586 11:0.624214 12:-0.41343 13:-0.0773899 14:0.197331 15:-0.868051 16:-0.810315 17:-0.927704 18:0.389293 19:-0.959884 20:-0.843445 21:-0.92914 22:0.48635 23:-0.969663 24:-0.866892 25:-0.879798 26:0.13597 27:-0.94435 28:-0.966543 29:-0.879163 30:0.191637 31:-0.946773 32:-0.965511 33:0.940729 34:-0.894185 35:-0.602292 36:-0.712877 37:0.378353 38:-0.893113 39:-0.603183 40:-0.718664 41:0.209192 42:-0.829809 43:-0.694737 44:-0.63737 45:0.0143095 46:-0.809419 47:-0.870985 48:-0.642907 49:-0.0762543 50:-0.808052 51:-0.869493 
935.94171465062504 1:-0.843858 2:0.528949 3:-0.984728 4:-0.15546 5:-0.257862 6:-0.808995 7:0.850438 8:-0.959036 9:-0.0821577 10:0.363595 11:0.661143 12:-0.785276 13:-0.0504985 14:0.249746 15:-0.870311 16:-0.858495 17:-0.929912 18:0.481292 19:-0.990515 20:-0.885737 21:-0.930239 22:0.528829 23:-0.987393 24:-0.900894 25:-0.879798 26:0.439369 27:-0.980794 28:-0.965994 29:-0.877614 30:0.457447 31:-0.979543 32:-0.968836 33:0.987604 34:-0.91032 35:-0.649079 36:-0.743562 37:0.382169 38:-0.923156 39:-0.67263 40:-0.748221 41:0.402905 42:-0.904697 43:-0.70855 44:-0.703806 45:0.488325 46:-0.886819 47:-0.835863 48:-0.699654 49:0.148233 50:-0.859765 51:-0.869083 
1024 1:-0.624719 2:-0.0668913 3:-0.945338 4:-0.859679 5:-0.915612 6:-0.53326 7:0.0260893 8:-0.93159 9:-0.786235 10:-0.691153 11:0.373094 12:-0.339447 13:-0.446114 14:-0.255471 15:-0.237694 16:-0.359427 17:-0.583885 18:0.179415 19:-0.774139 20:-0.598867 21:-0.570997 22:0.174505 23:-0.772392 24:-0.652555 25:-0.419155 26:0.107871 27:-0.734228 28:-0.785335 29:-0.421379 30:0.12068 31:-0.733197 32:-0.787001 33:0.941509 34:-0.550969 35:-0.394514 36:-0.40274 37:0.406096 38:-0.82568 39:-0.464379 40:-0.407772 41:0.206585 42:-0.769171 43:-0.585985 44:-0.273356 45:0.0240521 46:-0.72523 47:-0.775974 48:-0.27474 49:-0.176121 50:-0.712157 51:-0.789563 
-701.7728923927292 1:-0.714343 2:0.655753 3:-0.984293 4:-0.18155 5:-0.36186 6:-0.902986 7:0.744073 8:-0.867415 9:-0.502254 10:-0.22065 11:0.146051 12:-0.731792 13:-0.77584 14:-0.629821 15:-0.810914 16:-0.699307 17:-0.851545 18:0.73761 19:-0.990298 20:-0.739301 21:-0.854985 22:0.786988 23:-0.989474 24:-0.777973 25:-0.703761 26:0.645673 27:-0.978866 28:-0.947561 29:-0.70488 30:0.727902 31:-0.978835 32:-0.947426 33:0.903203 34:-0.573389 35:-0.185318 36:-0.308493 37:0.490669 38:-0.722567 39:-0.152923 40:-0.316913 41:0.44119 42:-0.695596 43:-0.265804 44:-0.123875 45:-0.135858 46:-0.593896 47:-0.688728 48:-0.115571 49:-0.197596 50:-0.603676 51:-0.689694 
-1024 1:-0.670622 2:0.507188 3:-0.987666 4:-0.226717 5:-0.300906 6:-0.753867 7:0.817752 8:-0.944093 9:-0.161602 10:0.263421 11:0.628027 12:-0.832678 13:-0.13778 14:0.15106 15:-0.869078 16:-0.814873 17:-0.9266 18:0.401231 19:-0.968405 20:-0.860173 21:-0.927492 22:0.44604 23:-0.963235 24:-0.87546 25:-0.889104 26:0.261334 27:-0.945334 28:-0.951409 29:-0.883811 30:0.193843 31:-0.938276 32:-0.958642 33:0.990144 34:-0.899633 35:-0.624993 36:-0.713973 37:0.333237 38:-0.904788 39:-0.671067 40:-0.718664 41:0.353152 42:-0.886809 43:-0.707169 44:-0.681661 45:0.472494 46:-0.863931 47:-0.812272 48:-0.678893 49:0.0843786 50:-0.825798 51:-0.849788 
1024 1:-0.655608 2:0.128645 3:-0.937647 4:-0.74175 5:-0.803827 6:-0.537163 7:0.180874 8:-0.922553 9:-0.702662 10:-0.532424 11:0.419016 12:-0.337553 13:-0.376861 14:-0.200612 15:-0.647724 16:-0.504808 17:-0.754415 18:0.255428 19:-0.829586 20:-0.656133 21:-0.749519 22:0.250744 23:-0.823876 24:-0.707674 25:-0.650252 26:0.110464 27:-0.797001 28:-0.842501 29:-0.650658 30:0.117958 31:-0.795747 32:-0.844617 33:0.9409 34:-0.673546 35:-0.431491 36:-0.488219 37:0.393514 38:-0.833379 39:-0.483144 40:-0.492063 41:0.204298 42:-0.776296 43:-0.600534 44:-0.382699 45:0.0142158 46:-0.732439 47:-0.788505 48:-0.382699 49:-0.18396 50:-0.719003 51:-0.801725 
1024 1:-0.812354 2:0.561464 3:-0.870881 4:-0.399859 5:-0.490318 6:-0.828883 7:0.666573 8:-0.549268 9:-0.594343 10:-0.383473 11:0.517673 12:0.316663 13:-0.591963 14:-0.43929 15:-0.709793 16:-0.483249 17:-0.727373 18:0.936506 19:-0.938458 20:-0.343698 21:-0.772041 22:-0.0689837 23:-0.75314 24:-0.808399 25:-0.653354 26:-0.820095 27:-0.687237 28:-0.917183 29:-0.653757 30:-0.713354 31:-0.706328 32:-0.905192 33:0.903163 34:-0.397381 35:-0.192035 36:-0.0849315 37:0.924666 38:-0.820799 39:-0.0190866 40:-0.103448 41:-0.511128 42:-0.507264 43:-0.631106 44:0.118339 45:-0.929553 46:-0.482662 47:-0.782504 48:0.107266 49:-0.731756 50:-0.521683 51:-0.744482 
-1024 1:-0.794718 2:0.245396 3:-0.969651 4:-0.826089 5:-0.89925 6:-0.326141 7:0.0759789 8:-0.923216 9:-0.860784 10:-0.82294 11:0.000713612 12:-0.877171 13:-0.856485 14:-0.818464 15:0.012229 16:-0.221745 17:-0.503311 18:0.499114 19:-0.787387 20:-0.347745 21:-0.488602 22:0.21979 23:-0.726808 24:-0.529567 25:-0.369523 26:0.0184284 27:-0.614664 28:-0.700099 29:-0.367157 30:0.091724 31:-0.624304 32:-0.697527 33:0.990661 34:0.0814039 35:0.0114674 36:0.0531507 37:0.343371 38:-0.589613 39:-0.0320563 40:0.0727969 41:-0.159728 42:-0.457541 43:-0.319582 44:0.19308 45:0.170519 46:-0.436411 47:-0.428874 48:0.2 49:-0.181918 50:-0.400405 51:-0.481362 
1024 1:-0.902546 2:0.670515 3:-0.99461 4:-0.0517888 5:-0.254238 6:-0.89518 7:0.835973 8:-0.922675 9:-0.288141 10:0.0389036 11:0.492681 12:-0.678482 13:-0.386851 14:-0.185105 15:-0.844209 16:-0.800562 17:-0.896799 18:0.614633 19:-0.992288 20:-0.81977 21:-0.896732 22:0.60244 23:-0.988294 24:-0.873166 25:-0.806902 26:0.474525 27:-0.980401 28:-0.964491 29:-0.807126 30:0.536664 31:-0.980133 32:-0.964232 33:0.880517 34:-0.751074 35:-0.427951 36:-0.525479 37:0.500776 38:-0.848527 39:-0.420687 40:-0.541325 41:0.305715 42:-0.796003 43:-0.565726 44:-0.361938 45:-0.0336073 46:-0.771586 47:-0.835216 48:-0.371626 49:-0.0732136 50:-0.774823 51:-0.827043 
-21.601400983397784 1:-0.886021 2:0.0513727 3:-0.937198 4:-0.89526 5:-0.958884 6:-0.52463 7:-0.116581 8:-0.810302 9:-0.911596 10:-0.851488 11:-0.224098 12:-0.499694 13:-0.871641 14:-0.599946 15:-0.254547 16:-0.214346 17:-0.529801 18:0.734686 19:-0.814068 20:-0.174935 21:-0.505081 22:-0.043763 23:-0.657439 24:-0.605532 25:-0.392012 26:-0.395541 27:-0.538234 28:-0.729048 29:-0.39117 30:-0.308257 31:-0.553178 32:-0.718826 33:0.997902 34:-0.468622 35:-0.0363215 36:-0.125479 37:0.648733 38:-0.662582 39:0.134526 40:-0.123153 41:-0.599919 42:-0.340913 43:-0.491137 44:-0.0117647 45:-0.566641 46:-0.311444 47:-0.560713 48:-0.00899654 49:-0.446123 50:-0.356644 51:-0.531998 
-1024 1:-0.89396 2:0.277809 3:-0.97111 4:-0.752379 5:-0.792721 6:-0.464931 7:0.307542 8:-0.913646 9:-0.720492 10:-0.609202 11:0.329322 12:-0.879044 13:-0.495466 14:-0.334162 15:-0.707738 16:-0.481178 17:-0.753863 18:0.246882 19:-0.830084 20:-0.664092 21:-0.756111 22:0.544017 23:-0.870857 24:-0.584011 25:-0.679721 26:-0.150467 27:-0.72431 28:-0.834402 29:-0.684741 30:0.27536 31:-0.767029 32:-0.791787 33:0.995269 34:-0.745207 35:-0.295205 36:-0.478356 37:0.0235056 38:-0.651863 39:-0.43936 40:-0.472359 41:0.390481 42:-0.719599 43:-0.347852 44:-0.39654 45:-0.0997447 46:-0.56422 47:-0.662902 48:-0.39654 49:0.0531642 50:-0.601253 51:-0.621985 
-769.31275012179469 1:-0.877638 2:0.419163 3:-0.94164 4:-0.384043 5:-0.415916 6:-0.471605 7:0.628294 8:-0.841146 9:-0.453296 10:-0.157367 11:0.476259 12:-0.664897 13:-0.25911 14:-0.0987819 15:-0.870722 16:-0.760365 17:-0.919978 18:0.476719 19:-0.957676 20:-0.765607 21:-0.923647 22:0.215033 23:-0.89517 24:-0.886119 25:-0.886002 26:0.319276 27:-0.921012 28:-0.918832 29:-0.879938 30:-0.18197 31:-0.870178 32:-0.957766 33:0.999934 34:-0.887899 35:-0.57617 36:-0.719452 37:0.213129 38:-0.841029 39:-0.624615 40:-0.719759 41:-0.208902 42:-0.700296 43:-0.781205 44:-0.683045 45:0.372772 46:-0.806314 47:-0.772914 48:-0.669204 49:-0.358561 50:-0.718055 51:-0.864815 
1024 1:-0.881066 2:0.33743 3:-0.922534 4:-0.713879 5:-0.745782 6:-0.296333 7:0.316515 8:-0.672101 9:-0.746616 10:-0.540124 11:0.120157 12:-0.699264 13:-0.729028 14:-0.561076 15:-0.663344 16:-0.407846 17:-0.712472 18:0.676084 19:-0.876077 20:-0.389093 21:-0.711068 22:-0.0240164 23:-0.73482 24:-0.740395 25:-0.620008 26:-0.259464 27:-0.673265 28:-0.813551 29:-0.621998 30:-0.334819 31:-0.665611 32:-0.819407 33:0.98572 34:-0.629125 35:-0.227338 36:-0.310685 37:0.567608 38:-0.761316 39:-0.170676 40:-0.301587 41:-0.51999 42:-0.502312 43:-0.652746 44:-0.184775 45:-0.340125 46:-0.522178 47:-0.68361 48:-0.184775 49:-0.508457 50:-0.513205 51:-0.696243 
1024 1:-0.922319 2:0.62697 3:-0.983556 4:-0.169473 5:-0.342748 6:-0.916701 7:0.701702 8:-0.859414 9:-0.447013 10:-0.114409 11:0.181424 12:-0.61782 13:-0.589777 14:-0.364636 15:-0.849759 16:-0.738823 17:-0.897351 18:0.689315 19:-0.986784 20:-0.71947 21:-0.908816 22:0.457685 23:-0.956062 24:-0.851712 25:-0.834044 26:0.330499 27:-0.952733 28:-0.949503 29:-0.834237 30:0.345097 31:-0.950156 32:-0.950897 33:0.993359 34:-0.753798 35:-0.309983 36:-0.521096 37:0.446185 38:-0.76816 39:-0.27195 40:-0.508484 41:-0.165665 42:-0.579373 43:-0.550624 44:-0.431142 45:-0.0927656 46:-0.62694 47:-0.721026 48:-0.42699 49:-0.33015 50:-0.602254 51:-0.739512 
-1024 1:-0.776289 2:0.35142 3:-0.946173 4:-0.742327 5:-0.816566 6:-0.210913 7:0.110416 8:-0.919103 9:-0.83106 10:-0.764337 11:-0.0892695 12:-0.958762 13:-0.937727 14:-0.872297 15:-0.207892 16:-0.238941 17:-0.552428 18:0.39306 19:-0.769941 20:-0.40373 21:-0.549025 22:0.489415 23:-0.775839 24:-0.411503 25:-0.483521 26:0.214955 27:-0.59841 28:-0.641101 29:-0.474051 30:0.130488 31:-0.595429 32:-0.665851 33:1 34:0.287585 35:0.116183 36:0.0915068 37:0.0108973 38:-0.396422 39:0.00584096 40:0.0881226 41:-0.0153053 42:-0.368605 43:-0.0605461 44:0.170934 45:0.469449 46:-0.33165 47:-0.198965 48:0.19308 49:-0.256746 50:-0.234524 51:-0.344657 
1024 1:-0.505091 2:0.354655 3:-0.961867 4:-0.566356 5:-0.581494 6:-0.384983 7:0.334388 8:-0.901222 9:-0.629348 10:-0.338855 11:0.147421 12:-0.77137 13:-0.4593 14:-0.195768 15:-0.750899 16:-0.507861 17:-0.797461 18:0.284139 19:-0.839351 20:-0.653233 21:-0.79621 22:0.27696 23:-0.819559 24:-0.683926 25:-0.731679 26:0.138989 27:-0.770514 28:-0.816153 29:-0.729667 30:-0.0535702 31:-0.745982 32:-0.837236 33:0.998997 34:-0.726558 35:-0.307008 36:-0.450959 37:-0.0405359 38:-0.666658 39:-0.51681 40:-0.449371 41:-0.0749627 42:-0.619192 43:-0.535798 44:-0.385467 45:0.135858 46:-0.620574 47:-0.643134 48:-0.381315 49:-0.135072 50:-0.595987 51:-0.67496 
1024 1:-0.843641 2:0.374196 3:-0.974633 4:-0.701947 5:-0.768613 6:-0.255428 7:0.290397 8:-0.968372 9:-0.76113 10:-0.664421 11:0.228962 12:-0.923767 13:-0.689499 14:-0.588515 15:-0.598602 16:-0.382481 17:-0.695364 18:0.316504 19:-0.815219 20:-0.573168 21:-0.696787 22:0.4588 23:-0.827229 24:-0.552842 25:-0.614579 26:0.0164729 27:-0.69987 28:-0.778262 29:-0.614253 30:-0.0355023 31:-0.692205 32:-0.785138 33:0.905113 34:-0.439497 35:-0.123497 36:-0.214247 37:0.0392198 38:-0.598269 39:-0.326312 40:-0.210728 41:0.131521 42:-0.602163 43:-0.341774 44:-0.118339 45:0.0920162 46:-0.513812 47:-0.541064 48:-0.119723 49:-0.0368681 50:-0.507517 51:-0.548429 
-81.446197893570471 1:-0.866539 2:0.51947 3:-0.960179 4:-0.438142 5:-0.547564 6:-0.447465 7:0.454258 8:-0.897783 9:-0.718839 10:-0.591576 11:0.00597181 12:-0.905638 13:-0.910414 14:-0.872027 15:-0.740212 16:-0.493568 17:-0.801325 18:0.416599 19:-0.863855 20:-0.590435 21:-0.804449 22:0.507529 23:-0.871353 24:-0.609175 25:-0.723924 26:0.0859353 27:-0.802904 28:-0.854007 29:-0.718823 30:-0.0262571 31:-0.795511 32:-0.870228 33:0.99993 34:-0.346255 35:-0.00798081 36:-0.136438 37:0.055171 38:-0.48011 39:-0.101044 40:-0.137384 41:0.0707346 42:-0.471942 43:-0.1658 44:-0.0477509 45:0.436708 46:-0.455827 47:-0.35363 48:-0.0214533 49:-0.346826 50:-0.351378 51:-0.495337 
1024 1:-0.908321 2:0.605648 3:-0.982958 4:-0.122888 5:-0.235096 6:-0.815029 7:0.88284 8:-0.840236 9:-0.146723 10:0.137095 11:0.640146 12:-0.66289 13:-0.180044 14:-0.0311965 15:-0.849759 16:-0.852176 17:-0.921634 18:0.449077 19:-0.986628 20:-0.892685 21:-0.922549 22:0.532113 23:-0.985747 24:-0.895024 25:-0.860411 26:0.289987 27:-0.973946 28:-0.974825 29:-0.859024 30:0.336227 31:-0.97376 32:-0.974462 33:0.985212 34:-0.845574 35:-0.601973 36:-0.66137 37:0.373957 38:-0.907455 39:-0.656349 40:-0.660646 41:0.485238 42:-0.905758 43:-0.668769 44:-0.546021 45:0.160027 46:-0.866088 47:-0.888987 48:-0.547405 49:0.113455 50:-0.870929 51:-0.885105 
-1024 1:-0.662756 2:0.456084 3:-0.975995 4:-0.454343 5:-0.521224 6:-0.489994 7:0.480771 8:-0.880534 9:-0.602712 10:-0.325364 11:0.204868 12:-0.748568 13:-0.62804 14:-0.424891 15:-0.801048 16:-0.604452 17:-0.860375 18:0.306497 19:-0.882669 20:-0.728508 21:-0.856083 22:0.466265 23:-0.890264 24:-0.684331 25:-0.802249 26:-0.0350926 27:-0.831123 28:-0.902085 29:-0.801704 30:-0.0160265 31:-0.831979 32:-0.901502 33:0.997087 34:-0.704348 35:-0.25988 36:-0.40274 37:-0.0662525 38:-0.62952 39:-0.47459 40:-0.422003 41:0.200707 42:-0.648955 43:-0.371978 44:-0.316263 45:-0.152814 46:-0.56985 47:-0.679492 48:-0.321799 49:-0.131319 50:-0.588773 51:-0.66426 
1024 1:-0.96855 2:0.438478 3:-0.980878 4:-0.302094 5:-0.351163 6:-0.742863 7:0.725485 8:-0.889071 9:-0.326809 10:-0.0132855 11:0.59063 12:-0.797392 13:-0.128604 14:0.00462279 15:-0.876683 16:-0.840096 17:-0.937638 18:0.48296 19:-0.984918 20:-0.854305 21:-0.939577 22:0.386781 23:-0.964788 24:-0.914185 25:-0.893757 26:0.305205 27:-0.966351 28:-0.965517 29:-0.894655 30:0.17432 31:-0.955192 32:-0.974279 33:0.999969 34:-0.911996 35:-0.652523 36:-0.77863 37:0.248927 38:-0.887326 39:-0.685968 40:-0.774494 41:-0.0324206 42:-0.78716 43:-0.795294 44:-0.738408 45:0.303778 46:-0.851039 47:-0.843452 48:-0.72872 49:-0.177974 50:-0.801838 51:-0.894401 
-1024 1:-0.916385 2:0.260996 3:-0.952199 4:-0.79052 5:-0.842179 6:-0.25827 7:0.249676 8:-0.742252 9:-0.8037 10:-0.722482 11:0.202925 12:-0.637522 13:-0.639883 14:-0.415062 15:-0.425753 16:-0.266898 17:-0.603201 18:0.366186 19:-0.751687 20:-0.384844 21:-0.59242 22:0.28538 23:-0.728175 24:-0.482948 25:-0.471888 26:-0.434991 27:-0.562989 28:-0.759354 29:-0.484895 30:-0.15583 31:-0.593304 32:-0.723905 33:0.910141 34:-0.218858 35:-0.0543729 36:-0.0586301 37:0.170751 38:-0.532245 39:-0.084027 40:-0.0432403 41:-0.0321021 42:-0.487354 43:-0.273079 44:0.103114 45:-0.278531 46:-0.416048 47:-0.557772 48:0.0768166 49:-0.0982991 50:-0.447958 51:-0.504049 
-1024 1:-0.899556 2:0.525283 3:-0.984262 4:-0.116332 5:-0.184636 6:-0.342461 7:0.820808 8:-0.909445 9:-0.162742 10:0.235722 11:0.709322 12:-0.849523 13:-0.0178034 14:0.114179 15:-0.866201 16:-0.85538 17:-0.943157 18:0.387663 19:-0.979569 20:-0.900037 21:-0.942324 22:0.465608 23:-0.976246 24:-0.896981 25:-0.917798 26:0.31426 27:-0.963438 28:-0.961047 29:-0.916344 30:0.293709 31:-0.959598 32:-0.965621 33:0.980363 34:-0.924987 35:-0.710622 36:-0.81589 37:0.0813877 38:-0.882294 39:-0.805179 40:-0.814997 41:0.199896 42:-0.873569 43:-0.780929 44:-0.793772 45:0.235017 46:-0.86372 47:-0.876868 48:-0.788235 49:-0.0568225 50:-0.835593 51:-0.900365 
1024 1:-0.505526 2:0.483871 3:-0.974785 4:-0.222623 5:-0.316724 6:-0.869676 7:0.664446 8:-0.83772 9:-0.328985 10:0.0236481 11:0.305485 12:-0.325302 13:-0.340215 14:0.0128698 15:-0.861268 16:-0.783632 17:-0.916667 18:0.580937 19:-0.976832 20:-0.747934 21:-0.926394 22:0.370239 23:-0.955224 24:-0.902513 25:-0.868166 26:0.096393 27:-0.939982 28:-0.967349 29:-0.865221 30:0.171504 31:-0.943587 32:-0.964707 33:0.990762 34:-0.862546 35:-0.486158 36:-0.632877 37:0.64202 38:-0.88632 39:-0.359518 40:-0.659551 41:-0.225149 42:-0.673716 43:-0.743727 44:-0.559862 45:-0.371273 46:-0.687082 47:-0.854218 48:-0.558478 49:-0.30668 50:-0.715369 51:-0.838503 
-1024 1:-0.933853 2:0.344351 3:-0.947432 4:-0.680515 5:-0.656373 6:-0.357045 7:0.158668 8:-0.854222 9:-0.829138 10:-0.733906 11:-0.0290578 12:-0.397123 13:-0.912356 14:-0.850062 15:-0.629843 16:-0.222081 17:-0.667219 18:0.269858 19:-0.685263 20:-0.334458 21:-0.677012 22:0.429976 23:-0.720194 24:-0.332231 25:-0.58356 26:-0.116628 27:-0.524106 28:-0.663491 29:-0.577847 30:-0.411174 31:-0.486025 32:-0.700376 33:0.911114 34:-0.529387 35:0.0660589 36:-0.194521 37:-0.135453 38:-0.297033 39:0.0134756 40:-0.228243 41:0.0341872 42:-0.379924 43:-0.046457 44:-0.136332 45:-0.103867 46:-0.24462 47:-0.34157 48:-0.130796 49:-0.359036 50:-0.210669 51:-0.373425 
1024 1:-0.873887 2:0.289854 3:-0.901583 4:-0.736639 5:-0.801285 6:-0.374414 7:0.27849 8:-0.740309 9:-0.837638 10:-0.817404 11:0.102894 12:-0.860083 13:-0.833113 14:-0.79982 15:-0.619977 16:-0.359037 17:-0.672737 18:0.484778 19:-0.814037 20:-0.414387 21:-0.672617 22:0.133956 23:-0.732273 24:-0.618553 25:-0.554866 26:-0.342105 27:-0.648038 28:-0.806992 29:-0.556933 30:-0.339982 31:-0.649167 32:-0.804172 33:0.937322 34:-0.536511 35:-0.154759 36:-0.201096 37:0.260641 38:-0.647485 39:-0.219703 40:-0.20416 41:-0.156977 42:-0.523131 43:-0.431558 44:-0.0698962 45:-0.249959 46:-0.495501 47:-0.628545 48:-0.0643599 49:-0.372672 50:-0.492246 51:-0.634206 
1024 1:-0.854072 2:0.630944 3:-0.86426 4:-0.101879 5:-0.249256 6:-0.855711 7:0.930013 8:0.0294515 9:-0.33079 10:0.0631243 11:0.541886 12:-0.24548 13:-0.348764 14:-0.13027 15:-0.848936 16:-0.741868 17:-0.911148 18:0.364031 19:-0.929253 20:-0.7851 21:-0.912661 22:0.599693 23:-0.956807 24:-0.742554 25:-0.854207 26:-0.00342211 27:-0.899052 28:-0.949943 29:-0.855151 30:-0.0775512 31:-0.890202 32:-0.954624 33:0.995659 34:-0.852698 35:-0.466965 36:-0.648219 37:0.0985497 38:-0.72141 39:-0.498873 40:-0.661741 41:0.147594 42:-0.702974 43:-0.516368 44:-0.533564 45:-0.525282 46:-0.622205 47:-0.840334 48:-0.533564 49:-0.77062 50:-0.597725 51:-0.856512 
195.08161682551531 1:-0.507695 2:0.56298 3:-0.983472 4:-0.274692 5:-0.408966 6:-0.4023 7:0.730632 8:-0.891218 9:-0.441759 10:-0.190736 11:0.437487 12:-0.535019 13:-0.479162 14:-0.328002 15:-0.846676 16:-0.769595 17:-0.913907 18:0.378161 19:-0.949684 20:-0.82692 21:-0.918154 22:0.412399 23:-0.942182 24:-0.845977 25:-0.87437 26:0.189576 27:-0.923492 28:-0.942431 29:-0.870643 30:0.128798 31:-0.916403 32:-0.948961 33:0.997122 34:-0.816029 35:-0.491755 36:-0.609863 37:0.182306 38:-0.812093 39:-0.599687 40:-0.620142 41:0.203805 42:-0.788019 43:-0.62245 44:-0.559862 45:0.205836 46:-0.771165 47:-0.782445 48:-0.557093 49:0.0547796 50:-0.761921 51:-0.789621 
1024 1:-0.820908 2:0.564059 3:-0.86954 4:-0.397637 5:-0.489704 6:-0.813607 7:0.66742 8:-0.549239 9:-0.591239 10:-0.376864 11:0.51812 12:0.311851 13:-0.595081 14:-0.445219 15:-0.711643 16:-0.486621 17:-0.730132 18:0.932646 19:-0.938831 20:-0.347948 21:-0.774238 22:-0.0654803 23:-0.755717 24:-0.810356 25:-0.657231 26:-0.814356 27:-0.690307 28:-0.918355 29:-0.65763 30:-0.710397 31:-0.708846 32:-0.90658 33:0.903159 34:-0.396124 35:-0.192174 36:-0.0816438 37:0.930089 38:-0.821956 39:-0.0179828 40:-0.102354 41:-0.509767 42:-0.507668 43:-0.630646 44:0.121107 45:-0.935455 46:-0.482031 47:-0.783269 48:0.110035 49:-0.7376 50:-0.520998 51:-0.745242 
1024 1:-0.962811 2:0.54824 3:-0.95679 4:-0.404701 5:-0.51331 6:-0.795959 7:0.526079 8:-0.882923 9:-0.686807 10:-0.52647 11:0.0985232 12:-0.884007 13:-0.875455 14:-0.873374 15:-0.737129 16:-0.52542 17:-0.805188 18:0.338093 19:-0.859222 20:-0.650467 21:-0.802801 22:0.605068 23:-0.889022 24:-0.570585 25:-0.709965 26:-0.184815 27:-0.792869 28:-0.892338 29:-0.707978 30:-0.20168 31:-0.792797 32:-0.893975 33:0.963157 34:-0.427763 35:-0.106384 36:-0.198904 37:-0.0855203 38:-0.502403 39:-0.273513 40:-0.228243 41:0.356569 42:-0.598019 43:-0.145633 44:-0.0934256 45:-0.158997 46:-0.479716 47:-0.587246 48:-0.0892734 49:-0.36298 50:-0.464283 51:-0.60725 
1024 1:-0.783786 2:0.572093 3:-0.983331 4:-0.151037 5:-0.301388 6:-0.801524 7:0.741551 8:-0.919217 9:-0.300638 10:0.0518404 11:0.425819 12:-0.732993 13:-0.272619 14:-0.0122824 15:-0.850581 16:-0.829847 17:-0.924393 18:0.485696 19:-0.986504 20:-0.866581 21:-0.926394 22:0.505539 23:-0.978823 24:-0.88477 25:-0.869717 26:0.359407 27:-0.972687 28:-0.966067 29:-0.868319 30:0.350822 31:-0.969787 32:-0.969164 33:0.999606 34:-0.880147 35:-0.577246 36:-0.719452 37:0.121581 38:-0.829404 39:-0.677781 40:-0.720854 41:0.0852724 42:-0.781096 43:-0.699434 44:-0.673356 45:0.180964 46:-0.803946 47:-0.826274 48:-0.670588 49:-0.00565374 50:-0.794044 51:-0.841602 
-106.95757417506735 1:-0.66704 2:-0.0358518 3:-0.968247 4:-0.873328 5:-0.931021 6:-0.438686 7:0.0831794 8:-0.899582 9:-0.817924 10:-0.760517 11:0.213989 12:-0.844139 13:-0.601865 14:-0.452025 15:0.272839 16:-0.329186 17:-0.485099 18:0.142383 19:-0.77274 20:-0.620789 21:-0.486405 22:0.306341 23:-0.795246 24:-0.601484 25:-0.312912 26:-0.0948626 27:-0.70172 28:-0.793946 29:-0.312161 30:0.309149 31:-0.742127 32:-0.761974 33:0.946069 34:-0.362389 35:-0.324793 36:-0.30411 37:0.208102 38:-0.744257 39:-0.455733 40:-0.251232 41:0.29833 42:-0.761894 43:-0.512316 44:-0.105882 45:-0.177264 46:-0.668456 47:-0.766737 48:-0.123875 49:0.0792949 50:-0.707575 51:-0.71969 
-1024 1:-0.883159 2:0.496117 3:-0.983644 4:-0.196499 5:-0.249121 6:-0.365687 7:0.764345 8:-0.923624 9:-0.22584 10:0.158486 11:0.676056 12:-0.839857 13:-0.047979 14:0.109845 15:-0.860652 16:-0.813094 17:-0.928256 18:0.360489 19:-0.964331 20:-0.876969 21:-0.925295 22:0.452131 23:-0.962459 24:-0.869725 25:-0.899186 26:0.297596 27:-0.942776 28:-0.943494 29:-0.896979 30:0.222986 31:-0.934853 32:-0.952687 33:0.980862 34:-0.913253 35:-0.670692 36:-0.783014 37:0.0640415 38:-0.864429 39:-0.78531 40:-0.784346 41:0.199201 42:-0.858258 43:-0.75358 44:-0.75917 45:0.277126 46:-0.847409 47:-0.847276 48:-0.750865 49:-0.0989643 50:-0.809421 51:-0.884637 
1024 1:-0.528715 2:0.321518 3:-0.979459 4:-0.654724 5:-0.70545 6:-0.325199 7:0.409198 8:-0.902966 9:-0.662636 10:-0.477612 11:0.284606 12:-0.633989 13:-0.618011 14:-0.481896 15:-0.681636 16:-0.487382 17:-0.758278 18:0.238748 19:-0.829897 20:-0.6705 21:-0.761055 22:0.231634 23:-0.812945 24:-0.701872 25:-0.689802 26:0.295768 27:-0.784171 28:-0.794643 29:-0.688613 30:0.140531 31:-0.763961 32:-0.814658 33:0.995554 34:-0.647355 35:-0.329143 36:-0.404932 37:0.181306 38:-0.75105 39:-0.487835 40:-0.413246 41:0.209163 42:-0.730817 43:-0.514342 44:-0.338408 45:0.256236 46:-0.680979 47:-0.668667 48:-0.341176 49:0.156119 50:-0.67877 51:-0.670458 
1024 1:-0.86003 2:0.183883 3:-0.927496 4:-0.814845 5:-0.896848 6:-0.338672 7:0.0599858 8:-0.920719 9:-0.864961 10:-0.829997 11:0.193968 12:-0.8647 13:-0.569768 14:-0.379141 15:-0.61525 16:-0.372268 17:-0.710265 18:0.447334 19:-0.81892 20:-0.45931 21:-0.704477 22:0.160312 23:-0.754817 24:-0.642368 25:-0.623885 26:-0.170702 27:-0.658467 28:-0.784858 29:-0.626646 30:0.222892 31:-0.701961 32:-0.742903 33:0.971155 34:-0.595809 35:-0.232584 36:-0.366575 37:0.476902 38:-0.74008 39:-0.200294 40:-0.367269 41:-0.115651 42:-0.596705 43:-0.523643 44:-0.273356 45:-0.244619 46:-0.525704 47:-0.664255 48:-0.287197 49:0.0132554 50:-0.575397 51:-0.605379 
-1024 1:-0.597373 2:0.557448 3:-0.974172 4:-0.271884 5:-0.382814 6:-0.780478 7:0.627891 8:-0.881877 9:-0.574217 10:-0.293708 11:0.183305 12:-0.847815 13:-0.676833 14:-0.470892 15:-0.828795 16:-0.680855 17:-0.892936 18:0.387588 19:-0.929316 20:-0.769114 21:-0.883548 22:0.603973 23:-0.95038 24:-0.732164 25:-0.82784 26:0.189321 27:-0.911331 28:-0.930998 29:-0.827266 30:0.238661 31:-0.913138 32:-0.930474 33:0.910014 34:-0.718387 35:-0.255135 36:-0.457534 37:0.0656734 38:-0.64985 39:-0.397967 40:-0.441708 41:0.250286 42:-0.662801 43:-0.356232 44:-0.357785 45:-0.0162299 46:-0.594107 47:-0.663372 48:-0.357785 49:-0.145762 50:-0.587667 51:-0.669113 
1024 1:-0.744083 2:0.297012 3:-0.968458 4:-0.589916 5:-0.636913 6:-0.498403 7:0.486694 8:-0.961111 9:-0.486753 10:-0.227512 11:0.506012 12:-0.858562 13:-0.143476 14:0.123143 15:-0.613812 16:-0.617789 17:-0.740066 18:0.302299 19:-0.914949 20:-0.806077 21:-0.737984 22:0.369801 23:-0.91408 24:-0.813324 25:-0.650252 26:0.392012 27:-0.896493 28:-0.886511 29:-0.64756 30:0.235516 31:-0.882413 32:-0.90194 33:0.994095 34:-0.69869 35:-0.532443 36:-0.526575 37:0.391777 38:-0.895982 39:-0.634089 40:-0.530378 41:0.436614 42:-0.883575 43:-0.663428 44:-0.472664 45:0.557882 46:-0.849355 47:-0.778268 48:-0.474048 49:0.155644 50:-0.814371 51:-0.816401 
-238.63325163508176 1:-0.842382 2:0.631986 3:-0.86738 4:-0.0918788 5:-0.243833 6:-0.847212 7:0.929447 8:0.00222282 9:-0.324444 10:0.0654201 11:0.545699 12:-0.254761 13:-0.324736 14:-0.0889333 15:-0.848731 16:-0.744957 17:-0.9117 18:0.36152 19:-0.92944 20:-0.787596 21:-0.91376 22:0.597603 23:-0.957118 24:-0.744847 25:-0.855758 26:-0.00860841 27:-0.89913 28:-0.950823 29:-0.8567 30:-0.083042 31:-0.890202 32:-0.955391 33:0.995703 34:-0.852488 35:-0.471433 36:-0.648219 37:0.115001 38:-0.729361 39:-0.498137 40:-0.66393 41:0.162132 42:-0.710351 43:-0.517105 44:-0.530796 45:-0.558631 46:-0.622257 47:-0.847688 48:-0.53218 49:-0.784588 50:-0.601359 51:-0.861599 
1024 1:-0.864649 2:0.68287 3:-0.991354 4:-0.110708 5:-0.31175 6:-0.789636 7:0.855166 8:-0.900035 9:-0.182647 10:0.143273 11:0.44629 12:-0.330006 13:-0.462977 14:-0.278982 15:-0.857774 16:-0.820156 17:-0.896247 18:0.453312 19:-0.9898 20:-0.910627 21:-0.916506 22:0.770227 23:-0.998075 24:-0.815416 25:-0.810004 26:0.540162 27:-0.987563 28:-0.967679 29:-0.808675 30:0.599878 31:-0.987333 32:-0.968361 33:0.944799 34:-0.764484 35:-0.436801 36:-0.548493 37:0.0669632 38:-0.771784 39:-0.615049 40:-0.52381 41:0.996177 42:-0.923394 43:-0.363783 44:-0.395156 45:0.181901 46:-0.799421 47:-0.814508 48:-0.393772 49:-0.00446598 50:-0.789463 51:-0.8264 
1024 1:-0.619753 2:0.500801 3:-0.984935 4:-0.354526 5:-0.446037 6:-0.895723 7:0.669669 8:-0.833891 9:-0.436749 10:-0.0936727 11:0.418125 12:-0.474964 13:-0.490319 14:-0.233495 15:-0.821807 16:-0.679758 17:-0.878035 18:0.365661 19:-0.922661 20:-0.772689 21:-0.870365 22:0.594239 23:-0.944356 24:-0.725755 25:-0.806126 26:0.0148575 27:-0.887441 28:-0.936165 29:-0.806352 30:0.128939 31:-0.895749 32:-0.929999 33:0.989115 34:-0.792771 35:-0.367272 36:-0.525479 37:0.10613 38:-0.712 39:-0.474957 40:-0.52162 41:0.36989 42:-0.752091 43:-0.428335 44:-0.42699 45:-0.199372 46:-0.633149 47:-0.756148 48:-0.431142 49:-0.109369 50:-0.654493 51:-0.725362 
-1024 1:-0.763281 2:0.513377 3:-0.975721 4:-0.327013 5:-0.402787 6:-0.593157 7:0.701124 8:-0.919984 9:-0.418085 10:-0.121589 11:0.46904 12:-0.647141 13:-0.319432 14:-0.120778 15:-0.83496 16:-0.759232 17:-0.903422 18:0.378405 19:-0.945797 20:-0.818354 21:-0.903873 22:0.481811 23:-0.955286 24:-0.834104 25:-0.855758 26:0.0106064 27:-0.911645 28:-0.956906 29:-0.8567 30:0.260389 31:-0.93088 32:-0.943553 33:0.953809 34:-0.819172 35:-0.50713 36:-0.628493 37:0.18607 38:-0.799864 39:-0.57108 40:-0.596059 41:0.190165 42:-0.796559 43:-0.647221 44:-0.514187 45:-0.155484 46:-0.743383 47:-0.845041 48:-0.528028 49:0.00850437 50:-0.774402 51:-0.812717 
1024 1:-0.970132 2:0.377059 3:-0.946052 4:-0.558707 5:-0.52309 6:-0.434324 7:0.25793 8:-0.856476 9:-0.702007 10:-0.396548 11:0.011602 12:-0.285894 13:-0.838573 14:-0.621398 15:-0.695612 16:-0.27412 17:-0.714128 18:0.325125 19:-0.714526 20:-0.338437 21:-0.724801 22:0.430434 23:-0.733733 24:-0.360364 25:-0.63164 26:-0.191532 27:-0.551537 28:-0.707245 29:-0.626646 30:-0.433653 31:-0.522099 32:-0.736144 33:0.911434 34:-0.662651 35:0.0320245 36:-0.277808 37:-0.0864942 38:-0.328335 39:0.00906039 40:-0.298303 41:-0.0289744 42:-0.370019 43:-0.0936968 44:-0.208304 45:-0.226492 46:-0.234517 47:-0.384281 48:-0.201384 49:-0.490735 50:-0.196714 51:-0.415349 
-1024 1:-0.858935 2:0.0307762 3:-0.970767 4:-0.915619 5:-1 6:-0.15269 7:-0.307087 8:-0.96775 9:-0.969172 10:-1 11:-0.359398 12:-0.965126 13:-0.996549 14:-0.903581 15:0.615045 16:0.0651592 17:-0.396247 18:0.292759 19:-0.561277 20:-0.0405045 21:-0.381489 22:0.0779413 23:-0.49889 24:-0.21862 25:-0.266382 26:-0.0861904 27:-0.304774 28:-0.460589 29:-0.267235 30:-0.0748762 31:-0.30455 32:-0.459939 33:0.993224 34:0.549712 35:0.283305 36:0.207671 37:-0.0136348 38:-0.248169 39:0.240951 40:0.232622 41:-0.384139 42:-0.134238 43:-0.0158847 44:0.325952 45:-0.128738 46:-0.080242 47:-0.171844 48:0.327336 49:-0.214462 50:-0.0833882 51:-0.175384 
-1024 1:-0.735293 2:-0.308756 3:-0.978577 4:-0.802114 5:-0.710838 6:-0.505366 7:-0.283814 8:-0.953672 9:-0.850309 10:-0.549712 11:-0.287436 12:-0.768557 13:-0.825584 14:-0.546963 15:-0.925599 16:-0.731849 17:-0.92053 18:0.14184 19:-0.859471 20:-0.827729 21:-0.925295 22:0.25363 23:-0.879396 24:-0.834576 25:-0.879798 26:-0.267583 27:-0.815144 28:-0.939683 29:-0.878389 30:-0.340498 31:-0.808179 32:-0.943882 33:0.134275 34:-0.948455 35:-0.569729 36:-0.746849 37:-0.0793872 38:-0.736054 39:-0.687532 40:-0.751505 41:0.0448155 42:-0.763865 43:-0.705235 44:-0.70519 45:-0.0515937 46:-0.714601 47:-0.811154 48:-0.702422 49:-0.229571 50:-0.7041 51:-0.825756 
1024 1:-0.853329 2:0.227764 3:-0.942938 4:-0.78402 5:-0.852149 6:-0.341854 7:0.193683 8:-0.922015 9:-0.811371 10:-0.748246 11:0.25805 12:-0.82911 13:-0.449761 14:-0.194515 15:-0.729319 16:-0.428254 17:-0.763797 18:0.421827 19:-0.827782 20:-0.499848 21:-0.761055 22:0.143292 23:-0.764194 24:-0.679946 25:-0.691353 26:-0.222862 27:-0.669566 28:-0.809044 29:-0.696359 30:0.172959 31:-0.71573 32:-0.76676 33:0.970087 34:-0.710005 35:-0.266405 36:-0.442192 37:0.431102 38:-0.739627 39:-0.233776 40:-0.441708 41:-0.123847 42:-0.59999 43:-0.541507 44:-0.361938 45:-0.234736 46:-0.534649 47:-0.675079 48:-0.374394 49:0.020477 50:-0.584929 51:-0.615261 
1024 1:-0.636272 2:0.669951 3:-0.992095 4:-0.0988105 5:-0.278635 6:-0.823212 7:0.838852 8:-0.947641 9:-0.263838 10:0.0350926 11:0.413707 12:-0.895313 13:-0.520102 14:-0.403623 15:-0.853047 16:-0.830591 17:-0.909492 18:0.550164 19:-0.993532 20:-0.866311 21:-0.910464 22:0.639923 23:-0.994442 24:-0.877956 25:-0.820085 26:0.590877 27:-0.989216 28:-0.964711 29:-0.817196 30:0.630805 31:-0.98867 32:-0.967228 33:0.997275 34:-0.790676 35:-0.452539 36:-0.576986 37:0.405807 38:-0.847118 39:-0.49225 40:-0.582923 41:0.461925 42:-0.839662 43:-0.538469 44:-0.46436 45:0.501253 46:-0.836306 47:-0.776856 48:-0.457439 49:0.0905074 50:-0.802944 51:-0.819617 
1024 1:-0.549197 2:0.582864 3:-0.988731 4:-0.205884 5:-0.354183 6:-0.344488 7:0.782532 8:-0.912824 9:-0.382906 10:-0.106374 11:0.506445 12:-0.436171 13:-0.428027 14:-0.306645 15:-0.85428 16:-0.818422 17:-0.927152 18:0.408222 19:-0.971453 20:-0.864558 21:-0.931338 22:0.467419 23:-0.968141 24:-0.874448 25:-0.886002 26:0.260442 27:-0.955724 28:-0.961047 29:-0.883811 30:0.252458 31:-0.952595 32:-0.963757 33:0.997481 34:-0.838449 35:-0.543383 36:-0.656986 37:0.210997 38:-0.844249 39:-0.638964 40:-0.66393 41:0.265142 42:-0.829607 43:-0.655785 44:-0.60692 45:0.271177 46:-0.81989 47:-0.817096 48:-0.597232 49:0.0649943 50:-0.80484 51:-0.83096 
-1024 1:-0.910211 2:0.152636 3:-0.955133 4:-0.852008 5:-0.926472 6:0.078124 7:0.0676294 8:-0.902509 9:-0.844565 10:-0.78208 11:0.089663 12:-0.75928 13:-0.787947 14:-0.715733 15:-0.430274 16:-0.293635 17:-0.605408 18:0.276811 19:-0.767205 20:-0.503356 21:-0.604504 22:0.349298 23:-0.756556 24:-0.48821 25:-0.494378 26:-0.138309 27:-0.622102 28:-0.74334 29:-0.508908 30:0.0279935 31:-0.630402 32:-0.718205 33:0.921798 34:-0.408277 35:-0.0509396 36:-0.152877 37:-0.169251 38:-0.463755 39:-0.283723 40:-0.157088 41:0.0620756 42:-0.4774 43:-0.183019 44:-0.0519031 45:-0.227617 46:-0.373165 47:-0.507413 48:-0.0851211 49:0.107896 50:-0.422681 51:-0.409677 
-27.058765906145752 1:-0.953341 2:0.292222 3:-0.959411 4:-0.830238 5:-0.91584 6:-0.354936 7:-0.000621939 8:-0.87612 9:-0.908957 10:-0.925972 11:-0.165381 12:-0.455036 13:-0.974099 14:-0.89972 15:0.112733 16:-0.0797 17:-0.44702 18:0.36508 19:-0.691824 20:-0.252706 21:-0.452348 22:0.602659 23:-0.716779 24:-0.163434 25:-0.319891 26:-0.070674 27:-0.479515 28:-0.605555 29:-0.319132 30:-0.344581 31:-0.445819 32:-0.640605 33:0.925008 34:0.931692 35:0.25151 36:0.259178 37:-0.072096 38:-0.292454 39:0.104263 40:0.215107 41:0.18698 42:-0.295637 43:0.256964 44:0.368858 45:-0.00840769 46:-0.158169 47:-0.20173 48:0.392388 49:-0.482136 50:-0.0980805 51:-0.29063 
696.74903722888507 1:-0.314989 2:0.652731 3:-0.995024 4:0.434261 5:0.201781 6:-0.708099 7:0.958539 8:-0.957298 9:0.104238 10:0.443221 11:0.873732 12:-0.359327 13:0.252502 14:0.42484 15:-0.868051 16:-0.919561 17:-0.953091 18:0.49471 19:-0.998974 20:-0.917507 21:-0.942324 22:0.415763 23:-0.992175 24:-0.968966 25:-0.897635 26:0.349544 27:-0.990358 28:-0.986222 29:-0.896979 30:0.397611 31:-0.990244 32:-0.986263 33:0.902721 34:-0.901519 35:-0.758219 36:-0.750137 37:0.583875 38:-0.987721 39:-0.755324 40:-0.770115 41:0.19031 42:-0.932692 43:-0.891339 44:-0.681661 45:0.223963 46:-0.934175 47:-0.946935 48:-0.683045 49:0.132364 50:-0.934332 51:-0.946967 
1024 1:-0.776993 2:0.475164 3:-0.992462 4:-0.214341 5:-0.272726 6:-0.806717 7:0.820145 8:-0.90569 9:-0.198174 10:0.112231 11:0.707383 12:-0.673787 13:-0.0216856 14:0.0883694 15:-0.865379 16:-0.907206 17:-0.949227 18:0.428893 19:-0.99434 20:-0.929041 21:-0.935183 22:0.474127 23:-0.993386 24:-0.951088 25:-0.879023 26:0.388654 27:-0.990948 28:-0.984133 29:-0.878389 30:0.425769 31:-0.990637 32:-0.984984 33:1 34:-0.917234 35:-0.750169 36:-0.813699 37:0.335027 38:-0.952998 39:-0.77556 40:-0.814997 41:0.187704 42:-0.901059 43:-0.837746 44:-0.764706 45:0.31427 46:-0.921021 47:-0.917873 48:-0.764706 49:0.0762543 50:-0.907212 51:-0.933051 
-863.70381780219566 1:-0.922242 2:0.272415 3:-0.81699 4:-0.793896 5:-0.866969 6:-0.681198 7:0.267289 8:-0.453502 9:-0.822923 10:-0.793907 11:0.201856 12:-0.0616463 13:-0.830436 14:-0.757763 15:1 16:-0.0760272 17:-0.337196 18:0.32415 19:-0.645987 20:-0.193079 21:-0.335347 22:0.317667 23:-0.616296 24:-0.216664 25:-0.0957736 26:-0.543818 27:-0.436892 28:-0.675217 29:-0.0929512 30:-0.303283 31:-0.472059 32:-0.646341 33:0.968115 34:1 35:0.0821805 36:0.28 37:0.0957069 38:-0.438593 39:0.0153153 40:0.211823 41:0.236907 42:-0.403977 43:0.107233 44:0.601384 45:-0.879529 46:-0.254249 47:-0.579421 48:0.554325 49:-0.626425 50:-0.293873 51:-0.512118 
-1024 1:-0.755482 2:0.407359 3:-0.967643 4:-0.613677 5:-0.685838 6:-0.49741 7:0.317655 8:-0.895267 9:-0.789112 10:-0.707915 11:0.0289863 12:-0.814207 13:-0.853308 14:-0.797698 15:-0.593464 16:-0.378401 17:-0.687086 18:0.538526 19:-0.843984 20:-0.439412 21:-0.701181 22:0.236312 23:-0.779565 24:-0.629954 25:-0.591314 26:-0.0559653 27:-0.712425 28:-0.802375 29:-0.59024 30:-0.0735622 31:-0.711914 32:-0.806803 33:0.988585 34:-0.277737 35:-0.0373877 36:-0.0630137 37:0.364139 38:-0.616234 39:-0.0621349 40:-0.0465244 41:-0.151446 42:-0.481088 43:-0.354943 44:0.0643599 45:0.13539 46:-0.465036 47:-0.472703 48:0.0740484 49:-0.226625 50:-0.429 51:-0.52656 
-955.56884609124745 1:-0.39859 2:0.56363 3:-0.995405 4:0.273363 5:0.0627124 6:-0.888865 7:0.939768 8:-0.95538 9:0.148165 10:0.531873 11:0.890765 12:-0.855709 13:0.351137 14:0.485165 15:-0.824273 16:-0.948165 17:-0.954194 18:0.389087 19:-0.997761 20:-0.964521 21:-0.937929 22:0.455933 23:-0.997485 24:-0.973756 25:-0.866615 26:0.452547 27:-0.997914 28:-0.990143 29:-0.864446 30:0.519675 31:-0.998112 32:-0.990209 33:0.981874 34:-0.965427 35:-0.894474 36:-0.946301 37:0.222605 38:-0.980676 39:-0.900382 40:-0.94636 41:0.258655 42:-0.966194 43:-0.91565 44:-0.946021 45:0.309539 46:-0.959958 47:-0.962525 48:-0.944637 49:0.209949 50:-0.959609 51:-0.96369 
-1024 1:-0.986983 2:0.366226 3:-0.941213 4:-0.740797 5:-0.822711 6:-0.71707 7:0.36506 8:-0.787047 9:-0.769276 10:-0.721202 11:0.289957 12:-0.592105 13:-0.688842 14:-0.648292 15:-0.47508 16:-0.347656 17:-0.664459 18:0.532529 19:-0.827129 20:-0.402583 21:-0.673716 22:0.24095 23:-0.74842 24:-0.564244 25:-0.53703 26:-0.324548 27:-0.640521 28:-0.797171 29:-0.548412 30:-0.237347 31:-0.644643 32:-0.782142 33:0.919231 34:-0.493347 35:-0.206174 36:-0.284384 37:0.368166 38:-0.697003 39:-0.217219 40:-0.304871 41:0.0667381 42:-0.603072 43:-0.395921 44:-0.130796 45:-0.238905 46:-0.541436 47:-0.669549 48:-0.146021 49:-0.222301 50:-0.548435 51:-0.645783 
-1024 1:-0.831674 2:0.466405 3:-0.950609 4:-0.544655 5:-0.629778 6:-0.395001 7:0.336081 8:-0.880503 9:-0.77426 10:-0.670244 11:-0.060979 12:-0.948103 13:-0.948805 14:-0.913477 15:-0.654917 16:-0.384278 17:-0.732892 18:0.391805 19:-0.815717 20:-0.503221 21:-0.735238 22:0.4587 23:-0.815243 24:-0.522078 25:-0.650252 26:0.0281208 27:-0.708135 28:-0.783942 29:-0.644462 30:-0.0956191 31:-0.701214 32:-0.804866 33:0.999671 34:-0.127292 35:0.0612928 36:-0.0158904 37:0.03564 38:-0.433812 39:-0.0367475 40:-0.0202518 41:0.00566166 42:-0.406503 43:-0.108522 44:0.0560554 45:0.447528 46:-0.383689 47:-0.267031 48:0.0809689 49:-0.343738 50:-0.273809 51:-0.417278 
-1024 1:-0.740118 2:0.532664 3:-0.987246 4:-0.241452 5:-0.338883 6:-0.520132 7:0.759112 8:-0.885578 9:-0.353007 10:-0.0395924 11:0.504635 12:-0.767425 13:-0.28308 14:-0.0671449 15:-0.851403 16:-0.808713 17:-0.925497 18:0.391655 19:-0.963834 20:-0.853833 21:-0.923647 22:0.504444 23:-0.973792 24:-0.869523 25:-0.881349 26:0.127723 27:-0.943839 28:-0.967166 29:-0.879938 30:0.344346 31:-0.957631 32:-0.957839 33:0.952513 34:-0.85186 35:-0.56024 36:-0.688767 37:0.192151 38:-0.82719 39:-0.616888 40:-0.66393 41:0.178436 42:-0.816519 43:-0.691514 44:-0.588927 45:-0.0904237 46:-0.783004 47:-0.868514 48:-0.602768 49:0.0587229 50:-0.810948 51:-0.838737 
-1024 1:-0.692861 2:0.104947 3:-0.978257 4:-0.838721 5:-0.889183 6:-0.365498 7:0.0256584 8:-0.935938 9:-0.839592 10:-0.735771 11:0.0474043 12:-0.926389 13:-0.724273 14:-0.519211 15:-0.157949 16:-0.257252 17:-0.540839 18:0.254397 19:-0.760985 20:-0.509157 21:-0.547377 22:0.351288 23:-0.755469 24:-0.483893 25:-0.429236 26:0.0194911 27:-0.634933 28:-0.718201 29:-0.429125 30:0.0236291 31:-0.634257 32:-0.720507 33:0.995103 34:-0.321949 35:-0.104134 36:-0.14411 37:-0.0175831 38:-0.582719 39:-0.34664 40:-0.171319 41:0.201489 42:-0.585538 43:-0.255767 44:-0.0311419 45:-0.0836788 46:-0.487503 47:-0.569067 48:-0.0380623 49:-0.113597 50:-0.496143 51:-0.559421 
-1024 1:-0.95443 2:0.446559 3:-0.956131 4:-0.554617 5:-0.641599 6:-0.66993 7:0.310253 8:-0.840157 9:-0.834053 10:-0.807222 11:-0.123916 12:-0.395415 13:-0.957648 14:-0.889206 15:-0.580516 16:-0.312432 17:-0.69426 18:0.360133 19:-0.779861 20:-0.451958 21:-0.689096 22:0.667035 23:-0.821826 24:-0.347748 25:-0.565723 26:-0.201649 27:-0.671337 28:-0.797721 29:-0.563904 30:-0.336462 31:-0.659789 32:-0.811625 33:0.92977 34:-0.00199057 35:0.157286 36:0.069589 37:0.0259798 38:-0.388823 39:0.0340799 40:0.0432403 41:0.321701 42:-0.407817 43:0.183296 44:0.205536 45:-0.0103281 46:-0.269455 47:-0.319861 48:0.209689 49:-0.431585 50:-0.215882 51:-0.388803 
-1024 1:-0.829889 2:0.607069 3:-0.977198 4:-0.25923 5:-0.409631 6:-0.837353 7:0.645678 8:-0.907891 9:-0.572464 10:-0.36934 11:0.138711 12:-0.798116 13:-0.815711 14:-0.760645 15:-0.813585 16:-0.660632 17:-0.865894 18:0.499602 19:-0.943216 20:-0.722303 21:-0.869267 22:0.589641 23:-0.947802 24:-0.741137 25:-0.792943 26:0.294195 27:-0.918651 28:-0.921727 29:-0.789311 30:0.216651 31:-0.911761 32:-0.931533 33:0.999781 34:-0.609429 35:-0.172544 36:-0.354521 37:0.172041 38:-0.616989 39:-0.23856 40:-0.350848 41:0.202444 42:-0.615301 43:-0.309268 44:-0.249827 45:0.435678 46:-0.62231 47:-0.544829 48:-0.222145 49:-0.262923 50:-0.53627 51:-0.64935 
398.9076233007948 1:-0.712609 2:0.092384 3:-0.976587 4:-0.857093 5:-0.925221 6:-0.159759 7:-0.0200105 8:-0.973983 9:-0.894976 10:-0.850156 11:-0.103395 12:-0.776355 13:-0.919257 14:-0.862409 15:0.0547734 16:-0.146536 17:-0.494481 18:0.163129 19:-0.672575 20:-0.408856 21:-0.49794 22:0.291432 23:-0.682125 24:-0.380739 25:-0.360217 26:0.0938848 27:-0.55563 28:-0.631317 29:-0.358637 30:0.119788 31:-0.554751 32:-0.630814 33:0.908061 34:-0.192666 35:0.0144529 36:-0.069589 37:-0.00521176 38:-0.497673 39:-0.188336 40:-0.06185 41:0.1374 42:-0.494227 43:-0.145541 44:0.0297578 45:0.0240521 46:-0.384951 47:-0.42905 48:0.0352941 49:-0.0100722 50:-0.395087 51:-0.421196 
-1024 1:-0.94161 2:0.40168 3:-0.919323 4:-0.459364 5:-0.516819 6:-0.852329 7:0.435912 8:-0.676669 9:-0.617041 10:-0.312132 11:0.0686946 12:-0.622341 13:-0.660235 14:-0.382168 15:-0.799404 16:-0.541049 17:-0.808499 18:0.748255 19:-0.923314 20:-0.432667 21:-0.837407 22:0.0441213 23:-0.788539 24:-0.807387 25:-0.751066 26:-0.493825 27:-0.735291 28:-0.908205 29:-0.75213 30:-0.389023 31:-0.751097 32:-0.897665 33:0.990223 34:-0.740178 35:-0.222892 36:-0.381918 37:0.693506 38:-0.762474 39:-0.0274571 40:-0.391352 41:-0.619206 42:-0.423432 43:-0.640407 44:-0.271972 45:-0.690625 46:-0.439148 47:-0.719908 48:-0.27474 49:-0.596969 50:-0.473551 51:-0.694197 
-1024 1:-0.722356 2:0.425219 3:-0.986267 4:-0.292111 5:-0.328331 6:-0.944758 7:0.767297 8:-0.920699 9:-0.273278 10:0.051961 11:0.578429 12:-0.68557 13:-0.0958795 14:0.237164 15:-0.893125 16:-0.856867 17:-0.940949 18:0.532679 19:-0.992506 20:-0.852484 21:-0.935732 22:0.455714 23:-0.986524 24:-0.935706 25:-0.879023 26:0.367314 27:-0.983156 28:-0.976657 29:-0.882262 30:0.436844 31:-0.983517 32:-0.975412 33:0.958908 34:-0.903405 35:-0.606163 36:-0.71726 37:0.65247 38:-0.946355 39:-0.518558 40:-0.748221 41:0.115043 42:-0.825008 43:-0.752199 44:-0.671972 45:0.0448488 46:-0.82031 47:-0.875809 48:-0.677509 49:0.0965412 50:-0.836805 51:-0.857682 
-1024 1:-0.666902 2:0.508801 3:-0.994121 4:-0.165208 5:-0.232199 6:-0.798849 7:0.866991 8:-0.925546 9:-0.00865346 10:0.3218 11:0.74712 12:-0.262316 13:0.158505 14:0.423176 15:-0.865379 16:-0.901064 17:-0.935982 18:0.372652 19:-0.990422 20:-0.946039 21:-0.942873 22:0.577439 23:-0.997392 24:-0.918232 25:-0.879023 26:0.397071 27:-0.990318 28:-0.982594 29:-0.87684 30:0.45449 31:-0.990283 32:-0.982427 33:0.936524 34:-0.909481 35:-0.727245 36:-0.77863 37:0.263747 38:-0.933422 39:-0.783379 40:-0.772304 41:0.589522 42:-0.965285 43:-0.744463 44:-0.707958 45:0.272676 46:-0.922705 47:-0.927403 48:-0.709343 49:0.232944 50:-0.927328 51:-0.922935 
-231.90224428095129 1:-0.703747 2:-0.643684 3:-0.997157 4:-1 5:-0.963462 6:-0.424311 7:-0.832569 8:-0.989081 9:-1 10:-0.797792 11:-0.873828 12:-0.897901 13:-0.987628 14:-0.569883 15:-0.788922 16:-0.514623 17:-0.78532 18:0.108893 19:-0.803931 20:-0.725878 21:-0.785224 22:0.162899 23:-0.804499 24:-0.739045 25:-0.723149 26:-0.156928 27:-0.724664 28:-0.839166 29:-0.720372 30:-0.261985 31:-0.712071 32:-0.848051 33:-0.0930563 34:-0.881613 35:-0.507109 36:-0.675616 37:0.0895738 38:-0.780741 39:-0.614681 40:-0.675972 41:0.0814787 42:-0.762298 43:-0.667848 44:-0.617993 45:0.0279866 46:-0.712812 47:-0.778033 48:-0.615225 49:-0.179399 50:-0.699887 51:-0.798509 
-1024 1:-0.742286 2:0.367275 3:-0.965399 4:-0.523078 5:-0.542979 6:-0.527477 7:0.595899 8:-0.898115 9:-0.37128 10:-0.0137848 11:0.565752 12:-0.357419 13:-0.22964 14:0.0354179 15:-0.833111 16:-0.667323 17:-0.869205 18:0.334439 19:-0.894549 20:-0.731341 21:-0.869267 22:0.371811 23:-0.8943 24:-0.768663 25:-0.811555 26:0.0265054 27:-0.844268 28:-0.902158 29:-0.810999 30:0.000915128 31:-0.840516 32:-0.905959 33:0.940234 34:-0.872603 35:-0.5245 36:-0.665753 37:0.309521 38:-0.837959 39:-0.540266 40:-0.667214 41:0.146146 42:-0.777407 43:-0.646208 44:-0.595848 45:0.017354 46:-0.74433 47:-0.808801 48:-0.594464 49:-0.185528 50:-0.728534 51:-0.823067 
-1024 1:-0.648261 2:0.591986 3:-0.97717 4:-0.355564 5:-0.497246 6:-0.999204 7:0.580783 8:-0.823925 9:-0.693697 10:-0.534347 11:-0.0230019 12:-0.569469 13:-0.888131 14:-0.812449 15:-0.748022 16:-0.539961 17:-0.793598 18:0.691152 19:-0.944553 20:-0.585242 21:-0.808294 22:0.732147 23:-0.94184 24:-0.627188 25:-0.682047 26:0.336578 27:-0.903814 28:-0.901865 29:-0.679318 30:0.374053 31:-0.903853 32:-0.903584 33:0.88866 34:-0.330959 35:0.0318326 36:-0.090411 37:0.312548 38:-0.531741 39:0.0622269 40:-0.100164 41:0.31756 42:-0.528386 43:-0.0489433 44:0.0422145 45:-0.224338 46:-0.365167 47:-0.494941 48:0.050519 49:-0.37633 50:-0.360173 51:-0.510247 
-470.52715743394236 1:-0.800586 2:0.567104 3:-0.907809 4:-0.314308 5:-0.419428 6:-0.770218 7:0.66944 8:-0.716718 9:-0.569328 10:-0.326701 11:0.510111 12:-0.00715688 13:-0.558288 14:-0.392874 15:-0.765081 16:-0.564927 17:-0.789735 18:0.816134 19:-0.944522 20:-0.461536 21:-0.832464 22:0.00655898 23:-0.804841 24:-0.850632 25:-0.736332 26:-0.586074 27:-0.76465 28:-0.935212 29:-0.736638 30:-0.517986 31:-0.776431 32:-0.928063 33:0.898788 34:-0.456679 35:-0.228938 36:-0.124384 37:0.95899 38:-0.847923 39:-0.0657223 40:-0.160372 41:-0.506958 42:-0.527931 43:-0.658179 44:0.0795848 45:-0.843509 46:-0.529913 47:-0.798741 48:0.067128 49:-0.711136 50:-0.558124 51:-0.769507 
1024 1:-0.82388 2:0.0498283 3:-0.98009 4:-0.722344 5:-0.726004 6:-0.343179 7:0.340668 8:-0.906726 9:-0.448095 10:-0.069696 11:0.587325 12:-0.837308 13:0.0511456 14:0.246038 15:-0.368205 16:-0.509162 17:-0.622517 18:0.22994 19:-0.877507 20:-0.770193 21:-0.624828 22:0.330367 23:-0.877626 24:-0.757936 25:-0.516092 26:0.349076 27:-0.846787 28:-0.845506 29:-0.507359 30:0.16897 31:-0.831075 32:-0.86493 33:0.984419 34:-0.751702 35:-0.562276 36:-0.619726 37:0.136848 38:-0.860353 39:-0.727177 40:-0.62671 41:0.331171 42:-0.86412 43:-0.681661 44:-0.572318 45:0.397176 46:-0.835306 47:-0.801153 48:-0.565398 49:-0.0315469 50:-0.797309 51:-0.84552 
-1024 1:-0.768164 2:0.647354 3:-0.989011 4:-0.149999 5:-0.328214 6:-0.722658 7:0.801193 8:-0.946873 9:-0.368107 10:-0.0926395 11:0.433177 12:-0.565216 13:-0.549974 14:-0.428063 15:-0.845237 16:-0.809191 17:-0.907837 18:0.535303 19:-0.986037 20:-0.836903 21:-0.914309 22:0.519851 23:-0.979723 24:-0.882543 25:-0.84335 26:0.376496 27:-0.971585 28:-0.963502 29:-0.843532 30:0.408968 31:-0.970692 32:-0.964634 33:0.991782 34:-0.772446 35:-0.457497 36:-0.559452 37:0.404333 38:-0.841683 39:-0.483236 40:-0.570881 41:0.200504 42:-0.793426 43:-0.634421 44:-0.457439 45:0.195532 46:-0.790476 47:-0.803094 48:-0.458824 49:0.0283162 50:-0.783301 51:-0.81453 
1024 1:-0.882005 2:0.369377 3:-0.969536 4:-0.58507 5:-0.629275 6:-0.508545 7:0.478998 8:-0.857934 9:-0.543246 10:-0.204043 11:0.363189 12:-0.837928 13:-0.493221 14:-0.290084 15:-0.794471 16:-0.552873 17:-0.818985 18:0.220795 19:-0.835681 20:-0.700314 21:-0.820928 22:0.50526 23:-0.878495 24:-0.626716 25:-0.754944 26:-0.231152 27:-0.747885 28:-0.872769 29:-0.762974 30:0.165075 31:-0.78961 32:-0.83435 33:0.993583 34:-0.808277 35:-0.320123 36:-0.522192 37:0.0161617 38:-0.656141 39:-0.454905 40:-0.515052 41:0.363201 42:-0.721873 43:-0.372531 44:-0.439446 45:-0.144804 46:-0.56743 47:-0.682727 48:-0.442215 49:-0.0260357 50:-0.600411 51:-0.648297 
-1024 1:-0.951805 2:0.61198 3:-0.847175 4:-0.188837 5:-0.30589 6:-0.803217 7:0.873714 8:0.0400884 9:-0.400377 10:-0.0219435 11:0.496283 12:-0.0688075 13:-0.409596 14:-0.201364 15:-0.836605 16:-0.690891 17:-0.890728 18:0.35809 19:-0.907703 20:-0.739705 21:-0.894534 22:0.563445 23:-0.931283 24:-0.700725 25:-0.826289 26:-0.109274 27:-0.860207 28:-0.936091 29:-0.826491 30:-0.210034 31:-0.849643 32:-0.94253 33:0.995265 34:-0.827135 35:-0.408546 36:-0.596712 37:0.0535916 38:-0.679893 39:-0.465207 40:-0.614669 41:0.117997 42:-0.66558 43:-0.474561 44:-0.483737 45:-0.485936 46:-0.587898 47:-0.799976 48:-0.478201 49:-0.790811 50:-0.555439 51:-0.825873 
-1024 1:-0.719545 2:0.37778 3:-0.960252 4:-0.616109 5:-0.661623 6:-0.143676 7:0.28746 8:-0.879938 9:-0.772254 10:-0.616921 11:0.00616139 12:-0.747823 13:-0.824995 14:-0.695726 15:-0.72192 16:-0.41305 17:-0.782009 18:0.227448 19:-0.776472 20:-0.572224 21:-0.775886 22:0.337374 23:-0.777236 24:-0.545488 25:-0.714618 26:-0.0349225 27:-0.687945 28:-0.784492 29:-0.710302 30:-0.0531478 31:-0.684848 32:-0.787878 33:0.917684 34:-0.545102 35:-0.0564308 36:-0.244932 37:-0.0341133 38:-0.511562 39:-0.243619 40:-0.228243 41:0.05889 42:-0.488011 43:-0.206133 44:-0.154325 45:-0.0240052 46:-0.409208 47:-0.475821 48:-0.157093 49:-0.0512638 50:-0.420364 51:-0.465926 
-300.31565565980105 1:-0.657521 2:0.621616 3:-0.989577 4:-0.0894215 5:-0.26783 6:-0.861976 7:0.794036 8:-0.887801 9:-0.303568 10:0.0827906 11:0.387631 12:-0.795242 13:-0.487084 14:-0.272431 15:-0.859007 16:-0.833706 17:-0.934879 18:0.393548 19:-0.976428 20:-0.888301 21:-0.927492 22:0.610403 23:-0.989815 24:-0.861427 25:-0.87437 26:0.339384 27:-0.972844 28:-0.968412 29:-0.87529 30:0.394467 31:-0.972934 32:-0.967922 33:0.896856 34:-0.828182 35:-0.502045 36:-0.646027 37:0.198679 38:-0.822912 39:-0.60585 40:-0.633279 41:0.479909 42:-0.85942 43:-0.56324 44:-0.550173 45:0.151737 46:-0.805262 47:-0.830921 48:-0.551557 49:0.0839035 50:-0.808736 51:-0.828972 
1024 1:-0.777382 2:0.573932 3:-0.993977 4:0.0311263 5:-0.142084 6:-0.866811 7:0.90644 8:-0.971515 9:-0.00606112 10:0.364332 11:0.769991 12:-0.866286 13:0.118555 14:0.274366 15:-0.848525 16:-0.925703 17:-0.943157 18:0.41077 19:-0.996641 20:-0.95157 21:-0.947817 22:0.516467 23:-0.997826 24:-0.950143 25:-0.858085 26:0.452717 27:-0.996419 28:-0.987687 29:-0.855926 30:0.516062 31:-0.996459 32:-0.987688 33:0.944869 34:-0.924987 35:-0.779555 36:-0.841096 37:0.233713 38:-0.940518 39:-0.811342 40:-0.834702 41:0.339598 42:-0.947497 43:-0.838759 44:-0.778547 45:0.314176 46:-0.942068 47:-0.941052 48:-0.784083 49:0.253753 50:-0.943442 51:-0.936968 
1024 1:-0.252923 2:0.633904 3:-0.995407 4:0.175743 5:-0.0512197 6:-0.894446 7:0.944903 8:-0.968867 9:0.00763975 10:0.349103 11:0.787565 12:-0.838573 13:0.199651 14:0.426105 15:-0.839688 16:-0.949563 17:-0.948675 18:0.387063 19:-0.998352 20:-0.96931 21:-0.950014 22:0.48836 23:-0.999006 24:-0.968359 25:-0.87437 26:0.464535 27:-0.998504 28:-0.990326 29:-0.873741 30:0.524087 31:-0.998466 32:-0.990391 33:0.864634 34:-0.920587 35:-0.822407 36:-0.842192 37:0.29378 38:-0.974234 39:-0.862025 40:-0.820471 41:0.463923 42:-0.983729 43:-0.875961 44:-0.777163 45:0.452774 46:-0.971955 47:-0.9537 48:-0.781315 49:0.334949 50:-0.969509 51:-0.954802 
-1024 1:-0.857695 2:0.442636 3:-0.853085 4:-0.698848 5:-0.732319 6:-0.648182 7:0.489729 8:-0.633851 9:-0.734546 10:-0.593203 11:0.452815 12:0.290008 13:-0.622766 14:-0.455894 15:-0.386497 16:-0.305945 17:-0.568433 18:0.896045 19:-0.884318 20:-0.228154 21:-0.570448 22:-0.0289331 23:-0.704451 24:-0.676168 25:-0.410624 26:-0.820095 27:-0.582313 28:-0.839056 29:-0.420604 30:-0.609123 31:-0.608332 32:-0.812977 33:0.910023 34:-0.143635 35:-0.125576 36:0.0235616 37:0.849385 38:-0.781446 39:0.00749667 40:0.0103996 41:-0.431865 42:-0.497663 43:-0.563608 44:0.201384 45:-0.772313 46:-0.448356 47:-0.717555 48:0.198616 49:-0.589557 50:-0.48719 51:-0.678643 
-1024 1:-0.320858 2:0.565146 3:-0.994972 4:0.204982 5:0.00179544 6:-0.914557 7:0.936049 8:-0.961954 9:0.142959 10:0.55344 11:0.87282 12:-0.857638 13:0.388302 14:0.496874 15:-0.829822 16:-0.944111 17:-0.954194 18:0.394241 19:-0.997637 20:-0.961553 21:-0.942324 22:0.468315 23:-0.997454 24:-0.968899 25:-0.872043 26:0.456033 27:-0.99756 28:-0.989116 29:-0.867545 30:0.521506 31:-0.997797 32:-0.989368 33:0.981305 34:-0.961027 35:-0.879163 36:-0.935342 37:0.20876 38:-0.973379 39:-0.892471 40:-0.933224 41:0.253703 42:-0.95912 43:-0.904968 44:-0.93218 45:0.294878 46:-0.951697 47:-0.95676 48:-0.93218 49:0.185481 50:-0.950288 51:-0.959012 
-1024 1:-0.133289 2:0.560225 3:-0.995083 4:0.0553615 5:-0.0802975 6:-0.650432 7:0.919976 8:-0.975592 9:0.100051 10:0.446671 11:0.804109 12:-0.83084 13:0.289001 14:0.556083 15:-0.855102 16:-0.940208 17:-0.945916 18:0.416636 19:-0.998601 20:-0.959124 21:-0.942873 22:0.497994 23:-0.99851 24:-0.963164 25:-0.876696 26:0.539057 27:-0.999134 28:-0.986368 29:-0.872192 30:0.601286 31:-0.999017 32:-0.986884 33:0.992185 34:-0.943635 35:-0.803727 36:-0.837808 37:0.479666 38:-0.990338 39:-0.804075 40:-0.836891 41:0.567773 42:-0.986811 43:-0.822736 44:-0.781315 45:0.693716 46:-0.98111 47:-0.924932 48:-0.777163 49:0.56737 50:-0.980147 51:-0.931414 
-1024 1:-0.488726 2:0.497807 3:-0.983339 4:-0.40818 5:-0.494735 6:-0.379756 7:0.614068 8:-0.883827 9:-0.555411 10:-0.328366 11:0.348288 12:-0.546273 13:-0.579826 14:-0.442156 15:-0.818518 16:-0.67689 17:-0.878587 18:0.319334 19:-0.904686 20:-0.766956 21:-0.88245 22:0.331562 23:-0.891599 24:-0.793152 25:-0.836371 26:0.175463 27:-0.870479 28:-0.898384 29:-0.831913 30:0.0301523 31:-0.853341 32:-0.912645 33:0.996347 34:-0.76637 35:-0.407938 36:-0.523288 37:0.14864 38:-0.767607 39:-0.543301 40:-0.531472 41:0.18446 42:-0.748048 43:-0.563792 44:-0.468512 45:0.19141 46:-0.713444 47:-0.724379 48:-0.46436 49:0.0583428 50:-0.706785 51:-0.730332 
-1024 1:-0.929134 2:0.616866 3:-0.972065 4:-0.297021 5:-0.446669 6:-0.866153 7:0.645443 8:-0.850411 9:-0.637595 10:-0.447738 11:0.0361725 12:-0.450537 13:-0.845397 14:-0.72573 15:-0.776385 16:-0.596929 17:-0.837196 18:0.507323 19:-0.93597 20:-0.702337 21:-0.813238 22:0.941736 23:-0.979009 24:-0.61518 25:-0.711516 26:0.380577 27:-0.926483 28:-0.917916 29:-0.709527 30:0.419058 31:-0.926513 32:-0.919915 33:0.935666 34:-0.486642 35:-0.0532747 36:-0.215342 37:0.182438 38:-0.577888 39:-0.156878 40:-0.235906 41:0.559317 42:-0.61707 43:0.00391362 44:-0.0574394 45:-0.0480339 46:-0.483083 47:-0.554183 48:-0.0477509 49:-0.378658 50:-0.451223 51:-0.598304 
-1024 1:-0.998147 2:0.336235 3:-0.964567 4:-0.530723 5:-0.532637 6:-0.832659 7:0.577894 8:-0.877491 9:-0.571466 10:-0.347883 11:0.414795 12:-0.780803 13:-0.189338 14:0.145358 15:-0.872572 16:-0.653189 17:-0.879691 18:0.540644 19:-0.935473 20:-0.651546 21:-0.892887 22:0.228927 23:-0.861758 24:-0.813189 25:-0.829391 26:-0.249686 27:-0.813334 28:-0.927553 29:-0.835012 30:-0.0429171 31:-0.837605 32:-0.912572 33:0.969197 34:-0.863384 35:-0.387808 36:-0.610959 37:0.310126 38:-0.750749 39:-0.354183 40:-0.616858 41:-0.115362 42:-0.63612 43:-0.611768 44:-0.550173 45:-0.257406 46:-0.581005 47:-0.73944 48:-0.561246 49:0.0411441 50:-0.642697 51:-0.674024 
-1024 1:-0.795489 2:0.662238 3:-0.991568 4:-0.148375 5:-0.336565 6:-0.866376 7:0.842645 8:-0.933246 9:-0.365061 10:-0.0823171 11:0.501247 12:-0.837585 13:-0.455143 14:-0.370772 15:-0.841743 16:-0.827971 17:-0.909492 18:0.515569 19:-0.990671 20:-0.873124 21:-0.907718 22:0.620873 23:-0.992144 24:-0.877214 25:-0.820861 26:0.470444 27:-0.983667 28:-0.968705 29:-0.818745 30:0.532534 31:-0.98391 32:-0.969164 33:0.915363 34:-0.78879 35:-0.498035 36:-0.602192 37:0.288147 38:-0.849634 39:-0.593984 40:-0.602627 41:0.389004 42:-0.848657 43:-0.610663 44:-0.490657 45:0.160777 46:-0.812733 47:-0.834686 48:-0.489273 49:0.0396237 50:-0.810895 51:-0.839848 
-1024 1:-0.886295 2:0.628373 3:-0.969022 4:0.0294425 5:-0.142321 6:-0.872388 7:0.90799 8:-0.895989 9:-0.0720154 10:0.259349 11:0.71653 12:-0.486061 13:0.0272149 14:0.172073 15:-0.859418 16:-0.91634 17:-0.954746 18:0.391374 19:-0.992443 20:-0.939901 21:-0.951112 22:0.530401 23:-0.997143 24:-0.938337 25:-0.903839 26:0.378621 27:-0.9902 28:-0.9834 29:-0.903176 30:0.418823 31:-0.989811 32:-0.983961 33:0.997004 34:-0.906129 35:-0.730391 36:-0.789589 37:0.293885 38:-0.940769 39:-0.778319 40:-0.793103 41:0.393348 42:-0.937239 43:-0.786454 44:-0.746713 45:0.351226 46:-0.923125 47:-0.91246 48:-0.738408 49:0.199164 50:-0.917902 51:-0.91931 
1024 1:-0.866904 2:0.55318 3:-0.969415 4:-0.364748 5:-0.478498 6:-0.650565 7:0.611118 8:-0.777039 9:-0.601577 10:-0.392616 11:0.276086 12:-0.52283 13:-0.654402 14:-0.474052 15:-0.743911 16:-0.542872 17:-0.802428 18:0.513339 19:-0.891501 20:-0.572898 21:-0.820928 22:0.392613 23:-0.862255 24:-0.682375 25:-0.730903 26:-0.233235 27:-0.788894 28:-0.898824 29:-0.73354 30:-0.145505 31:-0.797006 32:-0.890578 33:0.891315 34:-0.435935 35:-0.145046 36:-0.217534 37:0.293412 38:-0.622122 39:-0.135998 40:-0.207444 41:0.0228059 42:-0.560727 43:-0.355956 44:-0.0588235 45:-0.331132 46:-0.501184 47:-0.656548 48:-0.0865052 49:-0.115973 50:-0.536586 51:-0.601286 
-1024 1:-0.942294 2:0.489141 3:-0.955452 4:-0.538245 5:-0.632813 6:-0.667233 7:0.349971 8:-0.86942 9:-0.828145 10:-0.789545 11:-0.147689 12:-0.79369 13:-0.959648 14:-0.903049 15:-0.600041 16:-0.349399 17:-0.690949 18:0.581874 19:-0.84585 20:-0.400088 21:-0.713815 22:0.562649 23:-0.831017 24:-0.46905 25:-0.573478 26:-0.131719 27:-0.723051 28:-0.824398 29:-0.572424 30:-0.174414 31:-0.720136 32:-0.829491 33:0.879597 34:0.133997 35:0.165337 36:0.106849 37:0.209708 38:-0.411418 39:0.184381 40:0.107827 41:0.166389 42:-0.396498 43:0.0552972 44:0.220761 45:-0.177545 46:-0.230097 47:-0.342452 48:0.23737 49:-0.34065 50:-0.224519 51:-0.363836 
1024 1:-0.0829458 2:0.495542 3:-0.995341 4:0.043605 5:-0.0248435 6:-0.750784 7:0.902791 8:-0.973483 9:0.139854 10:0.499996 11:0.837769 12:-0.858687 13:0.454545 14:0.716673 15:-0.868256 16:-0.956563 17:-0.942053 18:0.360751 19:-0.998383 20:-0.979697 21:-0.951662 22:0.469051 23:-0.998789 24:-0.973621 25:-0.881349 26:0.455948 27:-0.999174 28:-0.992121 29:-0.881487 30:0.517845 31:-0.999174 32:-0.992035 33:0.910755 34:-0.939864 35:-0.849298 36:-0.846575 37:0.338133 38:-0.98903 39:-0.88824 40:-0.860974 41:0.552425 42:-0.993684 43:-0.859846 44:-0.788235 45:0.564065 46:-0.985846 47:-0.957642 48:-0.788235 49:0.486222 50:-0.986361 51:-0.957024 
-1024 1:-0.741108 2:-0.22264 3:-0.983378 4:-0.748849 5:-0.664523 6:-0.56532 7:-0.0959727 8:-0.939436 9:-0.803315 10:-0.508792 11:-0.0811855 12:-0.784431 13:-0.765183 14:-0.554098 15:-0.927243 16:-0.780472 17:-0.934879 18:0.219146 19:-0.909164 20:-0.858082 21:-0.939577 22:0.343167 23:-0.92737 24:-0.861697 25:-0.895308 26:-0.11616 27:-0.88205 28:-0.958518 29:-0.893881 30:-0.154657 31:-0.878991 32:-0.961456 33:0.183327 34:-0.945521 35:-0.594434 36:-0.754521 37:-0.016346 38:-0.77591 39:-0.698662 40:-0.758073 41:0.0959297 42:-0.79479 43:-0.717574 44:-0.710727 45:0.0214759 46:-0.755854 47:-0.827215 48:-0.707958 49:-0.17099 50:-0.743753 51:-0.843356 
1024 1:-0.394407 2:0.664981 3:-0.993987 4:0.0440452 5:-0.190426 6:-0.83866 7:0.907657 8:-0.955494 9:-0.0706796 10:0.260568 11:0.600441 12:-0.768335 13:-0.0185583 14:0.183519 15:-0.862707 16:-0.907144 17:-0.951987 18:0.519186 19:-0.999129 20:-0.904152 21:-0.917056 22:0.506494 23:-0.997826 24:-0.960938 25:-0.847228 26:0.548622 27:-0.99756 28:-0.983107 29:-0.845081 30:0.61161 31:-0.997404 32:-0.983413 33:0.99774 34:-0.884128 35:-0.670457 36:-0.727123 37:0.634361 38:-0.969806 39:-0.631882 40:-0.732895 41:0.153444 42:-0.889184 43:-0.834247 44:-0.653979 45:0.305511 46:-0.911392 47:-0.908636 48:-0.651211 49:0.20496 50:-0.91053 51:-0.909721 
-1024 1:-0.934013 2:0.532933 3:-0.919606 4:-0.360876 5:-0.442818 6:-0.887419 7:0.648774 8:-0.855315 9:-0.530311 10:-0.26786 11:0.396012 12:-0.692787 13:-0.537072 14:-0.448806 15:-0.779468 16:-0.546395 17:-0.815673 18:0.551289 19:-0.89119 20:-0.529392 21:-0.833562 22:0.321907 23:-0.826329 24:-0.664024 25:-0.731679 26:-0.342615 27:-0.75552 28:-0.894426 29:-0.734314 30:-0.372269 31:-0.751215 32:-0.893281 33:0.91892 34:-0.735568 35:-0.292656 36:-0.44 37:0.326025 38:-0.717032 39:-0.287127 40:-0.449371 41:0.0368515 42:-0.627328 43:-0.465721 44:-0.302422 45:-0.387292 46:-0.56522 47:-0.740205 48:-0.312111 49:-0.405929 50:-0.570657 51:-0.724952 
1024 1:-0.442142 2:0.680832 3:-0.995581 4:0.15593 5:-0.0804907 6:-0.685729 7:0.973276 8:-0.978392 9:-0.0157441 10:0.340634 11:0.831709 12:-0.903141 13:0.284835 14:0.440719 15:-0.845237 16:-0.957272 17:-0.950331 18:0.394822 19:-0.999502 20:-0.972615 21:-0.945619 22:0.474983 23:-0.999348 24:-0.975645 25:-0.877472 26:0.460072 27:-0.999095 28:-0.991755 29:-0.87529 30:0.521083 31:-0.999056 32:-0.991816 33:0.916221 34:-0.907805 35:-0.815349 36:-0.791781 37:0.432418 38:-0.991546 39:-0.861565 40:-0.792009 41:0.512836 42:-0.987822 43:-0.874027 44:-0.709343 45:0.595166 46:-0.982636 47:-0.950818 48:-0.70519 49:0.497054 50:-0.982517 51:-0.952405 
1024 1:-0.485551 2:0.555749 3:-0.995772 4:0.149101 5:-0.0317667 6:-0.708081 7:0.916715 8:-0.960591 9:0.0883455 10:0.428109 11:0.80505 12:-0.79154 13:0.386136 14:0.571845 15:-0.839482 16:-0.944173 17:-0.947572 18:0.358184 19:-0.996206 20:-0.971198 21:-0.955507 22:0.489753 23:-0.997795 24:-0.959656 25:-0.883676 26:0.38504 27:-0.995828 28:-0.990802 29:-0.88536 30:0.43966 31:-0.99583 32:-0.99072 33:0.990968 34:-0.939445 35:-0.853051 36:-0.881644 37:0.200179 38:-0.969252 39:-0.898358 40:-0.887247 41:0.398155 42:-0.976755 43:-0.870896 44:-0.853287 45:0.277032 46:-0.957748 47:-0.964761 48:-0.853287 49:0.188712 50:-0.958187 51:-0.964567 
-1024 1:-0.753809 2:0.644777 3:-0.99001 4:-0.231367 5:-0.393502 6:-0.728965 7:0.782242 8:-0.953867 9:-0.481964 10:-0.244919 11:0.41282 12:-0.855982 13:-0.575924 14:-0.49884 15:-0.82489 16:-0.774277 17:-0.888521 18:0.513226 19:-0.980564 20:-0.837038 21:-0.886844 22:0.627621 23:-0.983636 24:-0.839906 25:-0.804575 26:0.395328 27:-0.967728 28:-0.958005 29:-0.802479 30:0.455147 31:-0.968331 32:-0.958277 33:0.913365 34:-0.713986 35:-0.401072 36:-0.49589 37:0.285278 38:-0.809677 39:-0.51865 40:-0.490969 41:0.375827 42:-0.80616 43:-0.538192 44:-0.389619 45:0.170753 46:-0.759537 47:-0.77615 48:-0.391003 49:0.0381509 50:-0.752653 51:-0.780149 
-1024 1:-0.791374 2:0.381442 3:-0.944352 4:-0.638011 5:-0.695063 6:-0.448981 7:0.483418 8:-0.813464 9:-0.606745 10:-0.400052 11:0.327373 12:-0.807445 13:-0.475927 14:-0.297987 15:-0.729935 16:-0.599248 17:-0.80574 18:0.285657 19:-0.877787 20:-0.735388 21:-0.800055 22:0.481911 23:-0.904796 24:-0.715972 25:-0.722373 26:-0.193742 27:-0.815341 28:-0.910037 29:-0.726569 30:0.190417 31:-0.850745 32:-0.881663 33:0.951689 34:-0.663279 35:-0.389876 36:-0.457534 37:0.182596 38:-0.754724 39:-0.492434 40:-0.418719 41:0.226539 42:-0.75962 43:-0.554952 44:-0.309343 45:-0.172533 46:-0.685609 47:-0.788387 48:-0.320415 49:0.0554447 50:-0.7239 51:-0.745359 
-1024 1:-0.916385 2:0.260996 3:-0.952199 4:-0.79052 5:-0.842179 6:-0.25827 7:0.249676 8:-0.742252 9:-0.8037 10:-0.722482 11:0.202925 12:-0.637522 13:-0.639883 14:-0.415062 15:-0.425753 16:-0.266898 17:-0.603201 18:0.366186 19:-0.751687 20:-0.384844 21:-0.59242 22:0.28538 23:-0.728175 24:-0.482948 25:-0.471888 26:-0.434991 27:-0.562989 28:-0.759354 29:-0.484895 30:-0.15583 31:-0.593304 32:-0.723905 33:0.910141 34:-0.218858 35:-0.0543729 36:-0.0586301 37:0.170751 38:-0.532245 39:-0.084027 40:-0.0432403 41:-0.0321021 42:-0.487354 43:-0.273079 44:0.103114 45:-0.278531 46:-0.416048 47:-0.557772 48:0.0768166 49:-0.0982991 50:-0.447958 51:-0.504049 
-1024 1:-0.840076 2:0.533708 3:-0.979704 4:-0.335282 5:-0.433345 6:-0.561669 7:0.639138 8:-0.840058 9:-0.500998 10:-0.225026 11:0.283222 12:-0.783347 13:-0.517995 14:-0.287844 15:-0.829822 16:-0.713087 17:-0.895695 18:0.380148 19:-0.94107 20:-0.805875 21:-0.889041 22:0.578812 23:-0.953578 24:-0.761039 25:-0.835595 26:0.135418 27:-0.916368 28:-0.943091 29:-0.835012 30:0.146115 31:-0.91538 32:-0.944467 33:0.996474 34:-0.752122 35:-0.353496 36:-0.493699 37:0.00652786 38:-0.69806 39:-0.533275 40:-0.504105 41:0.309277 42:-0.728947 43:-0.432386 44:-0.404844 45:-0.193892 46:-0.635675 47:-0.755324 48:-0.411765 49:-0.161441 50:-0.655336 51:-0.73957 
-1024 1:-0.776289 2:0.35142 3:-0.946173 4:-0.742327 5:-0.816566 6:-0.210913 7:0.110416 8:-0.919103 9:-0.83106 10:-0.764337 11:-0.0892695 12:-0.958762 13:-0.937727 14:-0.872297 15:-0.207892 16:-0.238941 17:-0.552428 18:0.39306 19:-0.769941 20:-0.40373 21:-0.549025 22:0.489415 23:-0.775839 24:-0.411503 25:-0.483521 26:0.214955 27:-0.59841 28:-0.641101 29:-0.474051 30:0.130488 31:-0.595429 32:-0.665851 33:1 34:0.287585 35:0.116183 36:0.0915068 37:0.0108973 38:-0.396422 39:0.00584096 40:0.0881226 41:-0.0153053 42:-0.368605 43:-0.0605461 44:0.170934 45:0.469449 46:-0.33165 47:-0.198965 48:0.19308 49:-0.256746 50:-0.234524 51:-0.344657 
-1024 1:-0.951215 2:0.333452 3:-0.970866 4:-0.813866 5:-0.902254 6:-0.352539 7:0.0592554 8:-0.895407 9:-0.905715 10:-0.925278 11:-0.179954 12:-0.632654 13:-0.974158 14:-0.95725 15:-0.104717 16:-0.129517 17:-0.487859 18:0.519842 19:-0.751127 20:-0.23436 21:-0.49025 22:0.545669 23:-0.741123 24:-0.278259 25:-0.369523 26:-0.0530746 27:-0.53241 28:-0.646891 29:-0.370256 30:-0.163949 31:-0.518126 32:-0.661284 33:0.879142 34:0.801781 35:0.234941 36:0.235068 37:0.121134 38:-0.340362 39:0.221635 40:0.232622 41:0.105515 42:-0.322722 43:0.130255 44:0.338408 45:-0.171784 46:-0.147856 47:-0.256089 48:0.357785 49:-0.331956 50:-0.145001 51:-0.28069 
1024 1:0.0404804 2:0.567613 3:-0.995848 4:0.211371 5:0.00557381 6:-0.511171 7:0.95011 8:-0.972963 9:0.240919 10:0.555345 11:0.889653 12:-0.862337 13:0.485594 14:0.697332 15:-0.803515 16:-0.961183 17:-0.929912 18:0.354885 19:-0.998383 20:-0.982463 21:-0.924197 22:0.436923 23:-0.998416 24:-0.984078 25:-0.844901 26:0.435246 27:-0.998937 28:-0.993551 29:-0.842758 30:0.494052 31:-0.998938 32:-0.993606 33:0.999974 34:-0.946569 35:-0.906832 36:-0.909041 37:0.325051 38:-0.997484 39:-0.921446 40:-0.897099 41:0.400733 42:-0.994694 43:-0.934619 44:-0.857439 45:0.54027 46:-0.993949 47:-0.97382 48:-0.851903 49:0.422938 50:-0.993154 51:-0.976319 
1024 1:-0.886932 2:0.427699 3:-0.944091 4:-0.449355 5:-0.433785 6:-0.650997 7:0.363098 8:-0.83604 9:-0.628677 10:-0.241912 11:0.0279954 12:-0.327565 13:-0.776418 14:-0.519125 15:-0.738567 16:-0.369648 17:-0.763797 18:0.385077 19:-0.774792 20:-0.408587 21:-0.774238 22:0.470067 23:-0.78798 24:-0.442739 25:-0.677394 26:-0.279742 27:-0.641072 28:-0.79882 29:-0.673896 30:-0.426895 31:-0.625209 32:-0.812283 33:0.91213 34:-0.672708 35:0.00334266 36:-0.292055 37:-0.0142139 38:-0.37745 39:0.00344939 40:-0.310345 41:0.00725446 42:-0.399884 43:-0.109443 44:-0.213841 45:-0.241013 46:-0.270876 47:-0.424697 48:-0.209689 49:-0.465983 50:-0.242476 51:-0.448092 
1024 1:-0.440761 2:0.484521 3:-0.995598 4:-0.0998447 5:-0.143855 6:-0.799207 7:0.879888 8:-0.955687 9:-0.0639532 10:0.228088 11:0.819365 12:-0.797813 13:0.229003 14:0.33045 15:-0.846265 16:-0.9462 17:-0.942605 18:0.383278 19:-0.997885 20:-0.969445 21:-0.931338 22:0.439093 23:-0.996491 24:-0.975915 25:-0.872819 26:0.415138 27:-0.996891 28:-0.990656 29:-0.872192 30:0.466316 31:-0.996853 32:-0.990903 33:0.999969 34:-0.927292 35:-0.842388 36:-0.853151 37:0.316654 38:-0.983796 39:-0.877938 40:-0.846743 41:0.390104 42:-0.975543 43:-0.881947 44:-0.80346 45:0.435912 46:-0.971902 47:-0.955583 48:-0.799308 49:0.304732 50:-0.97051 51:-0.960474 
-1024 1:-0.52411 2:0.627758 3:-0.992946 4:0.0145279 5:-0.177305 6:-0.876301 7:0.873231 8:-0.946594 9:-0.142093 10:0.216696 11:0.639567 12:-0.631241 13:-0.124879 14:0.115973 15:-0.860857 16:-0.83021 17:-0.918322 18:0.554025 19:-0.991728 20:-0.847425 21:-0.917605 22:0.627781 23:-0.992299 24:-0.868983 25:-0.830942 26:0.4636 27:-0.983982 28:-0.969475 29:-0.831139 30:0.530187 31:-0.984028 32:-0.969164 33:0.921171 34:-0.864013 35:-0.551486 36:-0.674521 37:0.372114 38:-0.863674 39:-0.543117 40:-0.685824 41:0.305426 42:-0.829101 43:-0.624016 44:-0.557093 45:-0.148458 46:-0.780689 47:-0.876868 48:-0.56263 49:-0.185386 50:-0.787093 51:-0.870311 
-1024 1:-0.551152 2:0.430078 3:-0.960663 4:-0.450642 5:-0.502687 6:-0.410211 7:0.475627 8:-0.888861 9:-0.528843 10:-0.166128 11:0.219673 12:-0.708666 13:-0.475153 14:-0.23586 15:-0.802898 16:-0.610868 17:-0.854857 18:0.34544 19:-0.88976 20:-0.711848 21:-0.853337 22:0.328237 23:-0.866789 24:-0.743093 25:-0.798371 26:0.109614 27:-0.834232 28:-0.878559 29:-0.795507 30:-0.066992 31:-0.814276 32:-0.895875 33:0.99919 34:-0.790885 35:-0.365544 36:-0.525479 37:0.00110552 38:-0.70279 39:-0.546981 40:-0.525999 41:-0.0419774 42:-0.649713 43:-0.565818 44:-0.465744 45:0.1508 46:-0.657985 47:-0.679256 48:-0.460208 49:-0.131746 50:-0.631375 51:-0.711563 
1024 1:-0.952311 2:0.583903 3:-0.97715 4:-0.215004 5:-0.35285 6:-0.726954 7:0.727863 8:-0.849961 9:-0.447984 10:-0.154394 11:0.393222 12:-0.583501 13:-0.53718 14:-0.401865 15:-0.855308 16:-0.761595 17:-0.919426 18:0.461745 19:-0.966757 20:-0.810394 21:-0.920901 22:0.421218 23:-0.933705 24:-0.818654 25:-0.876696 26:0.19489 27:-0.926483 28:-0.944227 29:-0.87529 30:0.0311378 31:-0.90527 32:-0.953345 33:0.979408 34:-0.777894 35:-0.39719 36:-0.584658 37:-0.0320865 38:-0.690562 39:-0.557651 40:-0.578544 41:0.155529 42:-0.688572 43:-0.481744 44:-0.503114 45:-0.0310312 46:-0.686135 47:-0.762501 48:-0.511419 49:-0.09103 50:-0.684194 51:-0.752317 
-1024 1:-0.952264 2:0.55426 3:-0.992389 4:0.0254425 5:-0.129499 6:-0.593278 7:0.89519 8:-0.921579 9:-0.0529661 10:0.313627 11:0.793213 12:-0.752366 13:0.108124 14:0.246069 15:-0.852225 16:-0.914074 17:-0.953091 18:0.400407 19:-0.993874 20:-0.941385 21:-0.95331 22:0.472913 23:-0.99174 24:-0.941643 25:-0.913145 26:0.346356 27:-0.987131 28:-0.982484 29:-0.910922 30:0.447826 31:-0.989496 32:-0.980892 33:0.980683 34:-0.940911 35:-0.800528 36:-0.878356 37:0.153958 38:-0.935687 39:-0.85301 40:-0.874111 41:0.261436 42:-0.928144 43:-0.841153 44:-0.862976 45:0.268882 46:-0.91739 47:-0.925521 48:-0.860208 49:0.0854238 50:-0.906211 51:-0.935273 
1024 1:-0.896849 2:0.447506 3:-0.927778 4:-0.528181 5:-0.572472 6:-0.704594 7:0.5289 8:-0.846225 9:-0.606708 10:-0.376973 11:0.341273 12:-0.718155 13:-0.597237 14:-0.460526 15:-0.720275 16:-0.429387 17:-0.755519 18:0.47329 19:-0.828529 20:-0.450609 21:-0.769294 22:0.233247 23:-0.754475 24:-0.591297 25:-0.658007 26:-0.351032 27:-0.66441 28:-0.827879 29:-0.663826 30:-0.327874 31:-0.662425 32:-0.819298 33:0.917912 34:-0.684652 35:-0.248685 36:-0.385205 37:0.247611 38:-0.673452 39:-0.275813 40:-0.400109 41:0.00835493 42:-0.59428 43:-0.431189 44:-0.252595 45:-0.298344 46:-0.540542 47:-0.69167 48:-0.265052 49:-0.297463 50:-0.546539 51:-0.670867 
-671.60792301497986 1:-0.852216 2:0.462591 3:-0.808691 4:-0.64966 5:-0.735787 6:-0.816763 7:0.473094 8:-0.371591 9:-0.75784 10:-0.699245 11:0.2531 12:0.00949772 13:-0.812643 14:-0.752813 15:-0.289898 16:-0.234436 17:-0.578918 18:0.390943 19:-0.721802 20:-0.290884 21:-0.580884 22:0.390344 23:-0.692776 24:-0.312262 25:-0.386584 26:-0.735201 27:-0.527766 28:-0.788706 29:-0.394268 30:-0.474482 31:-0.563327 32:-0.757554 33:0.946932 34:0.701205 35:0.0420152 36:0.146301 37:0.0956542 38:-0.454143 39:-0.0131997 40:0.0914067 41:0.241135 42:-0.422724 43:0.0771214 44:0.438062 45:-0.907305 46:-0.273612 47:-0.608307 48:0.39654 49:-0.646712 50:-0.316622 51:-0.542581 
-1024 1:-0.771076 2:0.662439 3:-0.986059 4:0.0511178 5:-0.146307 6:-0.955634 7:0.916049 8:-0.714271 9:-0.225866 10:0.086131 11:0.663815 12:-0.639425 13:-0.238473 14:-0.120096 15:-0.850992 16:-0.815466 17:-0.904525 18:0.614745 19:-0.990857 20:-0.804728 21:-0.915408 22:0.371592 23:-0.966185 24:-0.925856 25:-0.848003 26:0.142475 27:-0.956118 28:-0.973872 29:-0.84818 30:0.187977 31:-0.956923 32:-0.973001 33:0.902467 34:-0.767417 35:-0.530183 36:-0.526575 37:0.642336 38:-0.91591 39:-0.493722 40:-0.547893 41:0.00424263 42:-0.810051 43:-0.778995 44:-0.381315 45:-0.23764 46:-0.797001 47:-0.897047 48:-0.377163 49:-0.230283 50:-0.811369 51:-0.890191 
-1024 1:-0.688742 2:0.563761 3:-0.977721 4:0.139849 5:-0.028504 6:-0.836594 7:0.952066 8:-0.607603 9:0.204959 10:0.548727 11:0.855357 12:-0.291404 13:0.343451 14:0.564487 15:-0.883671 16:-0.886196 17:-0.956954 18:0.436014 19:-0.99291 20:-0.914539 21:-0.964296 22:0.634967 23:-0.997423 24:-0.863788 25:-0.875921 26:0.459307 27:-0.99268 28:-0.980615 29:-0.873741 30:0.498275 31:-0.992132 32:-0.981623 33:0.999702 34:-0.959141 35:-0.731467 36:-0.871781 37:0.0425364 38:-0.831719 39:-0.753668 40:-0.873016 41:0.383878 42:-0.883625 43:-0.640223 44:-0.824221 45:-0.247383 46:-0.782478 47:-0.93211 48:-0.824221 49:-0.419897 50:-0.768398 51:-0.938839 
-1024 1:-0.753952 2:0.18283 3:-0.979221 4:-0.654297 5:-0.675449 6:-0.510197 7:0.398684 8:-0.960289 9:-0.528194 10:-0.291966 11:0.479657 12:-0.865233 13:-0.171318 14:0.0853815 15:-0.39924 16:-0.548032 17:-0.637417 18:0.275387 19:-0.896446 20:-0.7822 21:-0.633068 22:0.34464 23:-0.896288 24:-0.788835 25:-0.513765 26:0.384955 27:-0.87166 28:-0.864121 29:-0.508133 30:0.225426 31:-0.857354 32:-0.880202 33:0.999028 34:-0.670403 35:-0.521226 36:-0.50137 37:0.39641 38:-0.893918 39:-0.62857 40:-0.50301 41:0.439481 42:-0.88125 43:-0.658548 44:-0.443599 45:0.555587 46:-0.846356 47:-0.775915 48:-0.443599 49:0.157212 50:-0.811896 51:-0.813127 
1024 1:-0.954502 2:0.407406 3:-0.935697 4:-0.626664 5:-0.693959 6:-0.337134 7:0.391967 8:-0.779451 9:-0.753052 10:-0.653332 11:0.19614 12:-0.683077 13:-0.661069 14:-0.463209 15:-0.587709 16:-0.347328 17:-0.69426 18:0.363525 19:-0.767951 20:-0.420863 21:-0.696237 22:0.294995 23:-0.74901 24:-0.521268 25:-0.591314 26:-0.437626 27:-0.613916 28:-0.80395 29:-0.601084 30:-0.20994 31:-0.638073 32:-0.774981 33:0.901372 34:-0.211315 35:-0.0645768 36:-0.0827397 37:0.184833 38:-0.541957 39:-0.0883503 40:-0.06185 41:-0.0139442 42:-0.500594 43:-0.280906 44:0.0795848 45:-0.293894 46:-0.427309 47:-0.573715 48:0.050519 49:-0.113122 50:-0.456278 51:-0.517673 
