svm_type epsilon_svr
kernel_type rbf
gamma 0.019607843137254902
nr_class 2
total_sv 928
rho -1.2445850573687351
probA 12.827242345782357
SV
1024 1:-0.701235 2:0.548605 3:-0.956296 4:-0.59879 5:-0.688502 6:-0.0260376 7:0.401562 8:-0.928015 9:-0.468154 10:-0.534828 11:0.423905 12:-0.922526 13:-0.349112 14:-0.304864 15:-0.58118 16:-0.352772 17:-0.192818 18:-0.298008 19:-0.768364 20:-0.64398 21:-0.193935 22:0.0771672 23:-0.764223 24:-0.713328 25:-0.0865562 26:-0.289546 27:-0.707871 28:-0.725024 29:-0.0812785 30:0.167296 31:-0.69798 32:-0.733341 33:0.292901 34:-0.559115 35:-0.342463 36:-0.209057 37:-0.132444 38:-0.724204 39:-0.643246 40:-0.220588 41:0.241809 42:-0.756036 43:-0.632282 44:-0.100179 45:-0.308181 46:-0.696249 47:-0.708418 48:-0.111306 49:-0.143169 50:-0.686896 51:-0.726579 
994.99824809224583 1:-0.324862 2:0.38444 3:-0.968292 4:-0.626967 5:-0.679107 6:-0.519908 7:0.392237 8:-0.942227 9:-0.405805 10:-0.522967 11:0.571397 12:-0.912451 13:-0.233334 14:-0.180008 15:-0.513847 16:-0.458894 17:-0.0507416 18:-0.410372 19:-0.824814 20:-0.805133 21:-0.0247406 22:-0.0186665 23:-0.824015 24:-0.856926 25:0.0847145 26:-0.260587 27:-0.814439 28:-0.824328 29:0.0739726 30:0.268197 31:-0.813689 32:-0.814503 33:0.772417 34:-0.535965 35:-0.585573 36:-0.192453 37:-0.0695776 38:-0.9024 39:-0.839203 40:-0.227941 41:0.242961 42:-0.906614 43:-0.842026 44:-0.0322004 45:-0.226977 46:-0.883847 47:-0.881841 48:-0.100789 49:0.0414271 50:-0.887776 51:-0.862357 
-158.06515619156315 1:-0.669198 2:0.285809 3:-0.916002 4:-0.823228 5:-0.870638 6:0.0792808 7:-0.0551552 8:-0.938885 9:-0.824806 10:-0.828652 11:-0.0374176 12:-0.94324 13:-0.750612 14:-0.688308 15:-0.128796 16:0.595027 17:0.534738 18:-0.755939 19:0.348561 20:0.138885 21:0.56265 22:0.0460502 23:0.0154835 24:0.168054 25:0.583794 26:-0.578432 27:0.415463 28:0.23427 29:0.556164 30:0.0241563 31:0.379976 32:0.34541 33:0.951286 34:-0.107482 35:0.465565 36:0.453585 37:-0.42581 38:0.144036 39:0.0384999 40:0.404412 41:0.0875694 42:0.00991919 43:0.125991 44:0.513417 45:-0.489604 46:0.158045 47:0.0932158 48:0.468887 49:-0.190835 50:0.09375 51:0.133637 
1024 1:-0.928748 2:0.592311 3:-0.917544 4:-0.678422 5:-0.767762 6:-0.589669 7:0.208929 8:-0.83897 9:-0.758943 10:-0.782847 11:-0.0343628 12:-0.862765 13:-0.790762 14:-0.717446 15:-0.322763 16:-0.0445633 17:0.298985 18:-0.3423 19:-0.597404 20:-0.461064 21:0.302474 22:0.482696 23:-0.797064 24:-0.336161 25:0.38674 26:-0.305344 27:-0.525943 28:-0.519933 29:0.39726 30:-0.0348259 31:-0.464993 32:-0.583015 33:0.755645 34:-0.196362 35:0.0722482 36:0.258868 37:-0.265794 38:-0.381295 39:-0.358687 40:0.247059 41:0.430254 42:-0.568588 43:-0.210687 44:0.325581 45:-0.310244 46:-0.378012 47:-0.345662 48:0.332165 49:-0.260953 50:-0.340815 51:-0.423852 
1024 1:-0.715067 2:0.376915 3:-0.928896 4:-0.638372 5:-0.664459 6:-0.228882 7:0.280543 8:-0.855915 9:-0.531073 10:-0.588247 11:0.326236 12:-0.921234 13:-0.509126 14:-0.523022 15:-0.555029 16:-0.493607 17:-0.177205 18:-0.307072 19:-0.852083 20:-0.770411 21:-0.146049 22:0.0372769 23:-0.844987 24:-0.842053 25:-0.0994475 26:-0.107182 27:-0.843782 28:-0.771614 29:-0.0794521 30:0.219845 31:-0.803589 32:-0.822972 33:0.930678 34:-0.623398 35:-0.527909 36:-0.370566 37:-0.00756673 38:-0.859234 39:-0.725637 40:-0.388235 41:0.176705 42:-0.834809 43:-0.780943 44:-0.32737 45:-0.123425 46:-0.826441 47:-0.758628 48:-0.319895 49:-0.109188 50:-0.784962 51:-0.81911 
1024 1:-0.499495 2:0.461659 3:-0.89073 4:-0.677058 5:-0.763051 6:-0.408836 7:0.347808 8:-0.928355 9:-0.535897 10:-0.625058 11:0.474871 12:-0.925329 13:-0.271407 14:-0.260559 15:-0.526202 16:-0.384566 17:-0.133489 18:-0.319576 19:-0.787784 20:-0.690653 21:-0.0726257 22:0.0366236 23:-0.787694 24:-0.77701 25:0.0441989 26:-0.347974 27:-0.737215 28:-0.790826 29:0.0155251 30:0.206578 31:-0.744754 32:-0.763924 33:0.306258 34:-0.466308 35:-0.44003 36:-0.138113 37:-0.0526302 38:-0.816069 39:-0.706065 40:-0.108824 41:0.226047 42:-0.827454 43:-0.74436 44:0.0697674 45:-0.41005 46:-0.767962 47:-0.831954 48:0.0254163 49:-0.0211592 50:-0.802227 51:-0.785851 
-1024 1:-0.646321 2:0.277085 3:-0.914832 4:-0.770551 5:-0.805427 6:0.127196 7:-0.00337603 8:-0.614096 9:-0.74133 10:-0.763802 11:0.0490894 12:-0.876638 13:-0.581605 14:-0.478902 15:-0.287965 16:0.446785 17:0.26776 18:-0.660378 19:0.18394 20:0.0790036 21:0.289705 22:0.0821885 23:-0.125786 24:0.0599633 25:0.316759 26:-0.459718 27:0.210713 28:0.145773 29:0.293151 30:0.188835 31:0.192489 32:0.275775 33:0.903119 34:-0.373915 35:0.354304 36:0.168302 37:-0.356362 38:0.0940283 39:0.0606505 40:0.120588 41:0.0672464 42:-0.0435961 43:0.0392994 44:0.246869 45:-0.619377 46:0.137658 47:-0.0638641 48:0.176161 49:0.0622413 50:-0.0501554 51:0.24362 
-1024 1:-0.824282 2:0.618877 3:-0.937842 4:-0.459943 5:-0.447223 6:-0.628729 7:0.408009 8:-0.799559 9:-0.509498 10:-0.548183 11:0.372432 12:-0.947137 13:-0.433284 14:-0.454541 15:-0.746937 16:-0.375438 17:-0.317721 18:-0.191343 19:-0.802073 20:-0.589508 21:-0.339186 22:0.165273 23:-0.78689 24:-0.648704 25:-0.220994 26:-0.253455 27:-0.72054 28:-0.717099 29:-0.201826 30:0.0884134 31:-0.68484 32:-0.759454 33:0.893496 34:-0.679 35:-0.195201 36:-0.22566 37:-0.138378 38:-0.57881 39:-0.466042 40:-0.217647 41:0.328839 42:-0.672618 43:-0.436617 44:-0.118068 45:-0.293514 46:-0.556847 47:-0.542737 48:-0.125329 49:-0.223551 50:-0.516747 51:-0.6009 
-1024 1:-0.105914 2:0.160547 3:-0.942755 4:-0.85806 5:-0.901047 6:0.278424 7:-0.0768388 8:-0.977238 9:-0.772984 10:-0.779142 11:0.146118 12:-0.959431 13:-0.458187 14:-0.378902 15:-0.640482 16:-0.0399994 17:-0.178767 18:-0.538531 19:-0.357416 20:-0.38357 21:-0.160415 22:0.0434742 23:-0.495873 24:-0.433464 25:-0.121547 26:-0.426372 27:-0.291849 28:-0.393732 29:-0.134247 30:0.153709 31:-0.321141 32:-0.339528 33:0.931532 34:-0.740389 35:-0.153549 36:-0.341887 37:-0.210961 38:-0.463501 39:-0.400762 40:-0.345588 41:0.00236809 42:-0.452654 43:-0.491824 44:-0.264758 45:-0.500206 46:-0.372915 47:-0.509515 48:-0.288344 49:-0.116203 50:-0.442162 51:-0.437901 
-1024 1:-0.886183 2:0.739993 3:-0.947259 4:-0.466604 5:-0.611492 6:-0.679891 7:0.332465 8:-0.806631 9:-0.658488 10:-0.718248 11:0.032717 12:-0.926155 13:-0.677765 14:-0.609789 15:-0.651395 16:-0.371458 17:-0.308353 18:-0.363893 19:-0.75327 20:-0.678828 21:-0.278532 22:0.426043 23:-0.904779 24:-0.56376 25:-0.151013 26:-0.240967 27:-0.754821 28:-0.746998 29:-0.174429 30:0.333733 31:-0.757011 32:-0.72299 33:0.86816 34:-0.535965 35:-0.169187 36:-0.175849 37:-0.248588 38:-0.534739 39:-0.518898 40:-0.166176 41:0.475386 42:-0.717521 43:-0.35957 44:-0.0178891 45:-0.460208 46:-0.53333 47:-0.627029 48:-0.0604733 49:-0.0697735 50:-0.583995 51:-0.557104 
1024 1:-0.884442 2:0.514162 3:-0.837535 4:-0.714859 5:-0.781493 6:-0.316217 7:0.182233 8:-0.519294 9:-0.780851 10:-0.817972 11:0.225239 12:-0.719734 13:-0.710233 14:-0.674293 15:-0.125914 16:0.149886 17:0.319282 18:-0.18643 19:-0.431576 20:-0.0590011 21:0.406225 22:0.391398 23:-0.609031 24:-0.136214 25:0.541436 26:-0.463835 27:-0.286726 28:-0.389169 29:0.523288 30:0.0312294 31:-0.283781 32:-0.358819 33:0.999103 34:0.0543613 35:0.279761 36:0.316226 37:0.0360715 38:-0.193037 39:0.213712 40:0.310294 41:0.158763 42:-0.156239 43:0.019234 44:0.547406 45:-0.86156 46:0.0503867 47:-0.331362 48:0.488168 49:-0.582739 50:0.0344441 51:-0.310795 
1024 1:-0.35635 2:0.285037 3:-0.879086 4:-0.735018 5:-0.771876 6:-0.53206 7:-0.0482438 8:-0.793712 9:-0.681787 10:-0.658129 11:-0.0535902 12:-0.940629 13:-0.612064 14:-0.461983 15:-0.396891 16:-0.052431 17:0.189696 18:-0.361142 19:-0.528376 20:-0.389483 21:0.235435 22:0.0173785 23:-0.57628 24:-0.554019 25:0.255985 26:-0.300096 27:-0.467443 28:-0.450168 29:0.254795 30:0.165498 31:-0.450088 32:-0.461154 33:0.973281 34:-0.252997 35:-0.0223136 36:0.201509 37:-0.0497538 38:-0.499019 39:-0.28661 40:0.241176 41:0.0211876 42:-0.466686 43:-0.478521 44:0.32737 45:-0.345195 46:-0.426745 47:-0.426621 48:0.319895 49:-0.148287 50:-0.444492 51:-0.448878 
-1024 1:-0.535951 2:0.434584 3:-0.935563 4:-0.460353 5:-0.504805 6:-0.256758 7:0.447725 8:-0.938032 9:-0.302096 10:-0.430943 11:0.62926 12:-0.930532 13:-0.300988 14:-0.290931 15:-0.415011 16:-0.277967 17:0.0897736 18:-0.281278 19:-0.754377 20:-0.616304 21:0.139665 22:-0.0153065 23:-0.730043 24:-0.754491 25:0.200737 26:-0.0852206 27:-0.744574 28:-0.621518 29:0.212785 30:0.123539 31:-0.666209 32:-0.713698 33:0.92834 34:-0.571104 35:-0.397242 36:-0.187925 37:0.15447 38:-0.850682 39:-0.594843 40:-0.230882 41:0.22948 42:-0.794745 43:-0.69403 44:-0.112701 45:-0.0437446 46:-0.802745 47:-0.684873 48:-0.130587 49:-0.099701 50:-0.737828 51:-0.756984 
279.60995902516873 1:-0.716906 2:0.509696 3:0.264852 4:-0.649563 5:-0.690311 6:-0.042345 7:0.0938053 8:-0.97396 9:-0.329732 10:-0.366994 11:0.387746 12:-0.923129 13:0.0132477 14:0.192549 15:-0.355297 16:0.111762 17:0.247463 18:-0.32987 19:-0.467599 20:-0.277142 21:0.142857 22:-0.264579 23:-0.286957 24:-0.574863 25:0.191529 26:1 27:-0.734234 28:0.65694 29:0.273059 30:-1 31:0.112767 32:-0.623713 33:0.952818 34:-0.569657 35:-0.0372342 36:-0.231698 37:-0.794429 38:0.0187654 39:-0.525344 40:-0.229412 41:-0.673428 42:0.0282092 43:-0.685162 44:-0.166369 45:1 46:-0.727098 47:0.450489 48:-0.141104 49:0.0983211 50:-0.413501 51:-0.188409 
-1024 1:-0.810433 2:0.340947 3:-0.780242 4:-0.828044 5:-0.876874 6:-0.305089 7:-0.238623 8:-0.887558 9:-0.81768 10:-0.799289 11:0.0885835 12:-0.94572 13:-0.510103 14:-0.472055 15:-0.475754 16:-0.510818 17:-0.117877 18:-0.359668 19:-0.851379 20:-0.806139 21:-0.128492 22:0.190603 23:-0.889519 24:-0.783713 25:0.0976059 26:-0.227538 27:-0.847229 28:-0.844741 29:0.0611872 30:0.257648 31:-0.837027 32:-0.844145 33:0.968062 34:-0.714965 35:-0.620572 36:-0.541132 37:-0.165846 38:-0.841827 39:-0.810255 40:-0.535294 41:0.393392 42:-0.915324 43:-0.731057 44:-0.436494 45:-0.438177 46:-0.809183 47:-0.898183 48:-0.465381 49:-0.190432 50:-0.804731 51:-0.887712 
1024 1:-0.685981 2:0.250122 3:-0.857086 4:-0.826081 5:-0.870535 6:-0.315249 7:-0.248293 8:-0.915083 9:-0.879386 10:-0.87485 11:-0.0856582 12:-0.916444 13:-0.609307 14:-0.498494 15:-0.43519 16:-0.120982 17:0.0460578 18:-0.371705 19:-0.593882 20:-0.483457 21:0.0550678 22:0.261237 23:-0.713355 24:-0.450956 25:0.119705 26:-0.3406 27:-0.514113 28:-0.542147 29:0.0995434 30:0.305401 31:-0.538341 32:-0.479856 33:0.948598 34:-0.65771 35:-0.157944 36:-0.258868 37:-0.139 38:-0.541681 39:-0.419748 40:-0.273529 41:0.316109 42:-0.607684 43:-0.353805 44:-0.184258 45:-0.502936 46:-0.416462 47:-0.548436 48:-0.207713 49:0.0421171 50:-0.535307 51:-0.403326 
-1024 1:-0.417566 2:0.229662 3:-0.93634 4:-0.663638 5:-0.64857 6:-0.0342909 7:0.178691 8:-0.92949 9:-0.247012 10:-0.315436 11:0.570772 12:-0.9371 13:0.0751412 14:0.0628389 15:-0.482755 16:-0.201779 17:0.189696 18:-0.505662 19:-0.642282 20:-0.659077 21:0.222666 22:-0.066322 23:-0.668109 24:-0.731762 25:0.276243 26:-0.315355 27:-0.624592 28:-0.642051 29:0.263927 30:0.0976443 31:-0.59796 32:-0.654414 33:0.922071 34:-0.547954 35:-0.475044 36:-0.0913208 37:-0.214589 38:-0.814861 39:-0.811896 40:-0.0955882 41:0.0528123 42:-0.813035 43:-0.834377 44:0.039356 45:-0.2645 46:-0.817499 47:-0.820449 48:0.0184049 49:-0.0472919 50:-0.819492 51:-0.820098 
-1024 1:-0.51797 2:0.271366 3:-0.916036 4:-0.757262 5:-0.775745 6:0.511896 7:-0.0223741 8:-0.896532 9:-0.612857 10:-0.578194 11:0.202195 12:-0.944577 13:-0.274205 14:-0.170848 15:-0.690312 16:-0.424242 17:-0.362998 18:-0.437763 19:-0.734152 20:-0.718581 21:-0.353551 22:0.133988 23:-0.807416 24:-0.709662 25:-0.311234 26:-0.295359 27:-0.701723 28:-0.729707 29:-0.320548 30:0.239505 31:-0.704354 32:-0.711227 33:0.997483 34:-0.79537 35:-0.47162 36:-0.529057 37:-0.254366 38:-0.704483 39:-0.718723 40:-0.533824 41:0.176154 42:-0.760778 43:-0.680838 44:-0.463327 45:-0.372496 46:-0.687039 47:-0.748414 48:-0.479404 49:-0.0957049 50:-0.704506 51:-0.728006 
-383.83222048514335 1:-0.248207 2:0.25317 3:-0.852486 4:-0.792035 5:-0.824813 6:-0.0908892 7:-0.0125713 8:-0.925148 9:-0.627061 10:-0.665405 11:0.313211 12:-0.952739 13:-0.0278533 14:0.0214443 15:-0.631834 16:-0.373579 17:-0.333333 18:-0.404255 19:-0.699135 20:-0.646371 21:-0.302474 22:0.112297 23:-0.772522 24:-0.687248 25:-0.265193 26:-0.242259 27:-0.688216 28:-0.67183 29:-0.265753 30:0.156427 31:-0.655521 32:-0.699935 33:0.996787 34:-0.772427 35:-0.45652 36:-0.529057 37:-0.105882 38:-0.727323 39:-0.612423 40:-0.533824 41:0.191766 42:-0.752262 43:-0.655784 44:-0.465116 45:-0.269579 46:-0.703581 47:-0.699387 48:-0.477651 49:-0.10019 50:-0.693629 51:-0.719006 
1024 1:-0.797713 2:0.757116 3:-0.948236 4:-0.453354 5:-0.601492 6:-0.455304 7:0.494206 8:-0.933496 9:-0.604022 10:-0.693968 11:0.116184 12:-0.954527 13:-0.772578 14:-0.759979 15:-0.492433 16:-0.225828 17:0.124122 18:-0.23367 19:-0.768766 20:-0.597434 21:0.107741 22:0.555085 23:-0.898621 24:-0.44907 25:0.198895 26:0.11679 27:-0.789101 28:-0.528698 29:0.247489 30:0.268397 31:-0.70053 32:-0.685703 33:0.981336 34:-0.267673 35:0.129867 36:0.313208 37:-0.0920446 38:-0.451024 39:-0.270319 40:0.288235 41:0.797497 42:-0.68307 43:0.00814811 44:0.366726 45:0.102282 46:-0.489605 47:-0.149231 48:0.42156 49:-0.33179 50:-0.323809 51:-0.458756 
-1024 1:-0.952922 2:0.210686 3:-0.979407 4:-0.31569 5:-0.224808 6:-0.701575 7:0.318436 8:-0.887654 9:-0.483888 10:-0.466265 11:0.174721 12:-0.931095 13:-0.601265 14:-0.467427 15:-0.915371 16:-0.869353 17:-0.781421 18:-0.426683 19:-0.939324 20:-0.956976 21:-0.781325 22:0.0566901 23:-0.951363 24:-0.953181 25:-0.740331 26:-0.224416 27:-0.942711 28:-0.963377 29:-0.742466 30:0.259925 31:-0.940086 32:-0.963889 33:-0.918004 34:-0.895205 35:-0.802504 36:-0.695094 37:-0.135838 38:-0.948081 39:-0.926868 40:-0.697059 41:0.254439 42:-0.968452 43:-0.911424 44:-0.627907 45:-0.219231 46:-0.939464 47:-0.945705 48:-0.631902 49:-0.00681348 50:-0.937327 51:-0.946435 
-1024 1:-0.764767 2:0.405431 3:-0.956748 4:-0.638678 5:-0.661464 6:-0.0643456 7:0.296616 8:-0.885008 9:-0.588777 10:-0.654071 11:0.264075 12:-0.959739 13:-0.555093 14:-0.480558 15:-0.78503 16:-0.650148 17:-0.509758 18:-0.418945 19:-0.873214 20:-0.87143 21:-0.503591 22:0.113791 23:-0.909419 24:-0.862372 25:-0.443831 26:-0.226246 27:-0.876013 28:-0.883766 29:-0.477626 30:0.379728 31:-0.883507 32:-0.855202 33:0.284464 34:-0.796197 35:-0.665259 36:-0.628679 37:-0.0608707 38:-0.892137 39:-0.797246 40:-0.641176 41:0.235669 42:-0.89626 43:-0.810432 44:-0.550984 45:-0.331005 46:-0.847722 47:-0.892592 48:-0.575811 49:0.0992985 50:-0.890366 51:-0.828989 
672.69810314442077 1:-0.586762 2:0.547852 3:-0.985393 4:-0.64426 5:-0.757637 6:-0.180547 7:0.416185 8:-0.995667 9:-0.618487 10:-0.725872 11:0.15259 12:-0.915499 13:-0.723264 14:-0.697154 15:0.155359 16:0.386241 17:0.442623 18:-0.527256 19:-0.00865365 20:0.0471757 21:0.545092 22:0.029157 23:-0.208424 24:-0.117675 25:0.552486 26:-0.177371 27:-0.0538426 28:0.194284 29:0.552511 30:0.139323 31:0.0512846 32:0.0808681 33:0.948107 34:0.551881 35:0.366429 36:0.532075 37:-0.0266909 38:-0.181868 39:0.142104 40:0.526471 41:0.167233 42:-0.162046 43:0.02001 44:0.581395 45:-0.0698073 46:-0.111548 47:0.19084 48:0.554777 49:-0.179077 50:-0.000345304 51:0.0395697 
1024 1:-0.917759 2:0.334307 3:-0.894875 4:-0.709563 5:-0.728227 6:0.0818538 7:-0.194017 8:-0.778166 9:-0.838254 10:-0.802388 11:-0.32786 12:-0.809383 13:-0.79205 14:-0.662071 15:-0.592093 16:0.17999 17:0.0444965 18:-0.629695 19:-0.116422 20:-0.216254 21:0.0247406 22:0.285298 23:-0.469725 24:-0.0550406 25:0.154696 26:-0.629109 27:-0.051048 28:-0.331892 29:0.112329 30:-0.00417591 31:-0.113061 32:-0.220608 33:0.88273 34:-0.442952 35:0.426171 36:0.231698 37:-0.48396 38:0.283493 39:0.102022 40:0.183824 41:0.042538 42:0.0681763 43:0.134083 44:0.318426 45:-0.747818 46:0.291456 47:-0.0274164 48:0.265557 49:-0.267479 50:0.162293 51:0.118051 
1024 1:-0.61468 2:0.570691 3:-0.767543 4:-0.569612 5:-0.618607 6:-0.332094 7:0.276841 8:-0.724594 9:-0.609359 10:-0.652219 11:0.181403 12:-0.840003 13:-0.629197 14:-0.581581 15:-0.484402 16:0.183785 17:0.135051 18:-0.00456924 19:-0.440129 20:0.185684 21:0.216281 22:-0.117188 23:-0.280532 24:-0.396177 25:0.237569 26:-0.402985 27:-0.162739 28:-0.206532 29:0.214612 30:-0.0665548 31:-0.0948225 32:-0.240957 33:0.913578 34:-0.318107 35:0.316883 36:0.272453 37:0.193755 38:-0.270312 39:0.317433 40:0.282353 41:-0.274085 42:0.0760149 43:-0.222992 44:0.386404 45:-0.638424 46:0.0624581 47:-0.147834 48:0.333918 49:-0.380807 50:0.0390193 51:-0.130234 
1024 1:-0.807026 2:0.656935 3:-0.948257 4:-0.585319 5:-0.676019 6:-0.337817 7:0.349654 8:-0.920532 9:-0.574035 10:-0.608312 11:0.25217 12:-0.859414 13:-0.531979 14:-0.433058 15:-0.530938 16:-0.347532 17:-0.105386 18:-0.132361 19:-0.829241 20:-0.594792 21:-0.0359138 22:0.24888 23:-0.852215 24:-0.676146 25:0.0202578 26:-0.378171 27:-0.691476 28:-0.762968 29:-0.00639269 30:0.620532 31:-0.793489 32:-0.631477 33:0.956023 34:-0.449566 35:-0.126743 36:0.0188679 37:0.0143301 38:-0.637068 39:-0.403223 40:-0.00294118 41:0.117891 42:-0.565201 43:-0.504684 44:0.125224 45:-0.699756 46:-0.404837 47:-0.64735 48:0.100789 49:0.0652599 50:-0.597635 51:-0.466879 
-1024 1:-0.514944 2:0.223289 3:-0.918981 4:-0.802186 5:-0.844536 6:-0.115257 7:-0.0159606 8:-0.838554 9:-0.610921 10:-0.610381 11:0.147812 12:-0.929631 13:-0.373712 14:-0.221537 15:-0.558118 16:-0.0724691 17:-0.199063 18:-0.26988 19:-0.49839 20:-0.235753 21:-0.160415 22:-0.0807698 23:-0.450181 24:-0.538413 25:-0.106814 26:-0.463862 27:-0.316721 28:-0.455692 29:-0.141553 30:0.316949 31:-0.3889 32:-0.298006 33:0.998682 34:-0.715378 35:-0.211751 36:-0.409811 37:-0.0886758 38:-0.522966 39:-0.334544 40:-0.414706 41:-0.0833845 42:-0.43359 43:-0.560667 44:-0.325581 45:-0.553125 46:-0.383735 47:-0.566176 48:-0.363716 49:0.00669848 50:-0.502935 51:-0.395642 
-1024 1:-0.577754 2:0.315785 3:-0.919256 4:-0.726037 5:-0.75246 6:-0.292521 7:0.0996212 8:-0.914897 9:-0.598287 10:-0.617878 11:0.301399 12:-0.909045 13:-0.502472 14:-0.436198 15:-0.241017 16:-0.026738 17:0.369243 18:-0.406761 19:-0.559368 20:-0.474022 21:0.39186 22:0.0471142 23:-0.605194 24:-0.555381 25:0.480663 26:-0.292856 27:-0.509921 28:-0.489553 29:0.457534 30:0.175208 31:-0.485782 32:-0.491501 33:0.817629 34:-0.295577 35:-0.162863 36:0.181887 37:-0.1702 38:-0.629018 39:-0.560738 40:0.114706 41:0.177306 42:-0.649006 43:-0.555457 44:0.246869 45:-0.337735 46:-0.581973 47:-0.594882 48:0.16915 49:-0.0303875 50:-0.600397 51:-0.544482 
-1024 1:-0.933836 2:0.574843 3:-0.902573 4:-0.662235 5:-0.746279 6:-0.675781 7:0.17089 8:-0.886205 9:-0.760163 10:-0.794869 11:-0.0161116 12:-0.866166 13:-0.736442 14:-0.687837 15:-0.441367 16:-0.0219589 17:0.167838 18:-0.300661 19:-0.586537 20:-0.403447 21:0.179569 22:0.493691 23:-0.785998 24:-0.2884 25:0.28361 26:-0.434823 27:-0.462972 28:-0.558718 29:0.258447 30:0.129133 31:-0.475976 32:-0.509969 33:0.940708 34:-0.351798 35:0.129912 36:0.159245 37:-0.224799 38:-0.309151 39:-0.235628 40:0.160294 41:0.368759 42:-0.487299 43:-0.157142 44:0.232558 45:-0.527475 46:-0.219028 47:-0.346307 48:0.183173 49:-0.0677035 50:-0.313795 51:-0.227485 
1024 1:-0.676627 2:0.436764 3:-0.922863 4:-0.680924 5:-0.731422 6:-0.193148 7:0.257043 8:-0.858108 9:-0.61424 10:-0.658272 11:0.285788 12:-0.894451 13:-0.554215 14:-0.540484 15:-0.56656 16:-0.064709 17:-0.152225 18:-0.258064 19:-0.523747 20:-0.258775 21:-0.134876 22:-0.0179571 23:-0.485967 24:-0.49945 25:-0.0883978 26:-0.308492 27:-0.392455 28:-0.381964 29:-0.0940639 30:0.024476 31:-0.327711 32:-0.432688 33:0.929965 34:-0.611203 35:-0.115365 36:-0.224151 37:-0.0944804 38:-0.493586 39:-0.31298 40:-0.239706 41:-0.00948491 42:-0.427687 43:-0.473643 44:-0.127013 45:-0.451827 46:-0.400903 47:-0.491345 48:-0.142857 49:-0.16821 50:-0.430335 51:-0.463915 
-1024 1:-0.278945 2:0.647691 3:-0.939997 4:-0.413018 5:-0.507678 6:-0.518613 7:0.575801 8:-0.916876 9:-0.290121 10:-0.438338 11:0.645999 12:-0.929148 13:-0.192282 14:-0.210813 15:-0.692371 16:-0.773957 17:-0.387978 18:-0.384209 19:-0.952506 20:-0.950686 21:-0.441341 22:0.172497 23:-0.97296 24:-0.92354 25:-0.274401 26:-0.181812 27:-0.953889 28:-0.954371 29:-0.287671 30:0.362025 31:-0.954893 32:-0.949891 33:0.893067 34:-0.699669 35:-0.769628 36:-0.510943 37:-0.186758 38:-0.938321 39:-0.942924 40:-0.529412 41:0.351317 42:-0.975226 43:-0.884707 44:-0.398927 45:-0.247135 46:-0.938034 47:-0.952693 48:-0.414549 49:0.0431233 50:-0.946996 51:-0.938862 
1024 1:-0.427866 2:0.245058 3:-0.875074 4:-0.790235 5:-0.833466 6:-0.32904 7:0.0369206 8:-0.577501 9:-0.727004 10:-0.739639 11:0.294327 12:-0.901335 13:-0.485831 14:-0.452435 15:0.0791722 16:0.13767 17:0.384856 18:-0.565578 19:-0.27098 20:-0.297648 21:0.423783 22:0.0505861 23:-0.422426 24:-0.337732 25:0.552486 26:-0.426291 27:-0.268188 28:-0.334294 29:0.534247 30:0.146397 31:-0.284762 32:-0.286714 33:0.979717 34:-0.38549 35:-0.126593 36:-0.0535849 37:-0.155403 38:-0.495397 39:-0.383416 40:-0.0911765 41:0.272932 42:-0.551556 43:-0.335181 44:0.125224 45:-0.567538 46:-0.421648 47:-0.58026 48:0.0815074 49:-0.117842 50:-0.502158 51:-0.496076 
1024 1:-0.731118 2:0.500421 3:-0.93551 4:-0.521757 5:-0.605716 6:-0.018949 7:0.525924 8:-0.897295 9:-0.332132 10:-0.502357 11:0.627237 12:-0.945372 13:-0.259649 14:-0.279795 15:-0.596829 16:-0.380063 17:-0.238095 18:-0.173385 19:-0.807406 20:-0.586866 21:-0.219473 22:0.0487568 23:-0.76806 24:-0.744331 25:-0.171271 26:-0.162273 27:-0.742245 28:-0.674472 29:-0.16347 30:0.209694 31:-0.704354 32:-0.722284 33:0.943383 34:-0.661844 35:-0.34499 36:-0.30717 37:0.0674268 38:-0.758414 39:-0.508702 40:-0.319118 41:0.224743 42:-0.726133 43:-0.602683 44:-0.236136 45:-0.145297 46:-0.700899 47:-0.611225 48:-0.239264 49:-0.0655761 50:-0.675414 51:-0.665331 
-1024 1:-0.915605 2:0.463243 3:-0.921418 4:-0.800237 5:-0.871265 6:-0.0664783 7:-0.376685 8:-0.900163 9:-1 10:-0.99527 11:-0.658691 12:-0.924412 13:-0.941142 14:-0.879799 15:-0.457016 16:-0.619752 17:-0.0507416 18:-0.351045 19:-0.91779 20:-0.890552 21:0.0407023 22:0.0902337 23:-0.93057 24:-0.912438 25:0.191529 26:-0.198229 27:-0.911132 28:-0.907181 29:0.174429 30:0.298967 31:-0.906452 32:-0.908369 33:-0.921975 34:-0.568623 35:-0.676995 36:-0.372075 37:-0.129671 38:-0.920109 39:-0.893232 40:-0.391176 41:0.130471 42:-0.913679 43:-0.908763 44:-0.184258 45:-0.306498 46:-0.904055 47:-0.933233 48:-0.20596 49:-0.0666686 50:-0.905818 51:-0.929093 
-1024 1:-0.31462 2:0.473922 3:-0.914379 4:-0.459196 5:-0.494735 6:0.00852823 7:0.322114 8:-0.918951 9:-0.471067 10:-0.531303 11:0.240299 12:-0.901267 13:-0.561091 14:-0.522394 15:-0.690106 16:-0.348347 17:-0.339578 18:-0.19918 19:-0.769672 20:-0.543339 21:-0.297686 22:0.0960016 23:-0.77047 24:-0.701388 25:-0.25046 26:-0.222263 27:-0.699115 28:-0.668468 29:-0.263927 30:0.297808 31:-0.685625 32:-0.658413 33:0.248582 34:-0.616577 35:-0.255152 36:-0.249811 37:0.305494 38:-0.78055 39:-0.307003 40:-0.217647 41:-0.101001 42:-0.579813 43:-0.704118 44:-0.121646 45:-0.474652 46:-0.573926 47:-0.680679 48:-0.155127 49:-0.108987 50:-0.610756 51:-0.619779 
1024 1:-0.914234 2:0.534532 3:-0.945886 4:-0.654359 5:-0.739826 6:-0.180804 7:0.341378 8:-0.904137 9:-0.623067 10:-0.696106 11:0.394414 12:-0.738359 13:-0.546995 14:-0.556862 15:-0.605683 16:-0.472202 17:-0.252147 18:-0.246026 19:-0.847655 20:-0.715058 21:-0.24182 22:0.193907 23:-0.872027 24:-0.749673 25:-0.14733 26:-0.184423 27:-0.811644 28:-0.778338 29:-0.165297 30:0.209175 31:-0.779761 32:-0.803211 33:0.270928 34:-0.617817 35:-0.402235 36:-0.299623 37:-0.0689816 38:-0.767369 39:-0.645239 40:-0.339706 41:0.263385 42:-0.775294 43:-0.634943 44:-0.216458 45:-0.312815 46:-0.712255 47:-0.730674 48:-0.234005 49:-0.0944975 50:-0.717196 51:-0.732836 
-1024 1:-0.657358 2:0.43621 3:-0.878382 4:-0.732535 5:-0.785253 6:-0.483838 7:0.190851 8:-0.693637 9:-0.675336 10:-0.705466 11:0.429778 12:-0.445752 13:-0.40198 14:-0.269219 15:-0.255225 16:-0.045224 17:0.116315 18:0.0186946 19:-0.634937 20:-0.109322 21:0.150838 22:0.0030613 23:-0.51854 24:-0.505734 25:0.314917 26:-0.518604 27:-0.394504 28:-0.555355 29:0.258447 30:-0.116626 31:-0.363993 32:-0.5342 33:0.964205 34:-0.501033 35:-0.111194 36:-0.0913208 37:0.2851 38:-0.641395 39:-0.105889 40:-0.139706 41:0.132225 42:-0.485847 43:-0.396597 44:0.0697674 45:-0.566236 46:-0.415836 47:-0.576605 48:0.0446976 49:-0.36373 50:-0.407631 51:-0.584436 
-1024 1:-0.721471 2:0.411234 3:-0.888491 4:-0.783237 5:-0.834934 6:0.0768343 7:-0.076072 8:-0.904489 9:-0.839783 10:-0.853394 11:-0.0844747 12:-0.940344 13:-0.775844 14:-0.703168 15:-0.469371 16:0.130939 17:0.0320062 18:-0.212126 19:-0.398571 20:-0.0319537 21:0.047087 22:0.0455648 23:-0.382803 24:-0.298455 25:0.0405157 26:-0.195861 27:-0.228971 28:-0.0539145 29:0.0502283 30:0.0620392 31:-0.121592 32:-0.183791 33:0.925363 34:-0.38797 35:0.238826 36:0.0883019 37:-0.166442 38:-0.144338 39:0.0253736 40:0.0573529 41:0.0137199 42:-0.124692 43:-0.115903 44:0.135957 45:-0.298498 46:-0.0894622 47:-0.00677347 48:0.114812 49:-0.178645 50:-0.0558529 51:-0.0383623 
-1024 1:-0.623036 2:0.249999 3:-0.767773 4:-0.820466 5:-0.859128 6:-0.406593 7:-0.0714013 8:-0.614 9:-0.781518 10:-0.795072 11:0.166577 12:-0.929643 13:-0.569551 14:-0.512573 15:-0.418305 16:-0.135918 17:-0.0039032 18:-0.438524 19:-0.532401 20:-0.47377 21:0.0151636 22:0.228254 23:-0.680782 24:-0.44132 25:0.112339 26:-0.351123 27:-0.507406 28:-0.543828 29:0.114155 30:0.0253951 31:-0.471759 32:-0.56737 33:0.996515 34:-0.596527 35:-0.221992 36:-0.221132 37:-0.235087 38:-0.52679 39:-0.497685 40:-0.251471 41:0.359662 42:-0.661102 43:-0.385289 44:-0.116279 45:-0.438684 46:-0.525462 47:-0.609182 48:-0.137599 49:-0.179364 50:-0.540142 51:-0.593217 
-24.08131559589857 1:-0.923748 2:0.364444 3:-0.872624 4:-0.777973 5:-0.832306 6:-0.127171 7:-0.106629 8:-0.89116 9:-0.85786 10:-0.856282 11:-0.173234 12:-0.918598 13:-0.730255 14:-0.625638 15:-0.275816 16:0.288647 17:0.322404 18:-0.646891 19:-0.0591668 20:-0.16153 21:0.348763 22:0.368607 23:-0.465173 24:0.0592302 25:0.406998 26:-0.507946 27:-0.00950163 28:-0.144933 29:0.377169 30:0.0947272 31:-0.0399098 32:-0.0586367 33:0.999799 34:-0.119884 35:0.445651 36:0.429434 37:-0.560534 38:0.239523 39:-0.0233812 40:0.388235 41:0.390259 42:-0.138724 43:0.332742 44:0.534884 45:-0.648487 46:0.220995 47:0.00935383 48:0.503944 49:-0.213086 50:0.0905559 51:0.106745 
1024 1:-0.307624 2:0.292073 3:-0.927601 4:-0.811466 5:-0.865567 6:0.0355368 7:0.0110344 8:-0.930761 9:-0.690037 10:-0.668607 11:0.150519 12:-0.915977 13:-0.535269 14:-0.351394 15:-0.531762 16:0.230746 17:0.0741608 18:-0.298646 19:-0.260314 20:0.0396276 21:0.11253 22:-0.107855 23:-0.223149 24:-0.330296 25:0.12523 26:-0.2787 27:-0.125664 28:-0.0258165 29:0.128767 30:-0.0917701 31:0.00911944 32:-0.159913 33:0.895304 34:-0.628566 35:0.129404 36:-0.04 37:-0.0750972 38:-0.314283 39:-0.0690888 40:-0.0544118 41:-0.0918044 42:-0.211109 43:-0.326756 44:0.0304114 45:-0.293514 46:-0.227791 47:-0.163423 48:0.0236635 49:-0.254974 50:-0.176623 51:-0.255804 
1024 1:-0.667741 2:0.27552 3:-0.8645 4:-0.831072 5:-0.889935 6:0.299821 7:-0.0844042 8:-0.803719 9:-0.788547 10:-0.787189 11:0.0436085 12:-0.896105 13:-0.622165 14:-0.554287 15:-0.434366 16:0.24496 17:0.0725995 18:-0.231164 19:-0.247333 20:0.152598 21:0.102953 22:-0.234675 23:-0.0976752 24:-0.375334 25:0.116022 26:-0.311049 27:-0.0629716 28:0.00900576 29:0.112329 30:-0.119263 31:0.0744264 32:-0.116626 33:0.937245 34:-0.494212 35:0.18481 36:-0.00528302 37:-0.284167 38:-0.0897017 39:-0.0561969 40:-0.0147059 41:-0.317412 42:0.00430638 43:-0.353694 44:0.0697674 45:-0.430367 46:-0.0790003 47:-0.122998 48:0.0446976 49:-0.196038 50:-0.103591 51:-0.114428 
-1024 1:-0.706803 2:0.53385 3:-0.926648 4:-0.556803 5:-0.634075 6:-0.441511 7:0.424441 8:-0.897571 9:-0.471897 10:-0.544095 11:0.467301 12:-0.868174 13:-0.46787 14:-0.409809 15:-0.284258 16:-0.189379 17:0.175644 18:-0.187412 19:-0.723083 20:-0.487483 21:0.235435 22:0.101471 23:-0.717103 24:-0.635088 25:0.305709 26:-0.216853 27:-0.641919 28:-0.588377 29:0.287671 30:0.281704 31:-0.62473 32:-0.59219 33:0.982991 34:-0.426829 35:-0.191583 36:-0.0490566 37:0.0627624 38:-0.67812 39:-0.411544 40:-0.0514706 41:0.168761 42:-0.626651 43:-0.532842 44:0.0572451 45:-0.355957 46:-0.55792 47:-0.583271 48:0.00788782 49:-0.0652024 50:-0.578211 51:-0.545579 
1024 1:0.0433898 2:-0.108035 3:-0.865903 4:-0.779409 5:-0.735829 6:-0.0938829 7:-0.234065 8:-0.881326 9:-0.644617 10:-0.583652 11:0.0667931 12:-0.931974 13:-0.518776 14:-0.428422 15:-0.172655 16:-0.129572 17:0.416081 18:-0.722677 19:-0.52586 20:-0.699082 21:0.431764 22:-0.105559 23:-0.611352 24:-0.705577 25:0.506446 26:-0.249068 27:-0.604471 28:-0.566042 29:0.490411 30:0.256449 31:-0.589723 32:-0.563842 33:0.99669 34:-0.482017 35:-0.560905 36:-0.0958491 37:-0.188572 38:-0.867787 39:-0.85983 40:-0.138235 41:0.179662 42:-0.882324 43:-0.845685 44:0.0554562 45:-0.181328 46:-0.879555 47:-0.858832 48:0.0482033 49:0.0293526 50:-0.880698 51:-0.858844 
-1024 1:-0.749582 2:0.43734 3:-0.926116 4:-0.708959 5:-0.781759 6:-0.205874 7:0.140817 8:-0.882417 9:-0.761782 10:-0.802987 11:0.105555 12:-0.790869 13:-0.715657 14:-0.656454 15:-0.297025 16:-0.0242793 17:0.288056 18:-0.460461 19:-0.52425 20:-0.482576 21:0.307263 22:0.360487 23:-0.722547 24:-0.357319 25:0.390424 26:-0.367352 27:-0.475175 28:-0.513689 29:0.368037 30:0.349118 31:-0.519612 32:-0.430924 33:0.999816 34:-0.200909 35:0.0561166 36:0.269434 37:-0.222286 38:-0.41138 39:-0.350952 40:0.241176 41:0.452456 42:-0.566459 43:-0.183305 44:0.386404 45:-0.493191 46:-0.349667 47:-0.448876 48:0.344435 49:-0.0253277 50:-0.437673 51:-0.339004 
-1024 1:-0.883004 2:0.478813 3:-0.915922 4:-0.622373 5:-0.677851 6:-0.267004 7:0.430167 8:-0.939523 9:-0.416186 10:-0.531508 11:0.675663 12:-0.685565 13:-0.183584 14:-0.236722 15:-0.746113 16:-0.599315 17:-0.467603 18:-0.269511 19:-0.87744 20:-0.769657 21:-0.450918 22:0.0632793 23:-0.865691 24:-0.846976 25:-0.383057 26:-0.23179 27:-0.842944 28:-0.847743 29:-0.40274 30:0.254451 31:-0.832222 32:-0.845557 33:0.999921 34:-0.761265 35:-0.589385 36:-0.52 37:0.0620627 38:-0.878151 39:-0.685321 40:-0.505882 41:0.288319 42:-0.878357 43:-0.754448 44:-0.429338 45:-0.225771 46:-0.831001 47:-0.819912 48:-0.449606 49:0.0622125 50:-0.848066 51:-0.79595 
1024 1:-0.715101 2:0.572129 3:-0.962325 4:-0.190081 5:-0.307047 6:-0.0581524 7:0.661517 8:-0.931829 9:0.00339242 10:-0.256764 11:0.760358 12:-0.919497 13:-0.169955 14:-0.207767 15:-0.72264 16:-0.7437 17:-0.42701 18:-0.335274 19:-0.945965 20:-0.918732 21:-0.45411 22:0.14082 23:-0.956896 24:-0.914637 25:-0.327808 26:-0.153688 27:-0.942618 28:-0.929515 29:-0.33516 30:0.410538 31:-0.944303 32:-0.923661 33:0.980706 34:-0.744936 35:-0.680792 36:-0.504906 37:-0.0122571 38:-0.929366 39:-0.833109 40:-0.525 41:0.396875 42:-0.948517 43:-0.796907 44:-0.432916 45:-0.168471 46:-0.907364 47:-0.886034 48:-0.447853 49:0.107406 50:-0.915487 51:-0.865101 
1024 1:-0.903892 2:0.534931 3:-0.918114 4:-0.665347 5:-0.74954 6:-0.0242607 7:0.242172 8:-0.878847 9:-0.665151 10:-0.716176 11:0.254678 12:-0.940998 13:-0.550227 14:-0.497355 15:-0.400185 16:-0.133644 17:0.238095 18:-0.531334 19:-0.606259 20:-0.638822 21:0.233839 22:0.535821 23:-0.853376 24:-0.380047 25:0.327808 26:-0.29918 27:-0.604658 28:-0.606628 29:0.305936 30:0.175248 31:-0.585899 32:-0.602894 33:0.998074 34:-0.232327 35:-0.00102411 36:0.310189 37:-0.417621 38:-0.424159 39:-0.538236 40:0.251471 41:0.594241 42:-0.686844 43:-0.223325 44:0.391771 45:-0.491921 46:-0.41986 47:-0.519622 48:0.363716 49:-0.133481 50:-0.469441 51:-0.464903 
1024 1:-0.394695 2:0.423419 3:-0.950398 4:-0.599511 5:-0.641691 6:-0.442014 7:0.315229 8:-0.78935 9:-0.507781 10:-0.538902 11:0.294564 12:-0.893891 13:-0.479488 14:-0.418251 15:-0.603212 16:-0.219912 17:-0.181889 18:-0.292382 19:-0.652848 20:-0.477293 21:-0.176377 22:0.0464608 23:-0.646245 24:-0.604609 25:-0.0865562 26:-0.31261 27:-0.565161 28:-0.582613 29:-0.0940639 30:0.102839 31:-0.537851 32:-0.600071 33:0.979104 34:-0.694295 35:-0.277952 36:-0.329811 37:-0.046696 38:-0.66343 39:-0.480926 40:-0.367647 41:0.0722582 42:-0.593942 43:-0.578959 44:-0.232558 45:-0.439827 46:-0.552108 47:-0.642512 48:-0.249781 49:-0.229675 50:-0.55145 51:-0.648647 
1024 1:-0.601153 2:0.345571 3:-0.900218 4:-0.697736 5:-0.755242 6:-0.140138 7:0.159308 8:-0.840815 9:-0.596245 10:-0.592923 11:0.142094 12:-0.900182 13:-0.589655 14:-0.447799 15:-0.520642 16:0.349253 17:0.0835285 18:-0.493429 19:0.0416583 20:0.143414 21:0.0885874 22:-0.0298477 23:-0.045201 24:-0.0284368 25:0.127072 26:-0.334544 27:0.117839 28:0.192483 29:0.125114 30:0.069432 31:0.176015 32:0.145563 33:0.890177 34:-0.585986 35:0.278595 36:0.0173585 37:-0.238119 38:-0.00699301 39:0.0953413 40:-0.0161765 41:0.065818 42:-0.0322737 43:0.0493875 44:0.101968 45:-0.510047 46:0.085796 47:-0.0219331 48:0.0885188 49:-0.264259 50:0.0481699 51:-0.015312 
1024 1:-0.719509 2:0.214292 3:-0.86947 4:-0.81142 5:-0.830635 6:-0.591004 7:-0.123778 8:-0.707272 9:-0.779029 10:-0.785743 11:0.178918 12:-0.940715 13:-0.378611 14:-0.271959 15:-0.488521 16:-0.0880663 17:-0.0866511 18:-0.353944 19:-0.508553 20:-0.353629 21:-0.0407023 22:0.252296 23:-0.66338 24:-0.382037 25:0.0349908 26:-0.313256 27:-0.46912 28:-0.469981 29:0.03379 30:-0.0267937 31:-0.398706 32:-0.527848 33:0.96572 34:-0.708557 35:-0.182912 36:-0.372075 37:-0.0306297 38:-0.520652 39:-0.265749 40:-0.366176 41:0.239579 42:-0.562104 43:-0.369325 44:-0.252236 45:-0.466811 46:-0.436312 47:-0.546285 48:-0.272568 49:-0.297033 50:-0.40953 51:-0.559629 
-1024 1:-0.776526 2:0.255341 3:-0.897688 4:-0.600603 5:-0.573863 6:0.187945 7:0.0394767 8:-0.939773 9:-0.491006 10:-0.508678 11:0.247544 12:-0.95093 13:-0.460583 14:-0.389574 15:-0.726964 16:-0.50083 17:-0.313037 18:-0.479328 19:-0.796539 20:-0.820355 21:-0.312051 22:0.0673299 23:-0.845076 24:-0.819429 25:-0.267035 26:-0.459933 27:-0.729669 28:-0.86011 29:-0.369863 30:0.844073 31:-0.873799 32:-0.612657 33:0.792429 34:-0.72964 35:-0.476853 36:-0.38566 37:-0.158124 38:-0.792725 39:-0.746147 40:-0.405882 41:0.232712 42:-0.828712 43:-0.731057 44:-0.316637 45:-0.551411 46:-0.697769 47:-0.846253 48:-0.38475 49:0.534182 50:-0.900811 51:-0.544811 
-1024 1:-0.866871 2:0.780082 3:-0.953876 4:-0.409372 5:-0.56748 6:-0.782028 7:0.608662 8:-0.920972 9:-0.388087 10:-0.531009 11:0.50685 12:-0.917694 13:-0.275387 14:-0.151072 15:-0.596417 16:-0.534836 17:-0.233411 18:-0.024443 19:-0.934091 20:-0.698075 21:-0.117318 22:0.223064 23:-0.92584 24:-0.817649 25:-0.00184162 26:-0.0654933 27:-0.894644 28:-0.821085 29:-0.0136986 30:0.531819 31:-0.893509 32:-0.816856 33:0.97188 34:-0.624018 35:-0.357204 36:-0.284528 37:0.397305 38:-0.874025 39:-0.396543 40:-0.255882 41:0.163825 42:-0.75081 43:-0.686824 44:-0.148479 45:-0.28542 46:-0.712165 47:-0.713687 48:-0.167397 49:-0.055974 50:-0.718836 51:-0.708468 
-1024 1:-0.890949 2:0.860444 3:-0.964145 4:-0.262597 5:-0.453091 6:-0.966291 7:0.653945 8:-0.262757 9:-0.537679 10:-0.652754 11:0.441412 12:-0.713075 13:-0.571398 14:-0.583237 15:-0.669515 16:-0.479071 17:-0.177205 18:-0.0220847 19:-0.937714 20:-0.710152 21:-0.26257 22:0.573658 23:-0.981438 24:-0.62629 25:0.0460405 26:0.068992 27:-0.921658 28:-0.790106 29:0.00821918 30:0.747128 31:-0.92018 32:-0.776628 33:1 34:-0.43365 35:-0.00132312 36:0.136604 37:-0.140192 38:-0.51874 39:-0.399473 40:0.111765 41:0.981757 42:-0.820584 43:-0.0408514 44:0.348837 45:-0.663788 46:-0.433719 47:-0.640899 48:0.321648 49:-0.148258 50:-0.52797 51:-0.543494 
778.29127869326965 1:-0.21097 2:0.100673 3:-0.856236 4:-0.858145 5:-0.903502 6:0.00106356 7:-0.166644 8:-0.813649 9:-0.875481 10:-0.893412 11:-0.111801 12:-0.891158 13:-0.806582 14:-0.75239 15:1 16:0.922137 17:0.714286 18:-0.76466 19:0.944456 20:0.764247 21:0.739824 22:-0.46459 23:1 24:0.314166 25:0.74954 26:-0.449625 27:0.918491 28:0.987992 29:0.731507 30:0.000539471 31:0.994116 32:1 33:0.932057 34:1 35:0.731699 36:0.788679 37:-0.565872 38:0.657091 39:0.398066 40:0.682353 41:-0.313578 42:0.698069 43:0.339172 44:0.813953 45:-0.493 46:0.551303 47:0.525535 48:0.777388 49:-0.220532 50:0.501209 51:0.580265 
-539.61080625358045 1:-0.621624 2:0.207776 3:-0.903474 4:-0.803154 5:-0.828791 6:-0.249471 7:-0.103279 8:-0.869501 9:-0.781665 10:-0.782821 11:0.261102 12:-0.170834 13:-0.56517 14:-0.45762 15:-0.695872 16:-0.247587 17:-0.269321 18:-0.448817 19:-0.579292 20:-0.543968 21:-0.251397 22:0.118663 23:-0.694882 24:-0.581461 25:-0.197053 26:-0.245677 27:-0.588076 28:-0.554155 29:-0.192694 30:-0.108873 31:-0.46617 32:-0.652061 33:0.751937 34:-0.688714 35:-0.232323 36:-0.322264 37:-0.154859 38:-0.559491 39:-0.456548 40:-0.329412 41:0.174851 42:-0.606232 43:-0.495704 44:-0.237925 45:-0.354846 46:-0.527071 47:-0.557359 48:-0.253287 49:-0.16223 50:-0.524171 51:-0.568081 
-1024 1:-0.714513 2:0.341989 3:-0.891583 4:-0.757262 5:-0.804436 6:0.21911 7:0.113212 8:-0.913127 9:-0.691403 10:-0.730775 11:0.329794 12:-0.91645 13:-0.401939 14:-0.334117 15:-0.663338 16:-0.495329 17:-0.330211 18:-0.310119 19:-0.829744 20:-0.7372 21:-0.318436 22:0.158385 23:-0.86105 24:-0.762241 25:-0.25046 26:-0.189132 27:-0.806428 28:-0.775456 29:-0.26758 30:0.166177 31:-0.76211 32:-0.804976 33:0.881824 34:-0.733154 35:-0.451781 36:-0.427925 37:-0.0993522 38:-0.766766 39:-0.664342 40:-0.441176 41:0.267294 42:-0.790584 43:-0.646361 44:-0.348837 45:-0.368306 46:-0.708499 47:-0.762499 48:-0.37248 49:-0.0852978 50:-0.724275 51:-0.738763 
-1024 1:-0.442449 2:0.626012 3:-0.950396 4:-0.279643 5:-0.395049 6:-0.537872 7:0.705319 8:-0.905699 9:-0.0550353 10:-0.28257 11:0.853677 12:-0.745459 13:-0.0641624 14:-0.100421 15:-0.573149 16:-0.588573 17:-0.185012 18:-0.272214 19:-0.907225 20:-0.828909 21:-0.117318 22:0.0539834 23:-0.900585 24:-0.89547 25:-0.0092081 26:-0.182808 27:-0.890359 28:-0.87548 29:-0.026484 30:0.359508 31:-0.888606 32:-0.870141 33:0.952293 34:-0.653783 35:-0.629796 36:-0.367547 37:0.201373 38:-0.958847 39:-0.76068 40:-0.382353 41:0.202767 42:-0.90526 43:-0.858988 44:-0.22898 45:-0.204057 46:-0.895918 47:-0.887539 48:-0.302366 49:0.106974 50:-0.903315 51:-0.850502 
1024 1:-0.850404 2:0.526898 3:-0.858551 4:-0.638938 5:-0.706011 6:-0.711592 7:0.358962 8:-0.549879 9:-0.629518 10:-0.673112 11:0.345453 12:-0.810227 13:-0.589532 14:-0.52442 15:-0.271904 16:-0.0983926 17:0.142857 18:0.171985 19:-0.745723 20:-0.130457 21:0.142857 22:0.0314157 23:-0.569765 24:-0.531815 25:0.333333 26:-0.473686 27:-0.469865 28:-0.59438 29:0.351598 30:-0.0462547 31:-0.473818 32:-0.598894 33:0.997903 34:-0.570484 35:-0.0934928 36:-0.123019 37:0.258176 38:-0.61946 39:-0.0966305 40:-0.164706 41:0.177632 42:-0.467073 43:-0.32598 44:0.039356 45:-0.56395 46:-0.382036 47:-0.544243 48:0.028922 49:-0.387247 50:-0.385186 51:-0.581143 
1024 1:-0.679587 2:0.319358 3:-0.917944 4:-0.73607 5:-0.788865 6:-0.382602 7:0.260104 8:-0.936296 9:-0.669853 10:-0.726648 11:0.414019 12:-0.899175 13:-0.449489 14:-0.454585 15:-0.458252 16:-0.307087 17:-0.0913349 18:-0.420395 19:-0.693097 20:-0.652032 21:-0.0614525 22:0.256179 23:-0.807148 24:-0.595182 25:0.0718232 26:-0.32682 27:-0.676013 28:-0.711575 29:0.0630137 30:0.135647 31:-0.666209 32:-0.711345 33:0.34327 34:-0.557255 35:-0.395762 36:-0.209057 37:-0.0496243 38:-0.774111 39:-0.642426 40:-0.255882 41:0.550162 42:-0.854938 43:-0.516767 44:-0.09839 45:-0.320149 46:-0.725399 47:-0.747016 48:-0.113059 49:-0.0747183 50:-0.737137 51:-0.740739 
1024 1:-0.663998 2:0.649896 3:-0.897388 4:-0.553749 5:-0.634327 6:-0.198338 7:0.36332 8:-0.56988 9:-0.591445 10:-0.63457 11:0.386393 12:-0.925581 13:-0.505943 14:-0.420702 15:-0.481314 16:-0.0484203 17:-0.0554254 18:-0.127546 19:-0.562487 20:-0.15914 21:-0.00239425 22:0.148604 23:-0.583954 24:-0.408222 25:0.0810313 26:-0.516289 27:-0.36395 28:-0.536383 29:0.0520548 30:0.340287 31:-0.473426 32:-0.381286 33:0.986713 34:-0.47871 35:0.0753429 36:-0.0143396 37:0.0745789 38:-0.366202 39:0.0464694 40:-0.0352941 41:-0.00845748 42:-0.22069 43:-0.246716 44:0.132379 45:-0.738104 46:-0.140162 47:-0.437695 48:0.102542 49:-0.33478 50:-0.217023 51:-0.367104 
1024 1:-0.98044 2:0.439654 3:-0.86304 4:-0.754546 5:-0.808355 6:0.31739 7:-0.0502787 8:-0.864581 9:-0.676402 10:-0.653357 11:-0.00571572 12:-0.894175 13:-0.449268 14:-0.308469 15:-0.523319 16:-0.337882 17:0.0039032 18:-0.0296509 19:-0.857416 20:-0.560699 21:0.0343176 22:-0.0492795 23:-0.748338 24:-0.801519 25:0.0865562 26:-0.242905 27:-0.730321 28:-0.716018 29:0.0776256 30:0.133769 31:-0.694842 32:-0.74134 33:0.968798 34:-0.646135 35:-0.323476 36:-0.196981 37:0.000207308 38:-0.750063 39:-0.566598 40:-0.216176 41:-0.0635125 42:-0.648038 43:-0.741921 44:-0.132379 45:-0.360401 46:-0.645639 47:-0.685088 48:-0.155127 49:-0.151334 50:-0.638294 51:-0.680479 
1024 1:-0.619693 2:0.174667 3:-0.923208 4:-0.639938 5:-0.635218 6:-0.445636 7:0.247626 8:-0.871207 9:-0.375021 10:-0.415365 11:0.523877 12:-0.842237 13:-0.0337366 14:0.0815433 15:-0.326676 16:-0.287295 17:0.12256 18:-0.507185 19:-0.674784 20:-0.697446 21:0.128492 22:0.142182 23:-0.766454 24:-0.65834 25:0.243094 26:-0.24923 27:-0.690731 28:-0.67159 29:0.234703 30:0.273232 31:-0.687684 32:-0.668882 33:0.905531 34:-0.68396 35:-0.475119 36:-0.367547 37:-0.0158331 38:-0.814761 39:-0.664928 40:-0.345588 41:0.493579 42:-0.877679 43:-0.600466 44:-0.289803 45:-0.210025 46:-0.772969 47:-0.741426 48:-0.307625 49:0.0865628 50:-0.794458 51:-0.709456 
1024 1:-0.837857 2:0.602639 3:-0.847137 4:-0.672379 5:-0.757743 6:-0.0595975 7:0.0175773 8:-0.741693 9:-0.806412 10:-0.795611 11:-0.245998 12:-0.920428 13:-0.839846 14:-0.738645 15:-0.158859 16:0.327002 17:0.506635 18:-0.502371 19:-0.208795 20:-0.153604 21:0.578611 22:0.742459 23:-0.694257 24:0.231422 25:0.581952 26:-0.583707 27:-0.0505822 28:-0.256724 29:0.519635 30:0.0450558 31:-0.0774662 32:-0.1318 33:0.998166 34:0.266432 35:0.556883 36:0.610566 37:-0.584633 38:0.322433 39:0.0375623 40:0.557353 41:0.370488 42:-0.0564668 43:0.408015 44:0.644007 45:-0.774864 46:0.37229 47:0.0469842 48:0.544259 49:-0.135378 50:0.193888 51:0.315844 
1024 1:-0.712616 2:0.591401 3:-0.867967 4:-0.593617 5:-0.684436 6:-0.600608 7:0.388765 8:-0.734569 9:-0.555723 10:-0.640865 11:0.552106 12:-0.377103 13:-0.4563 14:-0.455597 15:-0.572943 16:-0.183247 17:-0.177205 18:-0.214828 19:-0.618032 20:-0.341301 21:-0.173184 22:0.122751 23:-0.610548 24:-0.470647 25:-0.0791897 26:-0.300338 27:-0.509362 28:-0.508165 29:-0.083105 30:-0.0247557 31:-0.445283 32:-0.578545 33:0.925188 34:-0.608103 35:-0.0980078 36:-0.171321 37:-0.11319 38:-0.437038 39:-0.264108 40:-0.189706 41:0.306537 42:-0.510427 43:-0.237404 44:-0.0536673 45:-0.471318 46:-0.351276 47:-0.451457 48:-0.0534619 49:-0.297896 50:-0.361619 51:-0.49421 
-1024 1:-0.696879 2:0.335206 3:-0.90307 4:-0.746559 5:-0.781256 6:-0.416196 7:0.0719125 8:-0.75772 9:-0.715899 10:-0.720886 11:0.198364 12:-0.881353 13:-0.586791 14:-0.5294 15:-0.481108 16:0.140866 17:-0.0148322 18:-0.518093 19:-0.186355 20:-0.158762 21:0.00399042 22:0.090775 23:-0.361385 24:-0.208379 25:0.0349908 26:-0.339604 27:-0.155659 28:-0.137248 29:0.030137 30:0.0372635 31:-0.0983526 32:-0.179086 33:0.921633 34:-0.500413 35:0.143831 36:0.000754717 37:-0.272169 38:-0.137797 39:-0.0954585 40:-0.0338235 41:0.099272 42:-0.206948 43:-0.108475 44:0.0554562 45:-0.483953 46:-0.0961685 47:-0.19127 48:0.051709 49:-0.18198 50:-0.159617 51:-0.163054 
1024 1:-0.681784 2:0.426874 3:-0.868917 4:-0.569248 5:-0.57109 6:-0.566173 7:0.280291 8:-0.735224 9:-0.473808 10:-0.482794 11:0.428698 12:-0.781882 13:-0.301086 14:-0.245275 15:-0.6028 16:-0.252766 17:-0.202186 18:-0.299015 19:-0.653653 20:-0.484715 21:-0.179569 22:0.13578 23:-0.695864 24:-0.565017 25:-0.0423573 26:-0.42282 27:-0.562832 28:-0.666186 29:-0.0502283 30:-0.110352 31:-0.519121 32:-0.690172 33:0.977423 34:-0.729847 35:-0.298225 36:-0.375094 37:-0.0194351 38:-0.663833 39:-0.45022 40:-0.389706 41:0.236221 42:-0.654715 43:-0.493265 44:-0.26297 45:-0.501254 46:-0.544955 47:-0.677239 48:-0.270815 49:-0.325149 50:-0.536171 51:-0.702761 
1024 1:-0.5315 2:0.481082 3:-0.928495 4:-0.686357 5:-0.756756 6:-0.182996 7:0.162053 8:-0.641192 9:-0.68902 10:-0.722696 11:0.123303 12:-0.82034 13:-0.66745 14:-0.561732 15:-0.638835 16:-0.163009 17:-0.230289 18:-0.416734 19:-0.512075 20:-0.427978 21:-0.222666 22:0.111177 23:-0.597965 24:-0.468133 25:-0.162063 26:-0.435011 27:-0.419376 28:-0.538305 29:-0.189041 30:0.264561 31:-0.471857 32:-0.4321 33:0.296915 34:-0.583506 35:-0.0517062 36:-0.142642 37:-0.22384 38:-0.368315 39:-0.303838 40:-0.161765 41:0.216674 42:-0.454396 43:-0.267557 44:-0.019678 45:-0.62271 46:-0.29092 47:-0.503064 48:-0.0657318 49:-0.161137 50:-0.370856 51:-0.38752 
1024 1:-0.371877 2:0.555127 3:-0.96249 4:-0.459592 5:-0.435278 6:-0.820691 7:0.447144 8:-0.87545 9:-0.47978 10:-0.538828 11:0.330589 12:-0.836008 13:-0.407199 14:-0.27614 15:-0.884279 16:-0.85142 17:-0.711163 18:-0.398187 19:-0.957034 20:-0.962259 21:-0.727055 22:0.157825 23:-0.98233 24:-0.935062 25:-0.705341 26:-0.0835789 27:-0.973544 28:-0.93816 29:-0.689498 30:0.298887 31:-0.954795 32:-0.966829 33:0.124504 34:-0.883216 35:-0.799439 36:-0.788679 37:-0.157554 38:-0.924234 39:-0.903076 40:-0.797059 41:0.229354 42:-0.948904 43:-0.88127 44:-0.763864 45:-0.0189835 46:-0.954129 47:-0.863456 48:-0.780894 49:-0.105336 50:-0.883892 51:-0.941057 
-1024 1:-0.825965 2:0.54151 3:-0.944929 4:-0.653228 5:-0.722949 6:-0.466662 7:0.19187 8:-0.915875 9:-0.712694 10:-0.741675 11:0.0537603 12:-0.920426 13:-0.691049 14:-0.633907 15:-0.482755 16:0.00986539 17:0.139735 18:-0.393446 19:-0.511773 20:-0.401812 21:0.141261 22:0.386415 23:-0.714515 24:-0.29835 25:0.220994 26:-0.221751 27:-0.483 28:-0.397454 29:0.209132 30:-0.0452157 31:-0.371543 32:-0.503617 33:0.978285 34:-0.426209 35:0.125442 36:0.124528 37:-0.254885 38:-0.308346 39:-0.266803 40:0.104412 41:0.372643 42:-0.484879 43:-0.146389 44:0.223614 45:-0.370464 46:-0.293692 47:-0.300398 48:0.188431 49:-0.223551 50:-0.278919 51:-0.330333 
-1024 1:-0.101956 2:-0.205748 3:-0.911717 4:-0.913785 5:-0.914581 6:-0.0781417 7:-0.237411 8:-0.871464 9:-0.751572 10:-0.743408 11:0.242596 12:-0.934393 13:-0.34446 14:-0.32098 15:0.338824 16:0.135119 17:0.703357 18:-0.683887 19:-0.315053 20:-0.454648 21:0.752594 22:-0.232659 23:-0.359154 24:-0.581147 25:0.779006 26:-0.302222 27:-0.363763 28:-0.322046 29:0.755251 30:0.164179 31:-0.333105 32:-0.325766 33:0.960707 34:-0.256304 35:-0.378927 36:0.0898113 37:-0.227727 38:-0.757106 39:-0.753296 40:0.0455882 41:0.0758417 42:-0.757875 43:-0.758772 44:0.320215 45:-0.295895 46:-0.769482 47:-0.779164 48:0.256792 49:0.0219066 50:-0.788674 51:-0.74491 
1024 1:-0.755674 2:0.544231 3:-0.920883 4:-0.666433 5:-0.746411 6:-0.137836 7:0.203863 8:-0.898559 9:-0.75394 10:-0.782941 11:0.0565304 12:-0.863189 13:-0.83146 14:-0.79486 15:-0.259343 16:-0.0442098 17:0.23185 18:-0.151202 19:-0.630509 20:-0.310228 21:0.300878 22:0.145804 23:-0.643479 24:-0.495575 25:0.316759 26:0.0139276 27:-0.599534 28:-0.329011 29:0.400913 30:-0.119703 31:-0.427927 32:-0.590543 33:0.512866 34:0.145721 35:0.0934031 36:0.356981 37:0.158746 38:-0.502742 39:-0.0738939 40:0.394118 41:0.00828207 42:-0.36343 43:-0.376753 44:0.463327 45:-0.0212692 46:-0.460723 47:-0.217181 48:0.493427 49:-0.538753 50:-0.22203 51:-0.512211 
-1024 1:-0.520939 2:0.408043 3:-0.9314 4:-0.75643 5:-0.827018 6:0.0666592 7:0.0902633 8:-0.888155 9:-0.749408 10:-0.763798 11:0.208013 12:-0.904725 13:-0.528778 14:-0.451283 15:-0.459899 16:-0.279965 17:-0.0866511 18:-0.281008 19:-0.721373 20:-0.565103 21:-0.0630487 22:0.0553834 23:-0.715675 24:-0.676565 25:0.0165746 26:-0.214431 27:-0.674709 28:-0.628963 29:0.0173516 30:0.134808 31:-0.628751 32:-0.674058 33:0.9924 34:-0.63952 35:-0.348638 36:-0.320755 37:-0.0616999 38:-0.715551 39:-0.56695 40:-0.327941 41:0.190112 42:-0.708327 43:-0.609667 44:-0.22898 45:-0.315482 46:-0.657263 47:-0.672293 48:-0.244522 49:-0.180485 50:-0.634496 51:-0.699797 
1024 1:-0.835705 2:0.723362 3:-0.951628 4:-0.283159 5:-0.385763 6:-0.644979 7:0.650001 8:-0.904813 9:-0.21967 10:-0.403764 11:0.616098 12:-0.9335 13:-0.190748 14:-0.198172 15:-0.725317 16:-0.583887 17:-0.41452 18:-0.278576 19:-0.884484 20:-0.790414 21:-0.438148 22:0.227824 23:-0.911651 24:-0.770725 25:-0.311234 26:-0.17791 27:-0.866511 28:-0.8439 29:-0.318721 30:0.327739 31:-0.860365 32:-0.847792 33:0.959762 34:-0.664737 35:-0.472712 36:-0.325283 37:-0.109225 38:-0.8049 39:-0.726809 40:-0.345588 41:0.501422 42:-0.89684 43:-0.631617 44:-0.245081 45:-0.17355 46:-0.799079 47:-0.752822 48:-0.255039 49:0.0473781 50:-0.80568 51:-0.750727 
-1024 1:-0.330278 2:0.20154 3:-0.92706 4:-0.797371 5:-0.819462 6:0.484196 7:0.0245485 8:-0.961948 9:-0.546481 10:-0.555727 11:0.336222 12:-0.939683 13:-0.0997986 14:0.0398042 15:-0.662926 16:-0.322592 17:-0.256831 18:-0.522588 19:-0.642584 20:-0.684111 21:-0.265762 22:0.135855 23:-0.755299 24:-0.640744 25:-0.186004 26:-0.426022 27:-0.598789 28:-0.712656 29:-0.207306 30:0.262363 31:-0.6515 32:-0.637946 33:0.978574 34:-0.781935 35:-0.442153 36:-0.480755 37:-0.28383 38:-0.67963 39:-0.714738 40:-0.501471 41:0.217151 42:-0.765326 43:-0.651904 44:-0.406082 45:-0.516904 46:-0.639558 47:-0.784862 48:-0.423313 49:-0.0248103 50:-0.724361 51:-0.697821 
-1024 1:-0.261057 2:0.198228 3:-0.915611 4:-0.803297 5:-0.840484 6:-0.39554 7:-0.00576947 8:-0.926639 9:-0.795039 10:-0.815132 11:0.0438748 12:-0.86614 13:-0.776689 14:-0.769099 15:0.538145 16:0.335392 17:0.754879 18:-0.47579 19:-0.19682 20:-0.105925 21:0.787709 22:-0.089319 23:-0.234662 24:-0.301178 25:0.825046 26:-0.300176 27:-0.156777 28:-0.073487 29:0.810046 30:0.0592819 31:-0.0816827 32:-0.11945 33:0.40592 34:0.459901 35:0.141813 36:0.473208 37:-0.210858 38:-0.329476 39:-0.244536 40:0.438235 41:0.128065 42:-0.368171 43:-0.266116 44:0.597496 45:-0.42405 46:-0.28171 47:-0.321686 48:0.558282 49:-0.198367 50:-0.29558 51:-0.316174 
1024 1:-0.790573 2:0.498629 3:-0.809412 4:-0.380129 5:-0.339931 6:-0.23192 7:0.1669 8:-0.795922 9:-0.575703 10:-0.568782 11:0.177694 12:-0.857358 13:-0.52644 14:-0.431005 15:-0.799032 16:-0.39039 17:-0.451991 18:-0.236249 19:-0.75317 20:-0.546987 21:-0.438148 22:0.0728552 23:-0.734416 24:-0.679183 25:-0.375691 26:-0.319365 27:-0.667629 28:-0.714337 29:-0.369863 30:0.0106496 31:-0.623063 32:-0.747339 33:0.998905 34:-0.716825 35:-0.194767 36:-0.275472 37:-0.244157 38:-0.502038 39:-0.478816 40:-0.277941 41:-0.012492 42:-0.494847 43:-0.548251 44:-0.198569 45:-0.325704 46:-0.518219 47:-0.524782 48:-0.195443 49:-0.210672 50:-0.494302 51:-0.571264 
1024 1:0.0976326 2:0.399518 3:-0.966225 4:-0.234608 5:-0.31454 6:-0.53289 7:0.618923 8:-0.933791 9:0.247476 10:-0.0318943 11:0.807174 12:-0.924736 13:0.22649 14:0.291399 15:-0.612684 16:-0.500061 17:-0.100703 18:-0.493846 19:-0.812739 20:-0.843125 21:-0.0534717 22:-0.0506981 23:-0.828299 24:-0.882063 25:0.0331492 26:-0.215884 27:-0.837075 28:-0.826969 29:0.0228311 30:0.284781 31:-0.830163 32:-0.827325 33:0.98518 34:-0.736875 35:-0.712413 36:-0.46717 37:0.0637471 38:-0.960457 39:-0.846352 40:-0.473529 41:0.239904 42:-0.942324 43:-0.889807 44:-0.336315 45:-0.130948 46:-0.936603 47:-0.910977 48:-0.381245 49:0.104157 50:-0.936032 51:-0.898579 
-1024 1:-0.605049 2:0.216609 3:-0.929901 4:-0.809185 5:-0.837528 6:0.180453 7:-0.100929 8:-0.941672 9:-0.762726 10:-0.727269 11:0.0049058 12:-0.920132 13:-0.603333 14:-0.419776 15:-0.545146 16:0.283438 17:0.120999 18:-0.77117 19:0.0915677 20:-0.169329 21:0.118915 22:0.0821138 23:-0.249208 24:-0.0870909 25:0.171271 26:-0.581123 27:0.131346 28:-0.0976225 29:0.143379 30:0.00389618 31:0.0916846 32:0.000999824 33:0.98881 34:-0.516122 35:0.254001 36:0.132075 37:-0.455429 38:0.0263118 39:-0.129095 40:0.0867647 41:0.0402325 42:-0.12353 43:-0.0831994 44:0.211091 45:-0.655757 46:0.0522645 47:-0.183744 48:0.155127 49:-0.158665 50:-0.0712189 51:-0.0330937 
766.60794825561857 1:-0.367258 2:0.299289 3:-0.484554 4:-0.784029 5:-0.822023 6:-0.0189375 7:-0.162279 8:-0.952288 9:-0.736497 10:-0.752542 11:0.0996045 12:-0.933172 13:-0.528614 14:-0.516327 15:-0.509935 16:0.255056 17:0.120999 18:-0.586779 19:-0.0924733 20:-0.133602 21:0.181165 22:0.161502 23:-0.375128 24:-0.124797 25:0.14733 26:-0.596544 27:0.100326 28:-0.149015 29:0.212785 30:-0.0422985 31:-0.00774662 32:-0.134741 33:0.996826 34:-0.499793 35:0.131706 36:0.0113208 37:-0.465924 38:-0.130553 39:-0.303604 40:-0.0941176 41:-0.571563 42:0.183045 43:-0.468544 44:0.0930233 45:-0.0270468 46:-0.332856 47:-0.042146 48:0.0780018 49:-0.0823655 50:-0.255525 51:-0.173591 
-1024 1:-0.672812 2:0.485537 3:-0.80177 4:-0.588275 5:-0.639477 6:-0.873112 7:0.0943132 8:-0.772306 9:-0.689272 10:-0.68006 11:0.0996156 12:-0.85998 13:-0.588161 14:-0.55182 15:-0.622156 16:-0.368677 17:-0.127244 18:-0.75783 19:-0.61934 20:-0.827274 21:-0.171588 22:0.562962 23:-0.934853 24:-0.494842 25:-0.00552486 26:-0.530769 27:-0.643968 28:-0.811239 29:-0.0155251 30:-0.0490519 31:-0.658659 32:-0.785685 33:0.687317 34:-0.63518 35:-0.323939 36:-0.239245 37:-0.441073 38:-0.58042 39:-0.726458 40:-0.232353 41:0.749984 42:-0.893066 43:-0.407904 44:-0.11449 45:-0.511349 46:-0.611928 47:-0.737985 48:-0.13234 49:-0.192244 50:-0.6452 51:-0.713956 
1024 1:-0.582956 2:0.571548 3:-0.927173 4:-0.665841 5:-0.755222 6:-0.211594 7:0.248256 8:-0.873536 9:-0.640493 10:-0.705198 11:0.264545 12:-0.900205 13:-0.50216 14:-0.374362 15:-0.367034 16:-0.0518317 17:0.177205 18:-0.320412 19:-0.587543 20:-0.425211 21:0.185954 22:0.256085 23:-0.691134 24:-0.430427 25:0.202578 26:-0.331988 27:-0.461202 28:-0.472863 29:0.183562 30:0.417651 31:-0.516278 32:-0.383991 33:0.997588 34:-0.27532 35:0.0924612 36:0.162264 37:-0.293418 38:-0.321427 39:-0.320481 40:0.148529 41:0.24028 42:-0.434654 43:-0.227094 44:0.220036 45:-0.438018 46:-0.259624 47:-0.318138 48:0.172656 49:-0.0332912 50:-0.330887 51:-0.21563 
1024 1:-0.351532 2:0.296238 3:-0.911437 4:-0.829291 5:-0.882068 6:-0.0838048 7:-0.0732769 8:-0.956631 9:-0.776596 10:-0.798883 11:0.159957 12:-0.896218 13:-0.298854 14:-0.105132 15:-0.564913 16:-0.129618 17:-0.133489 18:-0.311715 19:-0.589253 20:-0.412505 21:-0.122107 22:0.191126 23:-0.66918 24:-0.464362 25:-0.092081 26:-0.329512 27:-0.472287 28:-0.493636 29:-0.10137 30:0.317349 31:-0.507256 32:-0.437158 33:0.998726 34:-0.693675 35:-0.125113 36:-0.293585 37:-0.225292 38:-0.437843 39:-0.386229 40:-0.3 41:0.220634 42:-0.543136 43:-0.369658 44:-0.221825 45:-0.382972 46:-0.405195 47:-0.446941 48:-0.237511 49:-0.160706 50:-0.420753 51:-0.451622 
-1024 1:-0.57155 2:0.519494 3:-0.836628 4:-0.536431 5:-0.588023 6:-0.57997 7:0.409918 8:-0.850475 9:-0.495522 10:-0.556342 11:0.506514 12:-0.863796 13:-0.513073 14:-0.526683 15:-0.375888 16:-0.096564 17:0.0398126 18:-0.181492 19:-0.599718 20:-0.288212 21:0.056664 22:0.034925 23:-0.556022 24:-0.512543 25:0.211786 26:-0.421636 27:-0.460736 28:-0.548511 29:0.190868 30:0.000619393 31:-0.43587 32:-0.542198 33:0.90279 34:-0.488425 35:-0.161473 36:-0.0762264 37:0.105286 38:-0.644313 39:-0.315675 40:-0.117647 41:0.175753 42:-0.576233 43:-0.463112 44:0.0894454 45:-0.501381 46:-0.506326 47:-0.621869 48:0.0464505 49:-0.140036 50:-0.542818 51:-0.560288 
1024 1:-0.891473 2:0.30605 3:-0.927938 4:-0.594663 5:-0.570548 6:-0.121321 7:0.310821 8:-0.777672 9:-0.257344 10:-0.353395 11:0.63405 12:-0.911654 13:0.067264 14:-0.00160694 15:-0.464429 16:-0.474353 17:-0.147541 18:-0.310143 19:-0.831556 20:-0.743993 21:-0.0869912 22:0.15551 23:-0.863728 24:-0.775543 25:0.0570902 26:-0.208941 27:-0.82245 28:-0.805355 29:0.0648402 30:0.292373 31:-0.817121 32:-0.809445 33:0.992461 34:-0.723233 35:-0.58028 36:-0.533585 37:0.0307334 38:-0.864064 39:-0.686727 40:-0.55 41:0.321347 42:-0.850293 43:-0.677291 44:-0.445438 45:-0.391511 46:-0.779765 47:-0.850231 48:-0.456617 49:-0.136701 50:-0.787638 51:-0.84238 
-274.94560293599437 1:-0.582458 2:0.204357 3:-0.899113 4:-0.846681 5:-0.893586 6:0.398759 7:-0.131453 8:-0.676379 9:-0.751572 10:-0.743348 11:-0.0134156 12:-0.905277 13:-0.459861 14:-0.130264 15:-0.268609 16:0.474092 17:0.261514 18:-0.530032 19:0.16613 20:0.241414 21:0.286512 22:-0.108676 23:0.0460934 24:-0.0470804 25:0.276243 26:-0.305236 27:0.221984 28:0.362632 29:0.276712 30:-0.0260744 31:0.337321 32:0.242604 33:0.873523 34:-0.460107 35:0.316046 36:0.0656604 37:-0.375097 38:0.101877 39:0.0422502 40:0.0411765 41:-0.14265 42:0.0490153 43:-0.117233 44:0.121646 45:-0.394559 46:0.0557518 47:0.0614988 48:0.106047 49:-0.230911 50:0.0472203 51:0.021349 
-1024 1:-0.966265 2:0.14482 3:-0.927685 4:-0.811544 5:-0.817842 6:0.00649338 7:-0.0593512 8:-0.865986 9:-0.743998 10:-0.714039 11:0.126362 12:-0.865594 13:-0.549013 14:-0.451021 15:-0.781736 16:-0.610886 17:-0.42701 18:-0.339033 19:-0.879352 20:-0.826267 21:-0.404629 22:0.0370343 23:-0.876043 24:-0.878607 25:-0.353591 26:-0.255823 27:-0.849464 28:-0.868156 29:-0.346119 30:0.144558 31:-0.830947 32:-0.883315 33:0.715275 34:-0.829062 35:-0.665767 36:-0.616604 37:-0.0973568 38:-0.881874 39:-0.810724 40:-0.632353 41:0.112203 42:-0.861809 43:-0.853999 44:-0.567084 45:-0.293165 46:-0.842178 47:-0.869261 48:-0.561788 49:-0.112983 50:-0.836326 51:-0.884419 
-694.93916627782141 1:-0.50191 2:0.680184 3:-0.769593 4:-0.499916 5:-0.635082 6:-0.799276 7:0.23934 8:-0.499762 9:-0.740142 10:-0.786209 11:-0.14577 12:-0.861991 13:-0.839969 14:-0.800422 15:0.532379 16:0.3753 17:0.982826 18:1 19:-0.784061 20:0.829538 21:0.985634 22:-0.37878 23:-0.0521619 24:-0.460382 25:0.987109 26:-0.638879 27:0.0234746 28:-0.2189 29:0.985388 30:-0.282543 31:0.0505001 32:-0.211198 33:0.937219 34:1 35:0.62099 36:0.980377 37:0.709225 38:-0.281984 39:0.979725 40:1 41:-0.50072 42:0.414042 43:-0.12455 44:0.940966 45:-0.644583 46:0.395538 47:0.20729 48:0.929886 49:-0.295998 50:0.292645 51:0.257779 
-1024 1:-0.781273 2:0.553647 3:-0.933497 4:-0.627903 5:-0.696911 6:-0.449986 7:0.273787 8:-0.93578 9:-0.645309 10:-0.706634 11:0.277574 12:-0.951843 13:-0.587127 14:-0.525486 15:-0.523525 16:-0.594766 17:-0.0772834 18:-0.261749 19:-0.923928 20:-0.851554 21:-0.0965682 22:0.161204 23:-0.928428 24:-0.866143 25:0.103131 26:-0.126667 27:-0.910573 28:-0.875841 29:0.0392694 30:0.527503 31:-0.916846 32:-0.85332 33:0.375597 34:-0.594047 35:-0.541035 36:-0.28 37:-0.0648095 38:-0.87322 39:-0.791386 40:-0.302941 41:0.464735 42:-0.921517 43:-0.716756 44:-0.171735 45:-0.321672 46:-0.824921 47:-0.855929 48:-0.204207 49:0.0888339 50:-0.864123 51:-0.805719 
1024 1:-0.871438 2:0.45271 3:-0.905375 4:-0.668428 5:-0.715823 6:-0.42529 7:0.242145 8:-0.83084 9:-0.48126 10:-0.516956 11:0.538781 12:-0.921211 13:-0.156203 14:-0.0826734 15:-0.392361 16:-0.413793 17:0.102264 18:-0.331663 19:-0.825518 20:-0.754309 21:0.0678372 22:0.145038 23:-0.845879 24:-0.762137 25:0.255985 26:-0.195807 27:-0.80885 28:-0.780259 29:0.249315 30:0.291414 31:-0.798294 32:-0.787449 33:0.998113 34:-0.552708 35:-0.495302 36:-0.218113 37:-0.117777 38:-0.829753 39:-0.768298 40:-0.269118 41:0.440704 42:-0.881937 43:-0.662546 44:-0.0751342 45:-0.242595 46:-0.821344 47:-0.815504 48:-0.0780018 49:-0.080928 50:-0.814054 51:-0.831623 
1024 1:-0.718455 2:0.596825 3:-0.916054 4:-0.576637 5:-0.66507 6:0.113985 7:0.331844 8:-0.885444 9:-0.607919 10:-0.673325 11:0.219296 12:-0.858544 13:-0.655815 14:-0.646401 15:-0.522907 16:0.111792 17:-0.0429352 18:-0.435527 19:-0.252163 20:-0.131589 21:-0.00239425 22:0.0660793 23:-0.389764 24:-0.278031 25:-0.00368324 26:-0.237845 27:-0.210619 28:-0.082853 29:0.0100457 30:-0.0726288 31:-0.0865856 32:-0.250132 33:0.952472 34:-0.298057 35:0.31165 36:0.198491 37:-0.159627 38:-0.0910097 39:0.0966305 40:0.202941 41:0.00146596 42:-0.065757 43:-0.0634665 44:0.245081 45:-0.199898 46:-0.0660348 47:0.119987 48:0.258545 49:-0.342456 50:0.0404869 51:-0.09511 
1024 1:-0.635276 2:0.00517676 3:-0.982674 4:-0.894562 5:-0.900034 6:0.181109 7:-0.386916 8:-0.998922 9:-0.914791 10:-0.847464 11:-0.348208 12:-0.957074 13:-0.809691 14:-0.667992 15:-0.617832 16:0.54106 17:0.238095 18:-0.590218 19:0.287482 20:0.291106 21:0.30407 22:-0.325245 23:0.299808 24:-0.124588 25:0.309392 26:-0.639013 27:0.507685 28:0.230187 29:0.300457 30:-0.344842 31:0.583938 32:0.213198 33:0.736894 34:-0.606862 35:0.450585 36:0.175849 37:-0.338145 38:0.183177 39:0.180662 40:0.180882 41:-0.365701 42:0.308076 43:-0.119118 44:0.252236 45:-0.687407 46:0.330353 47:0.0633265 48:0.241017 49:-0.403921 50:0.275035 51:0.0858899 
1024 1:-0.717125 2:0.47197 3:-0.82602 4:-0.492631 5:-0.534195 6:-0.600177 7:0.539508 8:0.344114 9:-0.39706 10:-0.465702 11:0.488747 12:-0.713128 13:-0.449645 14:-0.427989 15:-0.695254 16:-0.218191 17:-0.213115 18:-0.10153 19:-0.68716 20:-0.31136 21:-0.160415 22:-0.0797058 23:-0.55736 24:-0.64441 25:-0.0883978 26:-0.388398 27:-0.514951 28:-0.591859 29:-0.086758 30:-0.181242 31:-0.434399 32:-0.653238 33:0.969183 34:-0.61265 35:-0.115201 36:-0.0958491 37:0.134569 38:-0.584042 39:-0.190155 40:-0.0691176 41:-0.00835724 42:-0.444332 43:-0.485616 44:0.0232558 45:-0.400717 46:-0.443108 47:-0.49156 48:0.0148992 49:-0.310689 50:-0.407631 51:-0.546787 
-1024 1:-0.510665 2:0.503264 3:-0.93454 4:-0.733218 5:-0.815465 6:-0.0903813 7:0.0533526 8:-0.950171 9:-0.819803 10:-0.84097 11:-0.115688 12:-0.946396 13:-0.756118 14:-0.673868 15:-0.560177 16:-0.164761 17:-0.133489 18:-0.346697 19:-0.60646 20:-0.472638 21:-0.0997606 22:0.192171 23:-0.698898 24:-0.50563 25:-0.0883978 26:-0.290595 27:-0.512063 28:-0.502762 29:-0.0940639 30:0.279946 31:-0.524318 32:-0.480798 33:0.727538 34:-0.504754 35:-0.0575818 36:-0.12 37:-0.245504 38:-0.426976 39:-0.393495 40:-0.144118 41:0.16613 42:-0.488944 43:-0.365335 44:-0.0679785 45:-0.322942 46:-0.385166 47:-0.370498 48:-0.0920245 49:-0.111201 50:-0.393128 51:-0.36875 
1024 1:-0.85746 2:0.631756 3:-0.912612 4:-0.542799 5:-0.644043 6:-0.556403 7:0.454709 8:-0.920625 9:-0.52127 10:-0.612967 11:0.411663 12:-0.926236 13:-0.516183 14:-0.494883 15:-0.604036 16:-0.392464 17:-0.197502 18:0.180092 19:-0.916885 20:-0.465216 21:-0.160415 22:0.0644366 23:-0.797956 24:-0.765698 25:-0.154696 26:-0.12411 27:-0.767396 28:-0.678434 29:-0.128767 30:0.34672 31:-0.757109 32:-0.716873 33:0.896451 34:-0.617197 35:-0.20607 36:-0.193962 37:0.279373 38:-0.748755 39:-0.286258 40:-0.225 41:0.00121537 42:-0.548652 43:-0.59071 44:-0.168157 45:-0.183867 46:-0.567309 47:-0.473497 48:-0.149869 49:-0.152541 50:-0.540314 51:-0.573459 
-1024 1:-0.922992 2:0.616675 3:-0.889699 4:-0.637423 5:-0.728479 6:-0.478809 7:0.0516928 8:-0.787535 9:-0.791492 10:-0.803711 11:-0.0988241 12:-0.912103 13:-0.708904 14:-0.653336 15:-0.510759 16:-0.0750968 17:0.0241998 18:-0.365023 19:-0.583417 20:-0.463203 21:0.0215483 22:0.595759 23:-0.836509 24:-0.232888 25:0.0828729 26:-0.393081 27:-0.474057 28:-0.544188 29:0.0794521 30:0.0777438 31:-0.46715 32:-0.534788 33:0.977895 34:-0.495039 35:0.0948832 36:-0.0430189 37:-0.440788 38:-0.164562 39:-0.314035 40:-0.0573529 41:0.40101 42:-0.467363 43:-0.0766587 44:0.0268336 45:-0.495826 46:-0.191845 47:-0.302763 48:0.0131464 49:-0.249914 50:-0.2197 51:-0.298282 
1024 1:-0.444135 2:0.530297 3:-0.92888 4:-0.642681 5:-0.729372 6:-0.397629 7:0.296723 8:-0.793003 9:-0.614273 10:-0.667961 11:0.276927 12:-0.921801 13:-0.534514 14:-0.481978 15:-0.378977 16:0.102588 17:0.227166 18:-0.56747 19:-0.335882 20:-0.375645 21:0.2498 22:0.295042 23:-0.579224 24:-0.216549 25:0.255985 26:-0.227672 27:-0.3415 28:-0.228266 29:0.260274 30:0.04086 31:-0.244852 32:-0.319767 33:0.931208 34:-0.189955 35:0.176124 36:0.301132 37:-0.389427 38:-0.211149 39:-0.295752 40:0.270588 41:0.412186 42:-0.432332 43:-0.0365279 44:0.352415 45:-0.368814 46:-0.219922 47:-0.214601 48:0.333918 49:-0.105595 50:-0.254489 51:-0.189946 
1024 1:-0.69869 2:0.28664 3:-0.82793 4:-0.709459 5:-0.72271 6:-0.0453053 7:0.114891 8:-0.621864 9:-0.594536 10:-0.611133 11:0.461627 12:-0.712861 13:-0.271497 14:-0.238191 15:-0.375476 16:-0.0626652 17:0.0320062 18:-0.448522 19:-0.454015 20:-0.389735 21:0.104549 22:0.193739 23:-0.639017 24:-0.428751 25:0.208103 26:-0.281256 27:-0.491849 28:-0.462896 29:0.176256 30:-0.0481328 31:-0.398019 32:-0.532553 33:0.956027 34:-0.538652 35:-0.188264 36:-0.129057 37:0.0971236 38:-0.636766 39:-0.308526 40:-0.122059 41:0.13027 42:-0.582233 43:-0.512776 44:0.059034 45:-0.481001 46:-0.524031 47:-0.627889 48:0.00438212 49:-0.151478 50:-0.554644 51:-0.583228 
-1024 1:-0.721402 2:0.304974 3:-0.911024 4:-0.790131 5:-0.84349 6:0.0392299 7:0.00949074 8:-0.838451 9:-0.768282 10:-0.785445 11:0.150537 12:-0.924893 13:-0.536213 14:-0.441046 15:-0.511171 16:0.0297191 17:-0.0569867 18:-0.617658 19:-0.260314 20:-0.360926 21:-0.0422985 22:0.210819 23:-0.547633 24:-0.273632 25:-0.00736648 26:-0.295036 27:-0.318118 28:-0.278098 29:-0.000913242 30:-0.0803013 31:-0.203864 32:-0.372464 33:0.978999 34:-0.612443 35:-0.00280321 36:-0.160755 37:-0.334854 38:-0.25854 39:-0.303369 40:-0.175 41:0.251031 42:-0.459815 43:-0.234965 44:-0.0858676 45:-0.381385 46:-0.322216 47:-0.349962 48:-0.0902717 49:-0.27803 50:-0.270114 51:-0.384886 
-718.64232508861051 1:-0.557266 2:0.714486 3:-0.915189 4:-0.499181 5:-0.629715 6:-0.548466 7:0.456399 8:-0.662716 9:-0.599108 10:-0.684921 11:0.200402 12:-0.912312 13:-0.638904 14:-0.58684 15:-0.391537 16:-0.0411519 17:0.153786 18:-0.163289 19:-0.619038 20:-0.302554 21:0.171588 22:0.358695 23:-0.709518 24:-0.329248 25:0.232044 26:-0.342457 27:-0.448347 28:-0.466739 29:0.220091 30:0.477312 31:-0.531771 32:-0.365641 33:0.925162 34:-0.267466 35:0.21507 36:0.201509 37:-0.193444 38:-0.201892 39:-0.0760035 40:0.157353 41:0.329792 42:-0.328204 43:0.0135802 44:0.300537 45:-0.497159 46:-0.117092 47:-0.213418 48:0.276074 49:-0.146533 50:-0.193111 51:-0.158553 
-1024 1:-0.19333 2:0.545226 3:-0.97521 4:-0.635305 5:-0.683303 6:-0.48385 7:0.282674 8:-0.931161 9:-0.736693 10:-0.79405 11:0.0447772 12:-0.899154 13:-0.776131 14:-0.792151 15:-0.792237 16:-0.819058 17:-0.542545 18:-0.280345 19:-0.976857 20:-0.93886 21:-0.497207 22:0.0446502 23:-0.965017 24:-0.975177 25:-0.432781 26:-0.144726 27:-0.970284 28:-0.963016 29:-0.439269 30:0.363704 31:-0.967641 32:-0.964947 33:-0.770451 34:-0.774907 35:-0.784564 36:-0.577358 37:-0.0498575 38:-0.970016 39:-0.92218 40:-0.582353 41:0.115185 42:-0.949194 43:-0.958095 44:-0.499106 45:-0.249865 46:-0.945455 47:-0.96237 48:-0.516214 49:0.0109533 50:-0.949499 51:-0.95379 
-1024 1:-0.381288 2:0.0960973 3:-0.860313 4:-0.787259 5:-0.790052 6:-0.398737 7:-0.158544 8:-0.809518 9:-0.684269 10:-0.64411 11:-0.141443 12:-0.845522 13:-0.461231 14:-0.138128 15:-0.344384 16:0.315385 17:0.195941 18:-0.630088 19:0.0234454 20:-0.0581205 21:0.227454 22:-0.173374 23:-0.0814332 24:-0.271642 25:0.265193 26:-0.389044 27:0.0148114 28:0.0105668 29:0.251142 30:0.0661951 31:0.0555011 32:0.0181733 33:0.989506 34:-0.470236 35:0.0523341 36:0.0188679 37:-0.28979 38:-0.284802 39:-0.278523 40:-0.00735294 41:-0.118868 42:-0.275947 43:-0.41644 44:0.118068 45:-0.456493 46:-0.276881 47:-0.354801 48:0.0885188 49:-0.140007 50:-0.317939 51:-0.302343 
1024 1:-0.466033 2:0.324577 3:-0.921479 4:-0.799983 5:-0.850312 6:0.159648 7:0.0306466 8:-0.890977 9:-0.739084 10:-0.740267 11:0.174721 12:-0.880398 13:-0.49489 14:-0.326093 15:-0.584886 16:0.0138761 17:-0.0835285 18:-0.0220601 19:-0.579493 20:-0.0442823 21:-0.056664 22:-0.140615 23:-0.392352 24:-0.54585 25:-0.0202578 26:-0.504555 27:-0.259339 28:-0.429515 29:-0.0374429 30:0.241463 31:-0.339871 32:-0.294595 33:0.939097 34:-0.707317 35:-0.0520501 36:-0.246792 37:0.111221 38:-0.537757 39:-0.130853 40:-0.254412 41:-0.174349 42:-0.315527 43:-0.52231 44:-0.169946 45:-0.538237 46:-0.293155 47:-0.452962 48:-0.188431 49:-0.100621 50:-0.383892 51:-0.351408 
1024 1:-0.576075 2:0.617167 3:-0.872927 4:-0.62006 5:-0.72132 6:-0.303772 7:0.186688 8:-0.836421 9:-0.711075 10:-0.756695 11:-0.02079 12:-0.943812 13:-0.751318 14:-0.698559 15:-0.246165 16:0.118308 17:0.281811 18:-0.040509 19:-0.540652 20:-0.0395018 21:0.350359 22:0.157564 23:-0.521842 24:-0.324116 25:0.303867 26:0.00063246 27:-0.419283 28:-0.081172 29:0.32968 30:-0.0682331 31:-0.190135 32:-0.332353 33:0.993288 34:0.3179 35:0.389871 36:0.500377 37:0.000466442 38:-0.136389 39:0.235863 40:0.514706 41:-0.0357219 42:-0.00227416 43:-0.0326479 44:0.534884 45:-0.190375 46:-0.0215943 47:0.182669 48:0.553024 49:-0.312557 50:0.089779 51:0.00312826 
1024 1:-0.509749 2:0.206318 3:-0.839014 4:-0.803414 5:-0.833213 6:-0.28452 7:-0.0246215 8:-0.922954 9:-0.740004 10:-0.765204 11:0.405213 12:-0.870489 13:-0.355053 14:-0.407165 15:-0.528467 16:-0.388807 17:-0.189696 18:-0.358145 19:-0.75166 20:-0.673041 21:-0.173184 22:0.178806 23:-0.817143 24:-0.685153 25:-0.06814 26:-0.270464 27:-0.731253 28:-0.738112 29:-0.0812785 30:0.263562 31:-0.732006 32:-0.726284 33:0.993017 34:-0.698429 35:-0.469378 36:-0.455094 37:-0.0111169 38:-0.781858 39:-0.604688 40:-0.458824 41:0.290524 42:-0.798229 43:-0.635275 44:-0.350626 45:-0.346053 46:-0.725936 47:-0.767982 48:-0.37248 49:-0.0394722 50:-0.751468 51:-0.739641 
1024 1:-0.791727 2:0.215573 3:-0.880094 4:-0.760687 5:-0.77441 6:-0.291845 7:-0.120223 8:-0.934093 9:-0.768266 10:-0.767691 11:0.0242146 12:-0.925622 13:-0.597565 14:-0.547267 15:-0.714815 16:-0.456666 17:-0.297424 18:-0.446926 19:-0.769773 20:-0.766637 21:-0.32482 22:0.278074 23:-0.882201 24:-0.678345 25:-0.195212 26:-0.349104 27:-0.7415 28:-0.803434 29:-0.212785 30:0.270395 31:-0.76917 32:-0.766394 33:0.508961 34:-0.751757 35:-0.403356 36:-0.424906 37:-0.181705 38:-0.701263 39:-0.652622 40:-0.436765 41:0.386501 42:-0.810326 43:-0.566875 44:-0.320215 45:-0.436431 46:-0.655922 47:-0.747984 48:-0.344435 49:-0.0741433 50:-0.700535 51:-0.7032 
-651.57705854786184 1:-0.280489 2:0.242434 3:-0.899837 4:-0.831501 5:-0.877422 6:0.124747 7:-0.0252721 8:-0.975185 9:-0.607903 10:-0.613916 11:0.351218 12:-0.921826 13:0.214781 14:0.356297 15:-0.557706 16:-0.20894 17:-0.241218 18:-0.383398 19:-0.592675 20:-0.492263 21:-0.217877 22:-0.0136079 23:-0.612869 24:-0.633412 25:-0.186004 26:-0.27948 27:-0.539078 28:-0.527137 29:-0.194521 30:0.181962 31:-0.514709 32:-0.533259 33:0.994567 34:-0.721166 35:-0.391202 36:-0.501887 37:-0.141151 38:-0.668964 39:-0.573279 40:-0.5 41:0.0657178 42:-0.665651 43:-0.666316 44:-0.427549 45:-0.344338 46:-0.633746 47:-0.672401 48:-0.444347 49:-0.0618675 50:-0.656768 51:-0.646232 
1024 1:-0.462306 2:0.299929 3:-0.910514 4:-0.761571 5:-0.810138 6:0.454742 7:0.12018 8:-0.936335 9:-0.649425 10:-0.695298 11:0.316136 12:-0.911822 13:-0.489442 14:-0.447653 15:-0.352208 16:-0.236815 17:0.103825 18:-0.501388 19:-0.652747 20:-0.668763 21:0.117318 22:0.0392182 23:-0.711481 24:-0.686724 25:0.158379 26:-0.0161075 27:-0.717559 28:-0.526417 29:0.148858 30:0.15307 31:-0.616493 32:-0.649356 33:0.995062 34:-0.575858 35:-0.343898 36:-0.261887 37:-0.236538 38:-0.67812 39:-0.67114 40:-0.270588 41:0.167533 42:-0.728069 43:-0.65523 44:-0.19678 45:-0.0399035 46:-0.707158 47:-0.545748 48:-0.209465 49:-0.112264 50:-0.650898 51:-0.669283 
1024 1:-0.742933 2:0.739561 3:-0.937135 4:-0.500851 5:-0.610503 6:-0.629367 7:0.397204 8:-0.821215 9:-0.586596 10:-0.630926 11:0.220905 12:-0.902145 13:-0.614788 14:-0.525652 15:-0.44075 16:-0.0944588 17:0.113193 18:0.135554 19:-0.765748 20:-0.212228 21:0.165204 22:0.167662 23:-0.692562 24:-0.5337 25:0.232044 26:-0.243255 27:-0.571216 28:-0.524135 29:0.209132 30:0.388279 31:-0.581192 32:-0.482209 33:0.999151 34:-0.259611 35:0.168036 36:0.246792 37:0.206064 38:-0.458671 39:0.0551421 40:0.230882 41:0.0268509 42:-0.29356 43:-0.284186 44:0.339893 45:-0.546713 46:-0.184871 47:-0.322223 48:0.297108 49:-0.151133 50:-0.262258 51:-0.242522 
565.8965231780694 1:-0.91706 2:0.353084 3:-0.887186 4:-0.84607 5:-0.914266 6:-0.469535 7:-0.163484 8:-0.780389 9:-0.966784 10:-0.975789 11:-0.277737 12:-0.789952 13:-0.859416 14:-0.802512 15:0.586739 16:0.639114 17:0.715847 18:-0.977203 19:0.500805 20:0.0137124 21:0.714286 22:0.477675 23:-0.229218 24:0.585651 25:0.699816 26:-0.313741 27:0.331067 28:0.493876 29:0.715068 30:-0.444345 31:0.614434 32:0.192613 33:0.941317 34:1 35:0.718288 36:0.880755 37:-0.868567 38:0.680636 39:0.0522121 40:0.783824 41:0.615416 42:-0.00101611 43:0.823624 44:0.826476 45:-0.347989 46:0.429606 47:0.549618 48:0.826468 49:-0.593491 50:0.612396 51:0.262609 
-1024 1:0.0154485 2:0.0898476 3:-0.835328 4:-0.831195 5:-0.841275 6:0.858317 7:-0.191382 8:-0.912367 9:-0.664248 10:-0.640871 11:0.187887 12:-0.943425 13:-0.473023 14:-0.403723 15:-0.0845259 16:0.270822 17:0.534738 18:-0.813939 19:-0.107265 20:-0.382061 21:0.538707 22:0.113567 23:-0.399581 24:-0.229327 25:0.61326 26:-0.409094 27:-0.17429 28:-0.211936 29:0.6 30:-0.04082 31:-0.126005 32:-0.239428 33:0.271466 34:0.00578752 35:0.0163334 36:0.489811 37:-0.501892 38:-0.385923 39:-0.564137 40:0.386765 41:-0.0376765 42:-0.435428 43:-0.494152 44:0.584973 45:-0.297641 46:-0.474494 47:-0.444361 48:0.554777 49:-0.141214 50:-0.46711 51:-0.465232 
1024 1:-0.807231 2:0.404655 3:-0.854689 4:-0.77152 5:-0.823238 6:-0.420792 7:0.0518223 8:-0.813302 9:-0.731527 10:-0.757731 11:0.204296 12:-0.795851 13:-0.544369 14:-0.396926 15:-0.506229 16:-0.174365 17:-0.0866511 18:-0.0129462 19:-0.725699 20:-0.287332 21:-0.0885874 22:0.0444262 23:-0.622239 24:-0.578843 25:-0.0607735 26:-0.178879 27:-0.565068 28:-0.461816 29:-0.0611872 30:0.0869348 31:-0.483918 32:-0.552197 33:0.897961 34:-0.65833 35:-0.128716 36:-0.236226 37:0.0651464 38:-0.554561 39:-0.212775 40:-0.273529 41:0.0943604 42:-0.457783 43:-0.402029 44:-0.175313 45:-0.249992 46:-0.451692 47:-0.388238 48:-0.195443 49:-0.243129 50:-0.38674 51:-0.484441 
-1024 1:-0.740513 2:0.191605 3:-0.887224 4:-0.852465 5:-0.896493 6:-0.166788 7:-0.278521 8:-0.897985 9:-0.894981 10:-0.894076 11:-0.137468 12:-0.883085 13:-0.574803 14:-0.398083 15:-0.424483 16:0.255317 17:0.116315 18:-0.264181 19:-0.212719 20:0.150837 21:0.165204 22:0.0393676 23:-0.254384 24:-0.157581 25:0.208103 26:-0.495001 27:0.0328831 28:-0.0978626 29:0.179909 30:0.278707 31:-0.055403 32:0.0661648 33:0.947783 34:-0.621331 35:0.220138 36:-0.107925 37:-0.105131 38:-0.124918 39:0.132728 40:-0.132353 41:0.00798136 42:-0.058112 43:-0.0545979 44:-0.0411449 45:-0.568141 46:0.0975991 47:-0.0773035 48:-0.063979 49:-0.0787144 50:-0.0552486 51:0.0677789 
-1024 1:-0.525148 2:0.21334 3:-0.932827 4:-0.797137 5:-0.822642 6:-0.377212 7:0.0080102 8:-0.79801 9:-0.702158 10:-0.71216 11:0.194218 12:-0.845739 13:-0.356579 14:-0.27229 15:-0.636158 16:-0.0289047 17:-0.0741608 18:-0.598497 19:-0.330851 20:-0.415524 21:-0.0742219 22:0.15915 23:-0.563964 24:-0.365803 25:-0.00736648 26:-0.418298 27:-0.326502 28:-0.414265 29:-0.0118721 30:-0.0409399 31:-0.287998 32:-0.430101 33:0.972327 34:-0.643861 35:-0.0366212 36:-0.157736 37:-0.315626 38:-0.30573 39:-0.333021 40:-0.167647 41:0.186854 42:-0.458364 43:-0.305249 44:-0.0411449 45:-0.526809 46:-0.314973 47:-0.456403 48:-0.051709 49:-0.288667 50:-0.325622 51:-0.449426 
757.9711535437965 1:-0.233921 2:0.0367064 3:-0.807004 4:-0.838734 5:-0.829187 6:0.577419 7:-0.291066 8:-0.849946 9:-0.753712 10:-0.699943 11:-0.0396624 12:-0.927626 13:-0.542432 14:-0.460487 15:-0.150211 16:0.238813 17:0.408275 18:-0.224777 19:-0.371101 20:-0.024154 21:0.482841 22:-0.28528 23:-0.194949 24:-0.499974 25:0.456722 26:-0.168086 27:-0.250862 28:-0.0474304 29:0.457534 30:-0.440149 31:0.0463816 32:-0.341528 33:0.947849 34:-0.442952 35:-0.0267688 36:0.0354717 37:-0.163255 38:-0.468632 39:-0.359859 40:-0.0220588 41:-0.475962 42:-0.198819 43:-0.65911 44:0.0858676 45:-0.150154 46:-0.463942 47:-0.320933 48:0.0692375 49:-0.366088 50:-0.319147 51:-0.498271 
1024 1:-0.101384 2:0.583238 3:-0.918173 4:-0.282567 5:-0.312483 6:-0.819862 7:0.603563 8:-0.830009 9:-0.288681 10:-0.460152 11:0.686502 12:-0.820235 13:-0.272162 14:-0.349326 15:-0.464017 16:-0.621181 17:-0.0117096 18:-0.366276 19:-0.910545 20:-0.888665 21:-0.0933759 22:0.259483 23:-0.953951 24:-0.843938 25:0.171271 26:-0.0969817 27:-0.925291 28:-0.883525 29:0.141553 30:0.460249 31:-0.920475 32:-0.880609 33:0.999567 34:-0.509921 35:-0.512211 36:-0.2 37:-0.0578388 38:-0.831765 39:-0.729974 40:-0.172059 41:0.592763 42:-0.939324 43:-0.6733 44:-0.0161002 45:-0.241294 46:-0.834757 47:-0.830233 48:-0.0692375 49:0.068336 50:-0.845477 51:-0.792657 
498.62903516009533 1:-0.0911396 2:-0.0407653 3:-0.939515 4:-0.904505 5:-0.936501 6:-0.022787 7:-0.108743 8:-0.94138 9:-0.860357 10:-0.852741 11:0.158027 12:-0.751888 13:-0.711038 14:-0.606335 15:-0.182951 16:-0.0157201 17:0.36612 18:-0.523202 19:-0.483196 20:-0.492766 21:0.434956 22:-0.160924 23:-0.498371 24:-0.647761 25:0.480663 26:-0.281256 27:-0.489707 28:-0.455932 29:0.468493 30:0.134368 31:-0.452344 32:-0.477739 33:0.679572 34:-0.40988 35:-0.357832 36:0.0203774 37:-0.0291526 38:-0.783971 39:-0.648052 40:0.0794118 41:-0.0456453 42:-0.726133 43:-0.799568 44:0.207513 45:-0.396495 46:-0.722359 47:-0.777551 48:0.202454 49:-0.134803 50:-0.73567 51:-0.768509 
1024 1:-0.369539 2:0.24576 3:-0.916704 4:-0.797325 5:-0.821275 6:0.116323 7:-0.184573 8:-0.917886 9:-0.862814 10:-0.845594 11:-0.231098 12:-0.943792 13:-0.826595 14:-0.78916 15:-0.174302 16:0.738936 17:0.437939 18:-0.721326 19:0.592675 20:0.43993 21:0.462091 22:-0.0356716 23:0.314355 24:0.367897 25:0.464088 26:-0.348566 27:0.588635 28:0.745077 29:0.463014 30:-0.102559 31:0.753285 32:0.622302 33:0.939925 34:-0.0206697 35:0.693919 36:0.479245 37:-0.459938 38:0.505962 39:0.373103 40:0.458824 41:-0.0163762 42:0.390332 43:0.414777 44:0.542039 45:-0.46516 46:0.497295 47:0.488657 48:0.50745 49:-0.291398 50:0.505439 51:0.486746 
-1024 1:-0.73037 2:0.559585 3:-0.913489 4:-0.505985 5:-0.564767 6:0.402018 7:0.284805 8:-0.775254 9:-0.51372 10:-0.546743 11:0.262078 12:-0.846441 13:-0.565424 14:-0.508629 15:-0.66375 16:-0.0702563 17:-0.277127 18:-0.413467 19:-0.378949 20:-0.260913 21:-0.257781 22:-0.120119 23:-0.376556 24:-0.51956 25:-0.241252 26:-0.377444 27:-0.288216 28:-0.347863 29:-0.249315 30:0.24494 31:-0.329771 32:-0.285773 33:0.957791 34:-0.565316 35:-0.00111381 36:-0.160755 37:-0.209614 38:-0.307642 39:-0.217697 40:-0.167647 41:-0.0673215 42:-0.301689 43:-0.39837 44:-0.0966011 45:-0.424145 46:-0.2632 47:-0.323191 48:-0.116564 49:-0.0974011 50:-0.321478 51:-0.272378 
-1024 1:-0.69904 2:0.435927 3:-0.879342 4:-0.75385 5:-0.812994 6:-0.52282 7:0.00742263 8:-0.895605 9:-0.776556 10:-0.792803 11:0.107748 12:-0.917558 13:-0.637082 14:-0.565925 15:-0.524761 16:-0.331459 17:-0.161593 18:-0.0579999 19:-0.818072 20:-0.498176 21:-0.138069 22:0.0811431 23:-0.756459 24:-0.70034 25:-0.0607735 26:-0.230014 27:-0.698836 28:-0.67111 29:-0.0684932 30:0.208735 31:-0.676015 32:-0.690172 33:0.970352 34:-0.599835 35:-0.260011 36:-0.273962 37:0.0503757 38:-0.683252 39:-0.414474 40:-0.285294 41:0.105762 42:-0.617458 43:-0.57519 44:-0.150268 45:-0.365195 46:-0.580006 47:-0.618536 48:-0.172656 49:-0.160217 50:-0.582528 51:-0.626585 
1024 1:-0.411947 2:0.476063 3:-0.940277 4:-0.387966 5:-0.381309 6:-0.691651 7:0.498724 8:-0.947846 9:-0.185697 10:-0.294356 11:0.630813 12:-0.93413 13:-0.170308 14:-0.115441 15:-0.577473 16:-0.696186 17:-0.18345 18:-0.367873 19:-0.935601 20:-0.922003 21:-0.177973 22:0.0977936 23:-0.945562 24:-0.926997 25:-0.0276243 26:-0.101153 27:-0.945692 28:-0.913905 29:-0.030137 30:0.430478 31:-0.94244 32:-0.917779 33:0.999203 34:-0.678173 35:-0.705894 36:-0.44 37:0.0594714 38:-0.960054 39:-0.850454 40:-0.461765 41:0.440979 42:-0.972033 43:-0.829056 44:-0.31127 45:-0.0368242 46:-0.948674 47:-0.892915 48:-0.323401 49:0.135407 50:-0.942939 51:-0.896603 
1024 1:-0.450266 2:0.30041 3:-0.885793 4:-0.707146 5:-0.727029 6:-0.370082 7:0.183378 8:-0.761899 9:-0.59125 10:-0.621627 11:0.286587 12:-0.838939 13:-0.461986 14:-0.374202 15:-0.480696 16:0.080721 17:0.189696 18:-0.639521 19:-0.284363 20:-0.396779 21:0.176377 22:0.131132 23:-0.483289 24:-0.305787 25:0.279926 26:-0.422874 27:-0.285142 28:-0.35939 29:0.289498 30:-0.165738 31:-0.22122 32:-0.425631 33:0.968671 34:-0.491939 35:0.010428 36:0.0445283 37:-0.377948 38:-0.325753 39:-0.410607 40:0.0147059 41:0.251757 42:-0.445686 43:-0.224433 44:0.148479 45:-0.437732 46:-0.343229 47:-0.408881 48:0.130587 49:-0.318365 50:-0.323722 51:-0.461061 
1024 1:-0.508875 2:0.25606 3:-0.8991 4:-0.814956 5:-0.857259 6:-0.498322 7:-0.0870167 8:-0.938134 9:-0.729745 10:-0.721954 11:0.0323139 12:-0.951141 13:-0.490631 14:-0.263362 15:-0.626892 16:-0.15236 17:-0.117877 18:-0.431719 19:-0.551419 20:-0.491005 21:-0.102953 22:0.182297 23:-0.681139 24:-0.492747 25:-0.0423573 26:-0.401074 27:-0.472287 28:-0.555235 29:-0.0557078 30:0.129733 31:-0.478623 32:-0.521261 33:0.920591 34:-0.641174 35:-0.0806055 36:-0.14566 37:-0.240399 38:-0.429491 39:-0.391503 40:-0.169118 41:0.136911 42:-0.488363 43:-0.394379 44:-0.0554562 45:-0.506079 46:-0.36612 47:-0.492743 48:-0.0815074 49:-0.142738 50:-0.424292 51:-0.432523 
-1024 1:-0.670739 2:0.700304 3:-0.954361 4:-0.316255 5:-0.440775 6:-0.177334 7:0.586162 8:-0.787143 9:-0.330163 10:-0.467532 11:0.534817 12:-0.894782 13:-0.290657 14:-0.291262 15:-0.778235 16:-0.619553 17:-0.497268 18:-0.364655 19:-0.876132 20:-0.838596 21:-0.486034 22:0.207702 23:-0.924323 24:-0.807489 25:-0.40884 26:-0.291914 27:-0.85496 28:-0.894573 29:-0.481279 30:0.682072 31:-0.912434 32:-0.760866 33:0.947845 34:-0.7284 35:-0.433452 36:-0.378113 37:-0.157502 38:-0.773507 39:-0.721887 40:-0.401471 41:0.309895 42:-0.819809 43:-0.655673 44:-0.325581 45:-0.633472 46:-0.648589 47:-0.845823 48:-0.39702 49:0.639748 50:-0.89261 51:-0.423632 
1024 1:-0.673895 2:0.413515 3:-0.918084 4:-0.566577 5:-0.567559 6:-0.0840407 7:0.241982 8:-0.869254 9:-0.371954 10:-0.316828 11:0.311073 12:-0.87745 13:-0.398484 14:-0.204305 15:-0.542881 16:0.16931 17:0.0429352 18:-0.0191859 19:-0.458241 20:0.145301 21:0.0726257 22:-0.164881 23:-0.24421 24:-0.426028 25:0.0957643 26:-0.435442 27:-0.124266 28:-0.207493 29:0.0776256 30:0.126936 31:-0.131398 32:-0.143798 33:0.98888 34:-0.671558 35:0.0970211 36:-0.136604 37:0.091915 38:-0.399708 39:0.0328743 40:-0.139706 41:-0.234116 42:-0.144046 43:-0.413558 44:-0.0536673 45:-0.591791 46:-0.113068 47:-0.310612 48:-0.0832603 49:-0.113472 50:-0.229195 51:-0.17875 
-1024 1:-0.585506 2:0.139056 3:-0.935943 4:-0.737559 5:-0.711457 6:-0.46679 7:-0.074379 8:-0.895968 9:-0.684358 10:-0.623839 11:-0.0248655 12:-0.915254 13:-0.563553 14:-0.354302 15:-0.805415 16:-0.0615742 17:-0.256831 18:-0.335593 19:-0.425538 20:-0.219399 21:-0.192338 22:-0.21963 23:-0.306323 24:-0.568683 25:-0.156538 26:-0.614872 27:-0.172147 28:-0.467699 29:-0.156164 30:-0.376651 31:-0.111296 32:-0.497853 33:0.725524 34:-0.778834 35:-0.011938 36:-0.22717 37:-0.176471 38:-0.316597 39:-0.188866 40:-0.205882 41:-0.251757 42:-0.188368 43:-0.476858 44:-0.109123 45:-0.683851 46:-0.174856 47:-0.449737 48:-0.127082 49:-0.426633 50:-0.193629 51:-0.443938 
-1024 1:-0.778981 2:0.529729 3:-0.935012 4:-0.673698 5:-0.75268 6:-0.000751992 7:0.168078 8:-0.889421 9:-0.719877 10:-0.765759 11:0.0725921 12:-0.888328 13:-0.691082 14:-0.632344 15:-0.216102 16:0.22486 17:0.259953 18:-0.352617 19:-0.277319 20:-0.0569883 21:0.276935 22:0.214347 23:-0.415287 24:-0.102383 25:0.316759 26:-0.465612 27:-0.079646 28:-0.179035 29:0.313242 30:0.259126 31:-0.156894 32:-0.0659295 33:0.91743 34:-0.00909467 35:0.404807 36:0.367547 37:-0.442679 38:0.164461 39:0.0367419 40:0.304412 41:0.122577 42:0.000725795 43:0.15947 44:0.415027 45:-0.590553 46:0.186569 47:0.0225782 48:0.374233 49:-0.200983 50:0.0886568 51:0.11355 
-1024 1:-0.895545 2:0.420627 3:-0.930542 4:-0.761382 5:-0.841335 6:-0.0908129 7:0.0412062 8:-0.965153 9:-0.784488 10:-0.821547 11:0.036186 12:-0.951611 13:-0.690204 14:-0.632085 15:-0.423247 16:0.0878358 17:0.0741608 18:-0.207778 19:-0.448078 20:-0.0992578 21:0.0790104 22:0.064866 23:-0.426532 24:-0.323697 25:0.0865562 26:-0.36902 27:-0.202143 28:-0.221061 29:0.0630137 30:0.27543 31:-0.230928 32:-0.142269 33:0.983622 34:-0.378876 35:0.192256 36:0.0656604 37:-0.333921 38:-0.0836645 39:-0.106944 40:0.0352941 41:0.0857401 42:-0.195239 43:-0.111025 44:0.110912 45:-0.452748 46:-0.0376895 47:-0.0976239 48:0.0692375 49:-0.0336074 50:-0.139503 51:0.0192635 
-1024 1:-0.640727 2:0.589064 3:-0.881861 4:-0.605763 5:-0.68479 6:-0.366028 7:0.220033 8:-0.874742 9:-0.669845 10:-0.726507 11:0.0172581 12:-0.917344 13:-0.745894 14:-0.726178 15:-0.459281 16:0.00985002 17:0.0616706 18:0.111897 19:-0.652747 20:-0.0138382 21:0.0933759 22:-0.0827671 23:-0.44197 24:-0.522702 25:0.138122 26:-0.279076 27:-0.398789 28:-0.352426 29:0.148858 30:-0.0420987 31:-0.321534 32:-0.455155 33:0.985412 34:-0.261265 35:0.233145 36:0.234717 37:0.160663 38:-0.358153 39:0.148667 40:0.216176 41:-0.0663192 42:-0.151594 43:-0.229644 44:0.32737 45:-0.344084 46:-0.164394 47:-0.131491 48:0.288344 49:-0.343894 50:-0.100829 51:-0.24384 
-1024 1:-0.252465 2:0.793255 3:-0.946152 4:-0.443223 5:-0.578342 6:-0.557347 7:0.478451 8:-0.8999 9:-0.579128 10:-0.658845 11:0.453099 12:-0.870312 13:-0.526785 14:-0.520373 15:-0.563678 16:-0.501537 17:-0.0320062 18:-0.197141 19:-0.909439 20:-0.788401 21:-0.0694334 22:0.470414 23:-0.972424 24:-0.723593 25:0.173112 26:-0.127959 27:-0.887471 28:-0.845101 29:0.147032 30:0.426602 31:-0.88331 32:-0.842028 33:0.337093 34:-0.448739 35:-0.223308 36:0.0928302 37:-0.104639 38:-0.712633 39:-0.611603 40:0.0617647 41:0.508088 42:-0.812648 43:-0.50934 44:0.250447 45:-0.4577 46:-0.647964 47:-0.732287 48:0.212971 49:-0.0758395 50:-0.688881 51:-0.681137 
-1024 1:-0.568883 2:0.317462 3:-0.917761 4:-0.759511 5:-0.802381 6:-0.128478 7:0.0385107 8:-0.980583 9:-0.774717 10:-0.79582 11:0.0224025 12:-0.780641 13:-0.667015 14:-0.54012 15:-0.730464 16:-0.11568 17:-0.191257 18:-0.274793 19:-0.576776 20:-0.351365 21:-0.168396 22:0.10162 23:-0.605551 24:-0.490861 25:-0.121547 26:-0.27948 27:-0.461109 28:-0.433838 29:-0.105023 30:-0.207976 31:-0.314277 32:-0.563959 33:0.834467 34:-0.678586 35:0.0800822 36:-0.085283 37:-0.102669 38:-0.335212 39:-0.127102 40:-0.1 41:0.0731603 42:-0.304205 43:-0.249598 44:-0.0143113 45:-0.435383 46:-0.198462 47:-0.259865 48:-0.00788782 49:-0.330497 50:-0.17058 51:-0.323089 
1024 1:-0.530191 2:0.274214 3:-0.890981 4:-0.808288 5:-0.855847 6:0.178418 7:-0.0370567 8:-0.88937 9:-0.818184 10:-0.835064 11:0.0754287 12:-0.886334 13:-0.658597 14:-0.570996 15:-0.433954 16:0.39629 17:0.0991413 18:-0.354042 19:0.011773 20:0.313876 21:0.13328 22:-0.145318 23:0.0591228 24:-0.0970411 25:0.149171 26:-0.379974 27:0.184816 28:0.210615 29:0.141553 30:-0.0478931 31:0.278094 32:0.15262 33:0.893299 34:-0.506614 35:0.315747 36:0.0128302 37:-0.235501 38:0.0384867 39:0.151011 40:0.00882353 41:-0.0820062 42:0.0749504 43:-0.0197883 44:0.0966011 45:-0.422145 46:0.0769437 47:0.0558005 48:0.0762489 49:-0.198396 50:0.0528315 51:0.0625103 
-1024 1:-0.354231 2:0.256928 3:-0.887236 4:-0.771539 5:-0.785249 6:0.588165 7:-0.0697614 8:-0.886079 9:-0.597473 10:-0.565653 11:0.314169 12:-0.939564 13:-0.0407359 14:0.0454106 15:-0.679399 16:-0.396874 17:-0.416081 18:-0.468617 19:-0.67911 20:-0.682979 21:-0.407821 22:0.142556 23:-0.779394 24:-0.660016 25:-0.392265 26:-0.193169 27:-0.683279 28:-0.626681 29:-0.391781 30:0.190353 31:-0.640714 32:-0.671352 33:0.992461 34:-0.802398 35:-0.478901 36:-0.590943 37:-0.225939 38:-0.68939 39:-0.67782 40:-0.598529 41:0.155806 42:-0.736778 43:-0.666205 44:-0.55814 45:-0.214438 46:-0.701882 47:-0.658961 48:-0.561788 49:-0.143457 50:-0.658235 51:-0.718786 
1024 1:-0.895088 2:0.570882 3:-0.919074 4:-0.558473 5:-0.629916 6:-0.460331 7:0.460834 8:-0.90752 9:-0.494391 10:-0.607224 11:0.611353 12:-0.900005 13:-0.362389 14:-0.409125 15:-0.54041 16:-0.449935 17:-0.131928 18:-0.190262 19:-0.852687 20:-0.683231 21:-0.0981644 22:0.129135 23:-0.84579 24:-0.772401 25:0.0736648 26:-0.201539 27:-0.816395 28:-0.793708 29:0.0520548 30:0.315111 31:-0.808394 32:-0.79086 33:0.98867 34:-0.504961 35:-0.407886 36:-0.126038 37:0.153511 38:-0.840217 39:-0.58242 40:-0.164706 41:0.379584 42:-0.820487 43:-0.616097 44:0.118068 45:-0.302625 46:-0.769571 47:-0.784002 48:0.0692375 49:0.0101771 50:-0.789106 51:-0.752154 
-1024 1:-0.59428 2:0.420967 3:-0.920219 4:-0.582017 5:-0.60215 6:-0.231683 7:0.190472 8:-0.887378 9:-0.527924 10:-0.524656 11:0.157542 12:-0.921559 13:-0.547044 14:-0.387551 15:-0.561001 16:-0.0525386 17:-0.0117096 18:-0.563883 19:-0.417589 20:-0.469367 21:-0.0199521 22:0.27828 23:-0.654188 24:-0.334904 25:0.0644567 26:-0.376233 27:-0.404751 28:-0.454971 29:0.0447489 30:0.0641571 31:-0.375172 32:-0.448921 33:0.978622 34:-0.603142 35:-0.0329135 36:-0.104906 37:-0.387043 38:-0.305529 39:-0.404395 40:-0.152941 41:0.264888 42:-0.489621 43:-0.259243 44:-0.0178891 45:-0.507666 46:-0.317745 47:-0.443286 48:-0.0534619 49:-0.185258 50:-0.349189 51:-0.384447 
-1024 1:-0.841159 2:0.539706 3:-0.920988 4:-0.610513 5:-0.670625 6:-0.551626 7:0.261249 8:-0.928871 9:-0.619691 10:-0.657747 11:0.293199 12:-0.925285 13:-0.513237 14:-0.468687 15:-0.58015 16:-0.227104 17:-0.0569867 18:-0.33891 19:-0.696317 20:-0.584853 21:-0.0694334 22:0.408833 23:-0.844094 24:-0.484787 25:0.014733 26:-0.240806 27:-0.654588 28:-0.62524 29:0.0118721 30:0.0920098 31:-0.605903 32:-0.671587 33:0.999834 34:-0.61451 35:-0.140228 36:-0.163774 37:-0.16753 38:-0.541379 39:-0.449868 40:-0.177941 41:0.418125 42:-0.682489 43:-0.363006 44:-0.0769231 45:-0.30199 46:-0.529307 47:-0.516934 48:-0.0990359 49:-0.154813 50:-0.512086 51:-0.541957 
-1024 1:-0.828483 2:0.634632 3:-0.910964 4:-0.39453 5:-0.51764 6:-0.38321 7:0.644142 8:-0.795685 9:-0.185322 10:-0.363665 11:0.629482 12:-0.922694 13:-0.164999 14:-0.0983321 15:-0.598064 16:-0.40989 17:-0.216237 18:0.11907 19:-0.902194 20:-0.487483 21:-0.181165 22:-0.0458262 23:-0.758065 24:-0.812831 25:-0.143646 26:-0.349427 27:-0.711691 28:-0.771254 29:-0.157991 30:0.445224 31:-0.776917 32:-0.693701 33:0.97445 34:-0.645515 35:-0.306761 36:-0.233208 37:0.304975 38:-0.801378 39:-0.351069 40:-0.277941 41:0.11759 42:-0.67107 43:-0.627515 44:-0.19678 45:-0.309006 46:-0.632763 47:-0.640146 48:-0.204207 49:0.00977461 50:-0.676968 51:-0.611547 
-1024 1:-0.654631 2:0.19595 3:-0.893056 4:-0.842438 5:-0.879184 6:-0.18491 7:-0.244014 8:-0.868628 9:-0.872536 10:-0.860769 11:-0.116443 12:-0.955432 13:-0.739092 14:-0.665221 15:-0.616596 16:-0.159736 17:-0.0710383 18:-0.483062 19:-0.536426 20:-0.523714 21:-0.0646449 22:0.189091 23:-0.687386 24:-0.494946 25:0.0110497 26:-0.369209 27:-0.493805 28:-0.548151 29:0.00273973 30:0.113229 31:-0.49039 32:-0.541257 33:0.558314 34:-0.585159 35:-0.153967 36:-0.116981 37:-0.281912 38:-0.499321 39:-0.509288 40:-0.147059 41:0.169864 42:-0.587749 43:-0.48229 44:-0.0178891 45:-0.39586 46:-0.506326 47:-0.556607 48:-0.0464505 49:-0.168698 50:-0.514934 51:-0.553812 
-1024 1:-0.555509 2:0.415798 3:-0.892143 4:-0.626298 5:-0.673702 6:-0.287554 7:0.399414 8:-0.583899 9:-0.524792 10:-0.620161 11:0.412248 12:-0.866611 13:-0.516159 14:-0.54558 15:-0.0116339 16:0.149179 17:0.476971 18:-0.655858 19:-0.267458 20:-0.38508 21:0.481245 22:0.15286 23:-0.485074 24:-0.284839 25:0.561694 26:-0.366948 27:-0.286074 28:-0.29731 29:0.559817 30:-0.00329677 31:-0.238968 32:-0.332824 33:0.999974 34:-0.0851592 35:-0.0140759 36:0.30566 37:-0.25986 38:-0.463098 39:-0.444711 40:0.232353 41:0.409931 42:-0.589587 43:-0.261903 44:0.400716 45:-0.326656 46:-0.457594 47:-0.447049 48:0.374233 49:-0.128076 50:-0.462276 51:-0.45228 
1024 1:-0.660746 2:0.477793 3:-0.861555 4:-0.656055 5:-0.697654 6:-0.240352 7:0.160971 8:-0.870113 9:-0.674637 10:-0.67573 11:0.146144 12:-0.907224 13:-0.620171 14:-0.525925 15:-0.381859 16:0.188272 17:0.18345 18:-0.330115 19:-0.332562 20:-0.0995094 21:0.224262 22:0.0806765 23:-0.376467 24:-0.243048 25:0.230203 26:-0.291887 27:-0.206428 28:-0.135086 29:0.234703 30:-0.00309696 31:-0.123848 32:-0.22496 33:0.960086 34:-0.343324 35:0.209479 36:0.178868 37:-0.198367 38:-0.232882 39:-0.117961 40:0.157353 41:-0.0284798 42:-0.127111 43:-0.164348 44:0.261181 45:-0.347227 46:-0.173693 47:-0.146006 48:0.241017 49:-0.240168 50:-0.14615 51:-0.19708 
-183.29841073644207 1:-0.728963 2:0.384597 3:-0.888714 4:-0.790736 5:-0.854144 6:0.106125 7:-0.00209799 8:-0.922149 9:-0.816524 10:-0.840964 11:0.038098 12:-0.938766 13:-0.720022 14:-0.675095 15:0.119531 16:0.574006 17:0.553474 18:-0.249367 19:0.0244516 20:0.480815 21:0.613727 22:-0.126521 23:0.0850029 24:-0.0228856 25:0.578269 26:-0.308654 27:0.261947 28:0.414625 29:0.576256 30:-0.0287119 31:0.376839 32:0.296477 33:0.953917 34:0.217032 35:0.585857 36:0.54566 37:-0.144727 38:0.151482 39:0.403575 40:0.507353 41:-0.22532 42:0.307979 43:0.0635774 44:0.556351 45:-0.336815 46:0.293155 47:0.401247 48:0.549518 49:-0.284901 50:0.307838 51:0.274244 
291.80253462037177 1:-0.637881 2:0.42636 3:-0.899753 4:-0.691894 5:-0.755346 6:-0.589791 7:0.31422 8:-0.896407 9:-0.603835 10:-0.654115 11:0.392458 12:-0.900811 13:-0.493807 14:-0.418543 15:-0.188098 16:-0.00113713 17:0.264637 18:-0.417963 19:-0.472932 20:-0.37879 21:0.259377 22:0.187075 23:-0.600107 24:-0.388636 25:0.416206 26:-0.335406 27:-0.441919 28:-0.448607 29:0.39726 30:0.169894 31:-0.43234 32:-0.436688 33:0.968544 34:-0.312733 35:-0.0431097 36:0.0973585 37:-0.0770407 38:-0.499723 39:-0.312628 40:0.0514706 41:0.369786 42:-0.574781 43:-0.272878 44:0.241503 45:-0.390496 46:-0.443466 47:-0.478981 48:0.239264 49:-0.139403 50:-0.470563 51:-0.473245 
-1024 1:-0.466533 2:0.443645 3:-0.946567 4:-0.612274 5:-0.671491 6:-0.236744 7:0.309058 8:-0.852127 9:-0.513704 10:-0.54402 11:0.275928 12:-0.901333 13:-0.532496 14:-0.424572 15:-0.556677 16:-0.00302723 17:-0.0991413 18:-0.0967647 19:-0.552626 20:-0.099132 21:-0.0869912 22:-0.0999963 23:-0.401722 24:-0.509191 25:-0.0441989 26:-0.319904 27:-0.337122 28:-0.32817 29:-0.0447489 30:-0.0124478 31:-0.263581 32:-0.389167 33:0.999851 34:-0.662257 35:-0.0608559 36:-0.234717 37:-0.0116611 38:-0.482417 39:-0.202813 40:-0.264706 41:-0.0993723 42:-0.334882 43:-0.469098 44:-0.16458 45:-0.454779 46:-0.323557 47:-0.416084 48:-0.179667 49:-0.231687 50:-0.33857 51:-0.422095 
-482.36806041411467 1:-0.736398 2:0.240507 3:-0.851891 4:-0.797611 5:-0.830315 6:0.214442 7:-0.239337 8:-0.65793 9:-0.862643 10:-0.833931 11:-0.166166 12:-0.948687 13:-0.755068 14:-0.659298 15:-0.190981 16:0.675026 17:0.437939 18:-0.743558 19:0.555846 20:0.367468 21:0.466879 22:-0.0351863 23:0.262416 24:0.311129 25:0.45488 26:-0.477992 27:0.597671 28:0.56232 29:0.441096 30:-0.105756 31:0.671896 32:0.531965 33:0.916187 34:0.267259 35:0.689464 36:0.57283 37:-0.614149 38:0.683151 39:0.350249 40:0.563235 41:-0.182418 42:0.54333 43:0.354249 44:0.645796 45:-0.571664 46:0.5733 47:0.457048 48:0.602103 49:-0.241893 50:0.491972 51:0.537237 
-1024 1:-0.391978 2:0.364062 3:-0.908805 4:-0.788754 5:-0.850408 6:0.165549 7:-0.0919795 8:-0.920956 9:-0.850611 10:-0.870949 11:-0.0962945 12:-0.845516 13:-0.724675 14:-0.645448 15:-0.434984 16:0.165991 17:0.0928962 18:-0.232884 19:-0.377641 20:-0.0327085 21:0.11253 22:0.0557194 23:-0.386551 24:-0.288924 25:0.0883978 26:0.382611 27:-0.490638 28:0.309798 29:0.114155 30:-0.481628 31:0.0753089 32:-0.373758 33:0.875791 34:-0.382803 35:0.309751 36:0.141132 37:-0.20767 38:-0.0495548 39:0.0854966 40:0.104412 41:-0.010788 42:-0.0464993 43:-0.0589213 44:0.155635 45:-0.0494587 46:-0.110028 47:0.223954 48:0.167397 49:-0.390496 50:0.111274 51:-0.0764502 
1024 1:-0.661538 2:0.307814 3:-0.902632 4:-0.702688 5:-0.712562 6:-0.079237 7:-0.133996 8:-0.812157 9:-0.825278 10:-0.769055 11:-0.0834466 12:-0.87506 13:-0.646978 14:-0.495704 15:-0.769381 16:-0.165837 17:-0.291179 18:0.0134375 19:-0.720064 20:-0.211222 21:-0.238627 22:-0.0685993 23:-0.542189 24:-0.620738 25:-0.169429 26:-0.361861 27:-0.490172 28:-0.54695 29:-0.156164 30:-0.127855 31:-0.416356 32:-0.614421 33:0.779015 34:-0.742662 35:0.0151224 36:-0.25283 37:-0.10184 38:-0.343965 39:-0.130618 40:-0.229412 41:-0.412587 42:-0.0540475 43:-0.520647 44:-0.146691 45:-0.614584 46:-0.160638 47:-0.384582 48:-0.139351 49:-0.534154 50:-0.113778 51:-0.465123 
-1024 1:-0.562655 2:0.35966 3:-0.950801 4:-0.718518 5:-0.763228 6:-0.266207 7:-0.012256 8:-0.860023 9:-0.81419 10:-0.806557 11:-0.0600179 12:-0.93224 13:-0.720105 14:-0.668204 15:-0.622774 16:-0.350867 17:-0.0991413 18:-0.552509 19:-0.691487 20:-0.753806 21:-0.0646449 22:-0.0465168 23:-0.73513 24:-0.788007 25:-0.00368324 26:-0.207945 27:-0.737028 28:-0.700768 29:-0.0118721 30:0.279866 31:-0.722397 32:-0.707111 33:-0.640761 34:-0.678793 35:-0.549841 36:-0.340377 37:-0.109458 38:-0.855914 39:-0.794785 40:-0.373529 41:0.166531 42:-0.848067 43:-0.805332 44:-0.19678 45:-0.346846 46:-0.823758 47:-0.865928 48:-0.2305 49:-0.0788581 50:-0.83106 51:-0.851929 
-829.55685667801401 1:-0.644865 2:0.0036712 3:-0.917768 4:-0.836115 5:-0.828497 6:-0.528862 7:-0.177788 8:-0.951775 9:-0.766273 10:-0.746638 11:0.0117403 12:-0.896145 13:-0.650703 14:-0.574216 15:-0.363327 16:-0.301171 17:0.192818 18:-0.52873 19:-0.703763 20:-0.74349 21:0.131684 22:0.0452475 23:-0.754674 24:-0.731343 25:0.313076 26:-0.282414 27:-0.71225 28:-0.71818 29:0.302283 30:0.19407 31:-0.700628 32:-0.718167 33:-0.739293 34:-0.565523 35:-0.537896 36:-0.293585 37:-0.244157 38:-0.816874 39:-0.83264 40:-0.354412 41:0.338963 42:-0.878744 43:-0.728951 44:-0.09839 45:-0.386813 46:-0.816068 47:-0.872809 48:-0.142857 49:-0.0673873 50:-0.833046 51:-0.847319 
1024 1:-0.949112 2:0.593508 3:-0.916252 4:-0.554483 5:-0.659211 6:-0.602727 7:0.366258 8:-0.945537 9:-0.576378 10:-0.657062 11:0.357443 12:-0.92261 13:-0.526653 14:-0.516909 15:-0.514053 16:-0.372257 17:-0.0413739 18:-0.302675 19:-0.793117 20:-0.686124 21:-0.0742219 22:0.347364 23:-0.873812 24:-0.61194 25:0.0589319 26:-0.0944788 27:-0.788915 28:-0.688401 29:0.0538813 30:0.309956 31:-0.750735 32:-0.725813 33:0.950467 34:-0.509095 35:-0.246481 36:-0.107925 37:-0.164784 38:-0.632037 39:-0.557691 40:-0.130882 41:0.586047 42:-0.785262 43:-0.366221 44:-0.0125224 45:-0.306117 46:-0.607726 47:-0.607032 48:-0.0271691 49:-0.103266 50:-0.611792 51:-0.613742 
1024 1:-0.681933 2:0.278467 3:-0.932248 4:-0.838454 5:-0.8896 6:0.0318104 7:-0.204136 8:-0.950607 9:-0.86859 10:-0.857268 11:-0.023364 12:-0.973436 13:-0.61917 14:-0.577339 15:-0.658602 16:-0.0466685 17:-0.166276 18:-0.508905 19:-0.391527 20:-0.387848 21:-0.139665 22:0.102404 23:-0.546562 24:-0.417125 25:-0.0994475 26:-0.461198 27:-0.298742 28:-0.434078 29:-0.106849 30:-0.141322 31:-0.243185 32:-0.458801 33:0.955541 34:-0.646962 35:-0.0274566 36:-0.151698 37:-0.38072 38:-0.320722 39:-0.41588 40:-0.172059 41:0.0923306 42:-0.42159 43:-0.362674 44:-0.0769231 45:-0.471318 46:-0.30925 47:-0.409526 48:-0.0972831 49:-0.211333 50:-0.33106 51:-0.390264 
1024 1:-0.580287 2:0.458092 3:-0.919363 4:-0.692193 5:-0.771305 6:-0.526033 7:0.198638 8:-0.883049 9:-0.70717 10:-0.754223 11:0.231571 12:-0.861481 13:-0.605146 14:-0.609508 15:-0.292289 16:0.0195464 17:0.20687 18:-0.383718 19:-0.477963 20:-0.349101 21:0.227454 22:0.18211 23:-0.597965 24:-0.39094 25:0.285451 26:-0.339819 27:-0.395715 28:-0.403338 29:0.291324 30:0.159224 31:-0.388115 32:-0.396459 33:0.916353 34:-0.208557 35:0.0697963 36:0.230189 37:-0.123348 38:-0.397092 39:-0.233988 40:0.192647 41:0.140043 42:-0.416558 43:-0.309683 44:0.336315 45:-0.354655 46:-0.343587 47:-0.341039 48:0.302366 49:-0.142882 50:-0.34703 51:-0.332858 
1024 1:-0.939274 2:0.412627 3:-0.923391 4:-0.78542 5:-0.852919 6:-0.0977052 7:-0.18687 8:-0.83219 9:-0.912952 10:-0.899767 11:-0.512361 12:-0.957789 13:-0.944187 14:-0.912996 15:0.347678 16:0.742132 17:0.725215 18:-0.623677 19:0.409036 20:0.396905 21:0.73344 22:0.289032 23:-0.0200348 24:0.540194 25:0.686924 26:-0.0775234 27:0.347741 28:0.85915 29:0.696804 30:-0.564387 31:0.838007 32:0.299653 33:0.968938 34:0.683754 35:0.881024 36:0.744906 37:-0.585618 38:0.780752 39:0.493349 40:0.679412 41:0.202466 42:0.437461 43:0.783493 44:0.744186 45:-0.104695 46:0.564805 47:1 48:0.705521 49:-0.765151 50:1 51:0.435816 
1024 1:-0.512486 2:0.281568 3:-0.94043 4:-0.836966 5:-0.905463 6:-0.0863644 7:-0.166129 8:-0.867644 9:-0.919355 10:-0.922518 11:-0.364026 12:-0.941235 13:-0.905629 14:-0.87634 15:0.792443 16:0.767287 17:0.778298 18:-0.69025 19:0.507346 20:0.410492 21:0.786113 22:0.0805271 23:0.188167 24:0.430113 25:0.756906 26:-0.267342 27:0.495668 28:0.762368 29:0.762557 30:-0.0573638 31:0.669739 32:0.591131 33:0.906748 34:0.785242 35:0.752196 36:0.73283 37:-0.377896 38:0.466016 39:0.448227 40:0.673529 41:0.110273 42:0.32114 43:0.51322 44:0.738819 45:-0.481572 46:0.551661 47:0.536394 48:0.696757 49:-0.175857 50:0.484893 51:0.615279 
